const float w2[512][128] = {{-0.072314, -0.047844, 0.118572, 0.018487, 0.075286, 0.069582, -0.021882, -0.136084, 0.033583, -0.040391, -0.049008, 0.014969, 0.023569, 0.056946, -0.021068, 0.043706, 0.104278, 0.131017, -0.027453, 0.057776, 0.023448, 0.112960, 0.113665, 0.137085, 0.013510, 0.035235, -0.016862, -0.085599, -0.018024, 0.047100, -0.037306, -0.048361, 0.040768, 0.047944, 0.124927, 0.068592, 0.072451, -0.089752, -0.080006, -0.053425, 0.002861, 0.017703, -0.056173, 0.002097, 0.004630, 0.034672, 0.033257, -0.029101, 0.109745, 0.055870, 0.105561, -0.012895, 0.090771, 0.103476, -0.094547, 0.050299, 0.002717, -0.079312, 0.033461, -0.007666, 0.015189, 0.011536, 0.001702, -0.044568, 0.125879, -0.037182, -0.032655, -0.012519, 0.102910, -0.069806, -0.205449, 0.067322, 0.117258, -0.008012, 0.084726, -0.016964, 0.077677, 0.090144, 0.085078, 0.012041, 0.055963, 0.025720, 0.005653, 0.101904, 0.039850, -0.086200, 0.093437, 0.069974, 0.065118, -0.000419, 0.081242, 0.099437, 0.004515, 0.139854, 0.014506, -0.058630, -0.060277, 0.035268, 0.066744, 0.013170, 0.028455, 0.057853, 0.046292, -0.105080, 0.018412, -0.042866, 0.101332, -0.014797, -0.081582, 0.008965, 0.103693, 0.073147, -0.082366, -0.128107, -0.047057, 0.117589, -0.041646, 0.134486, -0.076078, 0.133429, -0.064503, 0.015038, -0.017016, 0.080355, -0.000487, -0.072733, 0.146957, -0.153842},
{-0.100069, 0.105660, -0.082846, 0.014432, 0.025277, -0.005422, 0.045804, -0.034880, -0.038195, -0.010862, -0.129700, 0.008952, 0.100534, 0.065276, -0.050957, -0.040717, 0.054170, 0.091091, -0.092797, -0.134581, 0.048600, 0.142085, -0.028918, 0.044313, 0.120507, 0.032830, -0.100412, 0.022254, -0.062127, 0.002285, -0.084718, -0.117412, -0.045579, 0.004910, -0.065707, 0.006662, 0.031317, -0.108013, 0.061620, -0.021765, 0.127373, 0.059748, 0.203011, 0.116926, -0.010501, -0.109097, -0.105105, 0.028843, 0.034564, -0.060008, -0.016528, -0.123067, -0.069941, 0.053939, -0.140596, -0.042409, -0.095112, 0.012173, -0.012813, 0.103528, -0.014127, 0.085744, -0.011542, 0.056550, 0.024006, -0.081171, -0.096718, 0.196435, 0.078263, -0.026898, -0.117683, -0.033143, 0.066253, -0.069248, 0.059303, 0.053125, 0.044720, 0.027501, -0.011884, 0.096887, 0.077251, -0.017361, 0.052087, 0.130750, -0.111164, -0.077252, -0.051498, 0.055473, -0.081878, 0.196758, -0.026354, 0.114274, -0.033577, 0.095311, 0.223943, -0.052810, -0.318181, -0.033188, 0.079313, 0.100641, -0.129761, -0.060762, 0.041337, -0.099551, -0.043941, -0.022560, -0.043878, 0.081328, 0.044759, -0.012344, 0.060879, -0.098963, 0.164903, 0.073336, 0.176969, 0.053410, 0.026075, 0.028971, 0.106662, -0.057813, 0.126828, -0.045472, 0.023875, 0.133788, -0.001055, -0.001923, -0.036410, -0.147519},
{0.035872, -0.123731, 0.245126, -0.326170, 0.189344, 0.128711, 0.020126, 0.083137, -0.117281, 0.207994, 0.079007, -0.245986, -0.387498, 0.016517, 0.128794, -0.034033, -0.000612, 0.029026, 0.001619, 0.254694, 0.108437, 0.154255, 0.214517, 0.113253, -0.061773, 0.036576, -0.054852, -0.123945, 0.175245, 0.056950, 0.263408, 0.122141, 0.113989, 0.004725, -0.006258, -0.006179, 0.047362, -0.002735, -0.041792, 0.004813, -0.030425, -0.147999, -0.076598, -0.210483, 0.102373, 0.039189, 0.058509, -0.019481, -0.111830, -0.063642, 0.142417, -0.063612, 0.021746, 0.014247, -0.033979, 0.153296, 0.002885, 0.004320, -0.179365, 0.058687, 0.024804, 0.092115, -0.046713, -0.082249, 0.028776, -0.007574, 0.162434, -0.280243, -0.164600, 0.008542, 0.009230, -0.125859, 0.025963, -0.115431, 0.061548, -0.089424, -0.117088, 0.056116, -0.032288, 0.037484, 0.176687, -0.090137, -0.138660, -0.221110, 0.156610, -0.096255, 0.365004, 0.010163, 0.185604, -0.263451, 0.160140, -0.012659, 0.070522, -0.004045, 0.187676, 0.141331, 0.187695, 0.058898, 0.070351, -0.055672, 0.134105, 0.084492, 0.104591, -0.020125, 0.268851, -0.185542, 0.083989, -0.150184, 0.101793, 0.074514, 0.006346, 0.059176, -0.234339, 0.010432, -0.032011, -0.000807, 0.042988, 0.058737, 0.163173, 0.135567, 0.068606, 0.213539, -0.122468, -0.182675, -0.056761, 0.068567, 0.232846, -0.095858},
{-0.032148, 0.086169, 0.011440, 0.193169, 0.253223, 0.095487, 0.034871, -0.016246, -0.029038, -0.023492, -0.084735, 0.145109, 0.023304, 0.093722, 0.089410, -0.025748, 0.048900, 0.103636, -0.029926, -0.116195, 0.025445, -0.013260, -0.018254, -0.030901, 0.160184, 0.020076, 0.011973, -0.029736, -0.086235, -0.162380, 0.087497, 0.022477, 0.083941, -0.039731, 0.035429, 0.082127, 0.043781, 0.150904, -0.049110, 0.080714, 0.091347, 0.048654, 0.233147, 0.037156, 0.103932, -0.053416, 0.133048, 0.047484, 0.013185, 0.006781, -0.008984, -0.019936, 0.174786, -0.019202, 0.088770, 0.029132, -0.042410, 0.027134, -0.122042, 0.070926, -0.023655, 0.074171, 0.115630, 0.073710, 0.007068, 0.052570, -0.163824, -0.036095, -0.020324, 0.037528, 0.054181, 0.062421, -0.051491, -0.159466, -0.048740, 0.068794, 0.022984, 0.014200, -0.149665, 0.108423, 0.059405, 0.167154, 0.053609, 0.092564, 0.042922, -0.099825, -0.020264, -0.024276, -0.013618, 0.104144, 0.171385, 0.011135, -0.083900, 0.017346, -0.004281, -0.134837, -0.000107, 0.157774, 0.047527, -0.021032, 0.039835, -0.014974, 0.012667, -0.060427, -0.046152, -0.122963, -0.081822, 0.018113, -0.112840, -0.018228, 0.064603, -0.155816, 0.072466, 0.181844, 0.136734, 0.015426, 0.032803, 0.035400, -0.039535, 0.091240, 0.092016, 0.078274, 0.174709, 0.029572, -0.052376, 0.055656, -0.095383, 0.101317},
{-0.059906, 0.195282, -0.071162, 0.035237, 0.226649, 0.074223, -0.073593, 0.059856, -0.079473, 0.154950, 0.049207, 0.013523, 0.027615, 0.114334, 0.162735, 0.058588, 0.209934, 0.324593, 0.228961, 0.056636, -0.054510, 0.108697, 0.046763, 0.114892, 0.268760, -0.083120, 0.065654, -0.144600, -0.082489, -0.060494, 0.092962, -0.194942, 0.125888, -0.054113, 0.120817, -0.014850, -0.132072, 0.018248, -0.077839, 0.073260, 0.113078, -0.116863, 0.049402, -0.073987, 0.182603, -0.035805, 0.055551, -0.062181, 0.189950, -0.077000, -0.047071, 0.126445, 0.015711, 0.010356, -0.022321, -0.012119, -0.011781, -0.005045, -0.062522, 0.074586, 0.055423, -0.180766, 0.073116, -0.027639, 0.187062, 0.102818, -0.036228, -0.187147, -0.078408, -0.181697, 0.128951, 0.052719, 0.072245, -0.146896, 0.057068, -0.067526, 0.072148, -0.050549, -0.043670, -0.104177, -0.000601, 0.199028, -0.055024, 0.124040, 0.115116, -0.081629, -0.136314, -0.044615, 0.007675, 0.161849, 0.022379, -0.227554, 0.093036, -0.103171, 0.013207, 0.055181, 0.050505, -0.047493, -0.077004, 0.058377, -0.147890, -0.062041, -0.063761, 0.068844, -0.035956, 0.102063, -0.123426, -0.022542, 0.016043, -0.210869, -0.084560, 0.151045, -0.048781, 0.211613, 0.024408, -0.318475, -0.175032, -0.107788, 0.240007, 0.025406, -0.119055, 0.031856, 0.076797, -0.063256, -0.099718, -0.068150, 0.271909, 0.078084},
{0.066844, 0.112404, 0.004568, -0.034529, 0.023329, 0.012118, -0.128063, 0.068448, -0.178383, 0.021920, -0.044086, 0.025616, 0.121952, 0.056597, 0.041081, -0.047661, 0.082891, 0.042228, -0.010971, 0.038188, -0.033963, -0.051234, 0.023754, 0.060843, 0.016430, 0.028305, 0.032958, 0.022506, -0.051575, -0.061161, -0.021087, 0.007877, -0.005585, 0.042551, 0.001981, -0.009138, -0.025150, -0.054016, 0.059672, -0.098203, -0.056684, 0.022735, 0.022820, 0.068638, -0.026296, -0.043601, -0.074901, -0.021454, -0.046033, 0.096549, -0.111980, -0.037591, 0.085352, -0.080891, -0.123100, 0.006321, 0.068868, -0.057001, 0.107225, -0.083775, 0.042554, 0.000878, 0.036576, -0.024469, -0.016504, 0.123744, -0.092844, -0.026310, -0.011955, -0.020367, -0.081641, -0.064397, -0.059085, 0.157826, -0.053066, 0.077337, 0.083321, 0.038320, 0.028200, 0.042268, -0.043735, 0.083772, -0.056048, 0.160777, -0.090094, -0.050412, 0.014710, 0.050797, 0.009406, 0.122161, 0.078218, 0.100313, 0.040412, -0.067156, -0.001400, 0.042651, -0.021371, -0.003645, -0.034020, -0.143337, -0.148884, 0.017272, 0.148980, 0.038331, -0.068081, 0.077997, -0.116234, 0.072659, -0.050079, -0.075957, -0.058340, -0.020693, -0.004986, -0.064902, -0.049612, -0.125175, -0.055234, -0.000917, -0.040875, -0.028617, -0.063378, 0.051892, -0.113731, 0.115253, -0.071539, 0.019006, -0.021990, -0.034767},
{-0.094589, 0.028218, -0.053613, 0.116097, 0.166431, 0.058982, -0.023967, -0.045900, 0.084633, 0.067380, -0.001520, -0.149864, 0.012272, 0.002501, 0.063205, -0.011152, 0.108351, 0.047612, -0.013641, 0.080430, -0.043187, 0.095700, -0.034411, 0.095713, -0.013149, -0.038688, -0.021361, -0.089810, 0.159056, -0.052925, 0.008870, 0.067875, 0.101845, 0.022660, 0.068787, 0.033094, -0.017471, 0.044308, 0.047196, -0.062542, 0.030583, -0.095235, -0.111565, 0.042128, 0.066024, 0.038614, 0.034820, -0.083742, -0.051676, -0.050515, -0.034996, -0.081081, -0.060003, -0.045152, -0.006949, 0.096756, -0.069631, -0.074436, 0.086239, 0.087182, 0.100401, -0.049971, -0.075515, -0.001845, -0.066837, -0.116469, -0.035914, -0.100323, 0.046885, 0.059514, -0.027084, 0.045790, 0.079089, 0.077927, -0.074739, -0.006603, -0.011558, 0.032472, -0.082017, -0.022553, 0.079592, 0.061857, -0.028623, -0.058539, 0.005388, 0.034192, 0.065673, -0.060664, -0.079027, 0.004951, 0.055804, -0.103417, 0.043655, -0.063291, -0.040523, 0.084303, -0.104557, 0.033414, 0.054744, -0.092908, 0.029904, -0.022033, 0.107107, 0.006685, -0.111720, 0.051078, 0.001009, 0.022416, -0.045308, 0.041806, -0.024031, 0.112287, 0.031804, -0.071664, 0.017035, -0.048679, 0.027885, -0.020289, 0.107054, -0.075284, 0.071644, 0.005420, -0.091552, -0.072515, -0.044305, -0.048212, -0.043624, 0.081423},
{-0.059475, 0.011693, 0.050791, -0.099890, 0.075086, 0.189519, -0.077541, 0.016301, 0.004727, -0.043843, 0.000619, -0.014689, -0.087360, -0.211941, -0.037162, -0.099804, 0.119800, 0.067665, -0.018503, 0.133998, 0.137544, 0.053784, 0.190768, 0.157028, -0.005225, 0.072310, 0.074242, -0.042336, -0.129153, 0.021983, 0.142593, 0.108835, -0.038636, 0.231655, -0.079699, -0.086391, 0.022808, 0.097236, 0.113801, -0.250108, -0.053146, -0.082129, -0.028855, 0.117767, -0.156329, 0.070728, 0.030192, 0.057206, -0.066033, 0.067375, -0.173097, -0.087165, 0.001391, -0.055363, 0.103085, -0.091524, -0.159427, 0.016726, 0.021699, 0.045625, 0.031455, -0.076575, 0.118048, 0.004508, -0.167334, -0.066920, 0.055154, -0.194899, 0.037280, -0.004074, -0.199895, 0.052498, 0.018271, 0.138857, 0.138946, 0.091797, -0.067768, 0.019994, -0.212627, -0.002574, 0.161717, 0.065030, -0.033474, 0.063273, 0.115743, -0.063095, -0.057082, -0.135404, -0.029822, 0.020122, -0.110138, -0.024728, 0.114182, -0.105063, -0.026935, 0.001601, -0.057822, 0.011531, 0.190289, 0.035222, -0.020842, -0.043242, 0.123106, -0.076914, 0.015591, -0.087278, 0.065711, 0.187777, 0.080305, 0.006684, 0.006971, 0.038266, -0.079118, 0.031533, 0.204882, -0.124742, 0.254211, -0.025004, 0.086720, -0.028743, 0.131116, -0.189820, -0.196292, 0.055689, -0.011145, 0.111497, 0.024563, 0.132794},
{0.084714, -0.039462, 0.063243, 0.060508, 0.138443, 0.013204, -0.087802, 0.248718, -0.110117, 0.190084, -0.012034, -0.117306, -0.056918, 0.094146, -0.027333, -0.030470, 0.304136, 0.164775, -0.028589, -0.005054, -0.103816, -0.076342, -0.024008, 0.072080, 0.133981, 0.176853, -0.028242, -0.001564, -0.022874, -0.020663, 0.150042, -0.022790, -0.048500, -0.156118, 0.051358, -0.079317, -0.066384, 0.016082, 0.135013, 0.181999, -0.050236, -0.087236, 0.070941, 0.037398, 0.077233, -0.145687, -0.107257, -0.081609, 0.014059, -0.144970, -0.015912, 0.087654, -0.105494, -0.110123, -0.196591, 0.085672, 0.120743, -0.022190, -0.180758, 0.053113, 0.030206, -0.080436, -0.185940, 0.128146, 0.088001, 0.078797, 0.186122, 0.178717, 0.002104, 0.015025, -0.061380, -0.025349, 0.071525, -0.147368, -0.048983, -0.070206, 0.078917, 0.158288, -0.027841, -0.062355, -0.040080, 0.074448, 0.057807, 0.213551, 0.146203, -0.013232, -0.114833, -0.061715, 0.065115, -0.015888, 0.199891, 0.005921, 0.005761, -0.121876, -0.153248, 0.137559, 0.090598, -0.103834, -0.027131, -0.011624, -0.081846, -0.147188, 0.151543, 0.033162, 0.196276, 0.028308, -0.149132, -0.020322, 0.046633, -0.103843, -0.214536, -0.055698, 0.054147, 0.048679, 0.147609, -0.049028, -0.019965, -0.217957, 0.018581, 0.069983, 0.099339, -0.098837, 0.185954, 0.028017, -0.052514, -0.191500, 0.187699, -0.106358},
{0.058903, 0.079834, 0.004723, 0.015295, 0.089287, 0.006992, -0.091531, -0.079416, -0.035548, 0.029316, 0.048752, -0.061466, -0.057184, 0.034432, -0.009007, 0.103779, 0.104698, -0.088322, 0.012364, -0.012584, 0.067951, -0.128108, 0.121917, 0.075083, 0.068070, 0.056119, 0.057181, 0.097211, -0.063697, 0.138369, 0.018976, 0.079686, 0.051090, 0.068231, -0.052692, 0.009112, -0.005733, 0.090050, 0.058340, 0.031245, -0.036676, 0.079377, -0.053814, 0.038250, 0.009182, -0.105791, 0.054986, -0.106308, 0.067747, -0.067274, 0.064848, -0.040346, 0.080576, 0.066718, -0.196276, -0.101561, 0.050491, -0.078079, 0.005430, -0.095169, 0.075112, -0.029113, 0.069908, 0.035997, 0.094797, -0.038734, 0.024143, 0.038728, -0.040646, -0.004570, -0.047198, 0.097108, 0.051901, -0.041727, -0.003117, -0.028782, 0.036524, -0.011510, -0.064795, 0.017206, 0.055080, 0.057912, 0.033254, -0.098143, 0.126222, -0.069495, 0.053801, 0.027729, 0.028505, -0.059344, -0.083093, 0.025386, -0.059927, -0.047631, -0.028083, 0.076809, -0.009914, -0.028963, 0.014287, -0.106253, 0.004308, 0.071056, 0.030868, -0.076872, -0.003661, -0.085147, -0.052531, 0.122462, -0.011530, -0.053514, 0.054615, -0.014536, -0.032797, 0.041403, 0.095156, 0.059457, 0.002779, -0.027549, -0.084315, -0.078519, 0.009413, -0.034599, 0.139874, -0.060662, -0.094426, 0.051547, -0.071083, 0.181599},
{0.075208, 0.113516, 0.039484, 0.005109, 0.024045, 0.151099, -0.074672, 0.080571, -0.014725, 0.018014, -0.084315, -0.023045, 0.058479, -0.026643, 0.033013, -0.024160, 0.054028, 0.080643, 0.067353, 0.121367, -0.070615, -0.082439, 0.042602, 0.058114, -0.016446, 0.095692, 0.019405, -0.183693, -0.174811, 0.067996, 0.044654, -0.221504, 0.139243, 0.093013, 0.158939, -0.080770, 0.026553, 0.006074, 0.110571, -0.159247, 0.176934, 0.039883, -0.186628, 0.108117, -0.085473, -0.062167, -0.113806, -0.039331, 0.028483, 0.065362, -0.106723, -0.050150, 0.156568, -0.124527, 0.089146, 0.002432, 0.084664, 0.065678, 0.116506, -0.037318, -0.013734, -0.026663, 0.127896, -0.031212, 0.039546, 0.049707, 0.045331, -0.151904, 0.018589, -0.186203, -0.026960, -0.081678, -0.055821, 0.035748, 0.102383, 0.055117, -0.054814, -0.013715, -0.006185, 0.059271, 0.034146, 0.060509, -0.006138, 0.015690, -0.079184, 0.023895, 0.092484, 0.110334, -0.002256, 0.155690, 0.017156, -0.127370, 0.035309, -0.091479, -0.053130, -0.165460, -0.022619, 0.023402, 0.048279, 0.016747, 0.012064, -0.040584, 0.070953, -0.013325, 0.001657, 0.138288, 0.065706, -0.029644, -0.106036, -0.039691, 0.030874, 0.165519, -0.081764, -0.019383, -0.153118, 0.002333, 0.017292, 0.060394, 0.032744, -0.020946, -0.021335, 0.049859, 0.069632, 0.112086, -0.065390, -0.012773, -0.076517, 0.090321},
{0.037955, 0.113970, 0.117842, -0.106625, 0.071522, 0.102002, -0.098352, -0.082005, 0.016652, 0.042683, -0.011337, -0.169923, 0.140772, -0.002970, 0.108725, -0.003636, -0.062610, -0.037294, -0.066014, 0.033421, 0.046037, 0.055767, 0.105171, 0.049596, -0.112375, -0.077695, 0.020852, -0.011342, -0.107722, 0.020136, 0.101101, 0.055338, -0.035177, 0.110491, -0.009279, 0.023195, 0.017594, -0.064792, -0.089633, 0.000371, -0.076783, 0.049651, -0.132955, 0.046319, 0.014855, -0.131059, -0.187638, 0.013796, 0.047592, 0.004363, 0.029870, -0.106321, 0.083552, -0.163979, -0.065552, 0.030027, 0.043744, 0.011007, 0.066824, -0.020043, 0.090408, 0.079691, 0.069266, -0.090476, 0.022569, 0.128532, 0.014448, -0.151223, -0.079922, -0.064955, 0.123776, 0.024470, -0.035225, -0.011085, -0.113060, -0.048866, 0.020971, 0.136867, -0.041755, 0.047314, 0.102839, 0.104326, -0.128795, 0.021823, 0.096037, -0.021603, -0.004107, 0.027509, -0.058100, 0.076819, -0.078643, 0.048534, 0.023061, -0.102916, -0.142594, -0.037507, 0.061044, 0.084379, -0.030156, -0.036311, -0.004487, 0.142687, 0.228142, 0.069498, 0.110253, 0.081652, -0.024254, 0.063849, -0.064851, 0.088918, -0.099948, 0.129912, 0.073617, 0.060892, 0.009066, -0.027124, 0.082665, 0.110783, -0.041193, 0.110097, -0.018081, -0.090653, -0.093924, 0.059845, 0.026378, 0.154917, 0.102636, -0.064793},
{-0.067415, -0.010613, -0.111023, 0.132261, 0.234033, 0.008653, -0.033610, -0.108015, -0.039290, 0.157592, -0.035044, -0.085364, 0.117678, -0.152989, -0.188773, -0.053216, 0.120820, 0.102206, 0.081975, 0.095319, -0.018013, -0.015963, -0.014230, 0.182086, 0.138744, 0.012231, 0.045386, -0.016720, 0.018476, 0.047195, -0.059324, -0.104880, 0.014033, 0.147784, 0.117679, -0.068342, 0.096304, -0.177751, 0.130357, -0.088844, 0.015114, -0.085579, -0.109793, 0.061523, -0.012031, 0.081972, -0.083383, 0.058495, -0.085703, -0.113530, -0.074133, -0.142856, 0.089768, -0.009743, 0.146654, 0.004237, -0.092826, -0.075821, 0.135405, 0.191647, 0.039357, 0.088743, 0.019523, -0.093546, -0.059621, -0.139360, 0.132348, -0.135025, 0.159712, 0.137556, 0.054911, -0.038157, 0.015671, 0.197874, -0.047470, 0.206805, -0.094126, 0.017006, -0.076121, -0.178448, 0.032875, 0.069839, 0.058590, 0.167076, 0.068578, -0.042046, -0.070020, -0.081271, -0.116336, 0.086562, -0.107997, -0.106549, 0.139290, -0.007137, -0.007100, -0.103301, 0.038089, -0.128288, -0.030061, 0.044287, 0.080389, -0.171658, 0.193133, -0.085479, 0.034153, -0.010568, 0.020951, 0.133477, -0.144355, -0.127820, 0.022586, 0.118547, 0.010209, -0.086876, 0.197458, -0.029749, 0.080075, -0.154850, 0.009002, -0.103739, -0.121908, -0.021033, -0.148562, -0.062631, 0.019134, 0.008672, 0.045429, 0.228024},
{0.055720, -0.020473, -0.085112, 0.144545, 0.032887, 0.034085, 0.026014, -0.102845, -0.044453, 0.122459, -0.025434, 0.025515, 0.112182, 0.149783, 0.011932, -0.073224, 0.045660, 0.043237, -0.062018, -0.024777, 0.022049, 0.023718, -0.061976, -0.080365, 0.043414, -0.034632, -0.074281, -0.047034, -0.126464, -0.114059, -0.039073, -0.033965, 0.037482, 0.027614, -0.182398, 0.039895, 0.106778, -0.053801, -0.073426, -0.067958, -0.027368, -0.103550, 0.055298, 0.126954, 0.084056, -0.099090, -0.116661, -0.011991, 0.060100, 0.016505, -0.044554, -0.078049, 0.057579, -0.035030, -0.046981, -0.039818, 0.016590, 0.026602, 0.076855, -0.076328, -0.019646, 0.109027, -0.070863, -0.048552, -0.007767, 0.207496, 0.137470, 0.096336, 0.001970, -0.052213, 0.137299, -0.013084, 0.047953, 0.038014, 0.148458, -0.144878, -0.093961, 0.051258, -0.021221, -0.053937, -0.003511, 0.046914, -0.052532, 0.052111, -0.011968, -0.100678, -0.049423, 0.151711, 0.010310, 0.085696, -0.029820, 0.011258, -0.004440, -0.099059, -0.144107, -0.043506, -0.062916, 0.057161, 0.018442, 0.020013, 0.066208, -0.041734, 0.113143, -0.054031, 0.040009, 0.016960, -0.004170, -0.069533, 0.106251, 0.053178, 0.052064, -0.046748, 0.104818, -0.090279, 0.007875, -0.027594, -0.097881, -0.075545, -0.002893, 0.065880, -0.044534, 0.064518, 0.105074, 0.010102, 0.080548, -0.014932, -0.122257, 0.080015},
{0.077653, -0.008887, -0.006243, -0.076118, -0.019263, 0.056651, 0.026030, -0.114506, -0.094066, 0.005466, 0.023550, -0.035644, 0.049908, 0.010728, -0.066393, -0.076083, -0.084492, -0.044037, 0.048227, 0.033122, -0.069659, 0.086860, 0.020952, 0.072245, -0.089231, 0.046558, -0.034488, -0.048506, 0.075407, 0.114703, 0.101102, -0.002725, -0.002639, 0.098140, -0.056133, 0.138641, 0.108638, -0.012425, 0.010761, 0.055532, 0.045006, -0.043718, -0.020360, 0.046526, 0.041281, -0.012862, -0.029583, -0.065386, -0.035975, -0.029292, -0.058438, -0.111450, 0.098269, -0.038484, 0.127464, -0.080297, -0.053330, -0.064859, 0.011842, 0.043829, 0.017974, 0.104077, -0.106953, 0.039574, -0.090554, -0.065450, -0.024922, -0.120854, 0.005689, -0.113274, -0.045905, 0.091140, 0.081575, -0.108784, 0.089931, 0.029955, 0.085945, 0.038386, -0.035351, -0.017459, 0.003361, -0.010973, 0.054126, 0.033600, -0.045214, 0.024552, 0.026121, 0.075715, -0.030790, 0.060581, 0.054407, -0.029032, 0.031962, 0.010266, -0.090664, 0.071473, -0.044407, -0.014827, -0.068949, -0.054217, -0.108997, 0.004938, 0.020876, -0.110443, -0.124864, -0.053551, 0.051093, 0.034889, 0.109786, -0.080545, -0.043190, 0.011402, -0.101243, 0.045036, 0.129969, 0.015754, 0.106362, 0.075878, 0.035857, 0.130466, 0.030085, -0.066745, 0.117707, 0.017652, 0.060583, 0.108439, 0.115803, -0.088330},
{0.008852, 0.045403, -0.103831, 0.111989, 0.113520, 0.051100, 0.074423, -0.256531, -0.088966, -0.024499, -0.057223, -0.055953, 0.164367, -0.074387, -0.055178, -0.084764, 0.048758, 0.044879, -0.106617, -0.068978, -0.055105, -0.069393, -0.065531, 0.096033, -0.053726, -0.123390, -0.055029, -0.044654, -0.078447, -0.025971, 0.035350, -0.033797, 0.026254, 0.043076, 0.125094, -0.014085, -0.165308, -0.018073, -0.034463, 0.023621, 0.020633, 0.004214, 0.111468, -0.050043, 0.148689, -0.035521, -0.072130, -0.064676, -0.047498, 0.022495, -0.101358, 0.004529, -0.033495, 0.159274, -0.166962, 0.148274, 0.064111, -0.130656, 0.053213, 0.060332, 0.091376, 0.023701, 0.092224, -0.042962, 0.074122, -0.149162, 0.065687, -0.008681, 0.200180, -0.048738, 0.122903, -0.132434, -0.115613, 0.028638, 0.101234, 0.168953, 0.133941, 0.140620, -0.133110, -0.098775, -0.048678, 0.193002, 0.029972, 0.073341, -0.081217, 0.000225, -0.111738, 0.008844, -0.021295, 0.037149, -0.119677, 0.160217, 0.043660, -0.115280, -0.052765, -0.050440, 0.139811, -0.028246, -0.143837, 0.052948, 0.093625, -0.145648, 0.013365, -0.032982, -0.034030, 0.087328, -0.145856, 0.080681, -0.130930, -0.122043, -0.063144, 0.158906, 0.028261, 0.138908, -0.041217, -0.161736, -0.004993, -0.000339, -0.183487, 0.101162, -0.196293, -0.003097, -0.114367, 0.036461, -0.080048, -0.011451, 0.041880, 0.152527},
{-0.007628, 0.166574, -0.092134, 0.038766, 0.163888, 0.197183, 0.066314, -0.030486, 0.024821, -0.048110, -0.014308, 0.140109, 0.201986, -0.002940, -0.080596, -0.046957, 0.051267, -0.161239, -0.096315, -0.037085, 0.048177, 0.075554, -0.137517, 0.235679, 0.019896, 0.029748, 0.034533, -0.033691, -0.243200, 0.056701, -0.121009, -0.039277, 0.000394, 0.000168, 0.147432, 0.071277, 0.020059, 0.154793, -0.000290, 0.064209, -0.026007, -0.045769, -0.020987, 0.161174, 0.240846, -0.049291, -0.054414, 0.069970, -0.089783, 0.029384, -0.164225, -0.042756, -0.069548, -0.116223, -0.081356, -0.008016, 0.017326, -0.038652, 0.077717, 0.083208, 0.003597, -0.214120, 0.145550, 0.024509, -0.133452, -0.225294, -0.042341, -0.030221, 0.042317, -0.064083, -0.065350, -0.031606, 0.042706, -0.197807, 0.138097, 0.206964, 0.030901, -0.074186, 0.085713, 0.079050, -0.035025, -0.025445, 0.034955, 0.158049, -0.013791, -0.065667, 0.058277, 0.083366, 0.016378, 0.128067, 0.025579, -0.024387, -0.097064, -0.013198, 0.086088, 0.073518, -0.109422, -0.052392, -0.059168, 0.056967, 0.063244, -0.116937, 0.080117, 0.026607, 0.127157, 0.049685, 0.137773, -0.060370, -0.155543, -0.025595, 0.162112, 0.028121, 0.217743, 0.078505, -0.097936, -0.035713, -0.189394, -0.154207, 0.038920, -0.068651, -0.032702, 0.154524, -0.115149, 0.096899, -0.102287, -0.111792, -0.063854, -0.059907},
{-0.058284, 0.196319, 0.093488, 0.031264, 0.035597, -0.009720, 0.073701, -0.150295, 0.089336, -0.022715, 0.048678, -0.030583, 0.111517, 0.097960, 0.040259, -0.120321, -0.014274, 0.035388, -0.125648, -0.003588, -0.090467, -0.008129, 0.020793, -0.057923, -0.004196, -0.078145, -0.103139, 0.094486, -0.035771, -0.130431, 0.135097, -0.079706, 0.096676, 0.075967, 0.064716, 0.061805, -0.201080, 0.052114, 0.037017, 0.123155, -0.036888, -0.012877, 0.100000, 0.054453, -0.025992, -0.053969, 0.099429, 0.026566, -0.070262, 0.039445, 0.096734, 0.039976, 0.002396, -0.003517, -0.153593, -0.062808, -0.128231, -0.022012, 0.054502, 0.094452, -0.056554, 0.002402, 0.096505, 0.026937, -0.020379, 0.011559, -0.056375, 0.036392, -0.077909, -0.044435, -0.188739, 0.107120, 0.076047, -0.143968, -0.131719, -0.121934, 0.123940, 0.053727, -0.008200, 0.047250, 0.034639, 0.089014, 0.106304, 0.119708, 0.003100, -0.051021, 0.006334, 0.139824, -0.140330, 0.099834, 0.080518, 0.104290, -0.171028, -0.169803, -0.196862, 0.018516, -0.054876, 0.031695, 0.006157, -0.033478, -0.084506, 0.111257, -0.023023, -0.065765, -0.047155, 0.090358, 0.094995, -0.008496, -0.024453, -0.120912, 0.071550, -0.123472, 0.094400, 0.030530, -0.022394, -0.006936, 0.021845, 0.100371, -0.083572, 0.127996, -0.081543, 0.029949, 0.059905, 0.144175, -0.017918, 0.129452, 0.055867, -0.182592},
{0.076244, 0.045786, 0.054110, -0.006800, 0.207386, -0.057751, 0.035253, -0.087132, 0.113655, 0.014098, -0.061451, -0.006198, 0.092746, 0.173309, 0.095140, -0.058659, -0.031828, 0.164314, -0.041763, -0.043519, -0.036692, -0.059597, -0.083547, 0.127136, 0.119945, -0.066897, 0.016804, -0.163168, 0.093705, 0.086305, 0.094642, -0.042349, 0.078601, 0.015564, 0.003849, 0.057330, 0.072996, 0.124363, -0.067621, -0.054406, -0.050317, -0.134419, -0.017590, 0.015443, 0.142635, -0.054338, -0.173582, -0.101508, 0.060993, -0.020252, 0.005926, 0.124965, 0.057467, -0.047259, -0.010956, -0.059873, 0.098244, 0.020827, -0.071256, 0.145566, 0.091295, 0.109680, -0.004105, 0.115008, 0.008727, -0.013174, -0.077882, 0.027283, -0.100596, -0.172236, 0.208601, -0.075752, -0.082529, -0.043939, -0.033078, -0.248880, -0.093926, 0.064839, -0.030100, -0.045193, 0.030616, 0.030983, 0.042187, 0.125072, -0.194542, -0.030302, 0.030370, 0.018447, -0.071603, 0.008719, 0.080016, 0.094762, 0.068125, -0.095692, -0.110240, 0.030339, -0.116346, -0.038507, -0.014976, 0.000874, 0.044002, 0.115210, -0.108899, -0.003472, -0.049962, 0.013559, 0.001441, -0.101528, -0.063932, -0.135298, 0.167372, 0.040118, 0.187734, -0.171614, 0.088719, -0.011158, -0.041982, -0.036355, 0.011611, 0.087688, 0.025914, 0.131187, 0.092333, 0.088257, 0.030093, 0.026156, -0.166065, -0.037021},
{-0.003672, 0.204348, -0.245160, 0.181455, 0.032246, -0.208034, -0.004831, 0.026312, -0.142871, 0.095069, 0.053486, 0.171058, 0.305332, 0.144428, -0.049195, 0.109872, 0.025274, 0.123324, 0.109474, -0.166425, -0.272125, -0.266420, -0.069381, 0.129131, 0.369632, -0.177072, -0.102830, -0.020665, 0.041883, -0.048356, -0.107316, -0.121401, 0.170396, -0.167028, 0.070124, 0.077127, 0.070048, -0.030404, -0.266988, 0.214969, 0.203706, 0.147330, 0.245599, -0.170434, 0.154023, 0.154754, 0.145250, 0.021494, 0.261633, 0.052593, -0.099727, -0.138187, -0.093591, -0.053750, -0.050089, -0.011311, -0.075022, -0.045801, -0.095405, 0.190761, 0.064863, -0.075238, -0.156989, 0.013769, 0.133786, 0.032458, 0.062522, -0.031939, 0.001557, -0.103498, 0.043388, 0.207583, 0.223365, -0.334643, 0.049615, -0.087800, -0.004606, -0.159374, -0.125325, 0.093675, -0.173266, -0.020787, -0.114640, 0.077614, -0.211648, -0.041754, -0.097788, -0.017920, 0.078142, 0.239240, 0.122948, -0.052060, 0.125136, 0.053086, 0.154042, -0.058675, -0.217297, 0.011304, -0.342862, 0.075592, -0.130976, -0.166177, -0.117603, 0.009522, -0.029346, 0.064383, 0.008935, -0.146769, 0.215769, -0.001869, 0.049916, -0.058615, 0.039706, -0.028271, 0.248779, -0.210737, -0.244189, -0.040028, 0.131230, -0.047399, 0.000005, 0.099915, 0.135162, -0.050394, -0.051315, -0.217831, 0.189766, -0.008155},
{-0.107477, -0.043288, -0.111609, -0.081945, -0.101593, -0.210813, -0.086814, 0.013484, 0.240543, -0.068861, -0.134769, 0.069092, 0.090981, 0.176097, -0.259629, -0.082521, -0.231292, -0.364319, -0.048933, -0.093695, -0.015528, -0.039439, -0.084986, 0.014927, -0.209512, -0.101962, 0.039724, -0.071611, -0.140080, 0.014182, 0.009838, -0.217943, -0.140500, 0.223065, 0.097006, 0.126917, -0.110767, -0.079568, 0.093198, -0.100905, 0.074632, -0.301333, -0.155996, 0.180568, -0.175653, 0.083032, 0.055017, 0.010482, 0.019130, -0.232390, -0.045043, -0.103158, 0.036004, 0.026674, -0.072218, -0.042916, 0.133616, -0.004579, 0.252996, -0.003499, -0.084943, 0.141139, 0.062869, 0.098403, -0.151876, -0.160902, 0.140996, -0.159629, 0.113059, -0.121463, -0.191676, -0.262081, -0.029166, -0.121720, 0.062281, 0.129323, -0.090360, -0.197713, 0.084776, 0.023969, -0.045532, -0.220908, 0.011337, -0.019712, 0.000610, 0.005884, -0.075815, 0.041470, 0.122769, -0.143483, -0.200567, 0.138095, -0.110160, -0.197955, -0.012709, -0.083427, -0.125530, -0.036487, 0.106336, 0.129503, 0.028092, 0.110148, 0.398203, -0.036601, 0.165338, 0.252962, 0.270494, -0.058405, 0.015925, 0.015429, 0.034480, -0.023293, 0.044851, -0.076327, -0.001957, 0.154437, 0.248984, 0.071058, -0.228956, -0.143446, -0.153047, 0.215062, -0.101284, -0.064428, -0.001459, 0.237350, -0.203085, 0.044363},
{-0.083280, -0.026215, -0.076303, -0.049905, 0.130959, -0.004344, -0.027102, 0.030803, -0.036456, 0.063652, -0.011604, -0.039566, 0.011611, 0.087524, -0.113595, -0.065489, -0.004172, 0.088406, 0.159070, -0.107641, 0.129018, 0.100540, 0.086717, 0.030985, 0.086862, -0.040331, 0.000430, 0.064049, -0.062265, -0.040257, -0.019927, -0.045213, 0.013333, 0.091413, 0.044122, 0.056732, 0.079354, 0.051791, 0.044886, -0.182710, 0.110691, -0.055087, -0.101721, -0.047258, 0.011584, 0.020532, 0.070509, 0.077568, -0.030604, -0.034080, -0.077543, -0.024884, -0.084763, -0.046045, 0.071812, -0.194041, -0.023086, -0.052514, -0.089065, -0.020997, -0.100346, 0.086882, -0.080177, -0.100999, -0.026773, 0.202510, -0.047693, -0.003161, -0.014105, 0.001164, 0.124618, 0.059191, 0.018081, -0.028912, 0.070638, 0.052766, 0.031796, 0.040677, -0.098399, -0.091734, -0.005134, 0.101840, 0.084634, 0.082533, 0.011254, -0.066936, -0.094587, -0.097866, -0.018539, -0.005740, 0.066501, -0.103263, -0.020770, -0.044147, -0.025029, 0.095166, -0.090557, -0.064459, -0.064339, -0.018174, -0.072707, -0.107902, 0.076366, 0.019182, 0.005737, -0.003713, 0.032498, 0.093884, -0.170208, -0.089790, 0.122576, 0.053541, 0.070171, -0.095284, -0.010896, 0.081909, 0.026485, -0.048745, 0.038573, -0.037675, 0.112788, 0.120221, -0.020479, -0.046422, -0.027910, 0.028261, -0.148367, 0.092675},
{-0.034600, -0.104142, -0.235211, 0.059883, -0.052511, -0.104664, -0.016144, -0.039002, 0.165535, 0.127342, -0.030173, 0.102296, 0.200847, -0.056689, -0.022864, 0.157177, 0.030955, -0.073639, -0.047142, 0.042320, 0.129054, -0.064531, -0.065642, 0.214599, 0.012688, 0.064699, -0.095335, -0.034677, -0.020172, -0.034837, 0.008214, -0.155364, 0.033946, 0.134657, 0.043263, -0.080592, 0.134310, 0.087198, -0.115890, -0.033707, 0.074722, 0.063801, 0.146276, -0.000511, -0.038424, 0.268757, 0.161513, -0.086382, 0.145172, 0.053786, 0.029599, -0.132776, -0.072926, 0.001615, -0.152086, 0.173089, 0.009119, -0.046653, 0.268371, 0.134538, 0.054879, -0.055861, 0.037426, 0.066162, -0.013751, 0.084184, 0.138929, -0.039169, 0.253499, -0.039120, 0.000093, 0.218922, -0.022451, 0.131018, -0.036480, 0.382292, -0.001949, -0.197753, 0.104924, -0.225926, -0.056338, -0.171952, 0.071016, -0.055040, -0.046619, -0.080275, -0.039952, 0.031667, -0.261609, 0.058931, -0.109581, 0.097149, 0.100297, -0.089290, 0.064483, -0.096749, -0.013182, -0.138871, -0.005541, 0.235567, -0.004257, -0.000209, 0.316398, -0.016477, 0.214510, -0.010898, -0.026694, -0.083081, 0.048072, -0.119347, 0.048142, 0.217094, -0.025533, 0.002716, 0.130785, -0.011034, 0.031809, -0.190463, -0.135872, -0.176166, -0.016858, 0.099893, -0.181408, -0.124035, -0.078256, -0.085127, -0.142178, 0.022407},
{-0.218449, 0.094808, 0.085960, -0.140329, -0.025078, 0.092548, 0.091152, -0.012263, 0.071962, 0.034098, -0.019201, -0.163716, 0.002501, 0.036901, 0.088888, 0.076110, -0.156486, 0.051700, 0.017187, 0.098611, -0.082053, 0.041363, -0.031335, -0.010715, -0.049036, -0.143700, 0.070869, -0.064780, 0.099363, -0.090133, -0.080154, -0.111583, 0.049189, -0.122923, 0.084881, 0.058435, -0.148588, 0.049833, -0.011852, 0.026269, 0.164952, -0.039073, -0.079498, 0.107462, 0.117200, 0.010449, -0.139996, -0.038116, 0.049726, -0.001047, 0.070418, -0.054718, 0.114162, -0.076142, 0.089803, 0.153579, -0.010472, -0.028604, 0.007515, 0.140677, 0.058645, -0.087988, 0.059221, -0.090789, -0.066776, -0.007358, 0.087185, -0.179334, 0.046990, -0.166240, 0.041908, -0.140306, -0.021098, 0.078511, 0.115156, 0.024938, -0.031136, -0.198925, 0.040220, -0.007075, -0.156788, 0.019376, 0.080923, -0.098927, -0.036904, 0.032414, 0.110081, 0.147470, -0.017126, -0.088938, -0.117914, -0.062231, 0.088323, 0.019785, 0.011251, 0.135735, -0.021444, 0.123126, -0.089888, -0.102835, 0.136105, 0.119603, 0.061262, -0.007987, 0.051387, -0.032998, 0.237018, -0.103812, 0.047933, -0.004721, 0.109513, 0.206509, 0.001197, 0.030020, -0.055635, 0.137084, -0.061075, 0.023469, -0.069814, -0.150331, -0.110117, 0.109731, -0.027951, 0.008646, -0.037104, -0.048881, 0.037953, 0.169446},
{0.085353, 0.002959, -0.080415, 0.173138, -0.068988, -0.258725, -0.018406, 0.040098, -0.020279, 0.037206, -0.124223, 0.014341, 0.101067, 0.191414, 0.105992, -0.097407, -0.058435, -0.019078, -0.051647, 0.036785, 0.064465, -0.072294, -0.102431, 0.034045, 0.069388, -0.230177, 0.046147, -0.052369, -0.140167, 0.002727, 0.063476, -0.022184, 0.062173, -0.107581, 0.086318, 0.024358, 0.006502, -0.016956, 0.032272, 0.043499, 0.091726, -0.023295, 0.205296, 0.069154, 0.060104, -0.043091, -0.015062, -0.121348, 0.176027, -0.122203, -0.146363, -0.005209, 0.015225, 0.059433, -0.328192, 0.141389, -0.063548, -0.072314, 0.157434, 0.143246, 0.147490, -0.100558, -0.029468, -0.082240, 0.022799, -0.080550, 0.184213, 0.028269, 0.143293, -0.029312, -0.167473, 0.137665, -0.207462, -0.131702, -0.116128, -0.099122, 0.009654, 0.062769, 0.084389, 0.023439, -0.033218, -0.040544, 0.019496, 0.016909, 0.028360, 0.001215, -0.017772, 0.085402, -0.076588, 0.028223, -0.128164, 0.105683, -0.042220, -0.131959, -0.014852, 0.043427, -0.171867, 0.009737, -0.098114, 0.126076, -0.032015, 0.123556, 0.034030, -0.017180, 0.048715, 0.025578, -0.046975, -0.065038, 0.044728, -0.132814, -0.030202, -0.137552, 0.037440, -0.059318, 0.163672, -0.055202, -0.056065, 0.048006, -0.161127, 0.058272, -0.243208, -0.054963, 0.011026, 0.021817, 0.052035, -0.053340, 0.075655, 0.139525},
{-0.142377, 0.060078, 0.028124, 0.049876, 0.051510, -0.037833, 0.020114, -0.065461, 0.095750, -0.090616, -0.101798, 0.027448, 0.129750, -0.009725, 0.086583, 0.085818, 0.058176, 0.073458, -0.207685, -0.158503, -0.090368, -0.081293, -0.126285, -0.022899, 0.067273, 0.122426, 0.020308, -0.052689, -0.009795, -0.072053, -0.063919, -0.074962, -0.039788, 0.088749, -0.142522, 0.039462, 0.084223, 0.012255, -0.011969, -0.017023, 0.029077, 0.131714, 0.015631, 0.022032, -0.015257, -0.036498, -0.142303, -0.085869, 0.100522, 0.113002, 0.038684, -0.112541, 0.065287, -0.075806, 0.082052, -0.004974, -0.046005, -0.061950, -0.041150, -0.055907, 0.097563, -0.184607, 0.031466, -0.094829, -0.080907, 0.003902, -0.006146, 0.128159, 0.007338, 0.039830, 0.039184, -0.154583, -0.043691, -0.123667, 0.004244, 0.062242, -0.009960, -0.111366, 0.028336, -0.059401, -0.054564, -0.017339, -0.023969, 0.102961, -0.098717, 0.074631, -0.088801, 0.127123, 0.105921, 0.083276, -0.008868, -0.006061, -0.073849, -0.073466, -0.096731, -0.108442, 0.016328, 0.044273, 0.109421, -0.127240, -0.033927, -0.037430, 0.003482, -0.046592, -0.026436, 0.036129, 0.070942, -0.092505, 0.010636, -0.014133, 0.054827, -0.120505, 0.093561, -0.102405, 0.081836, 0.150129, 0.023514, 0.047113, 0.005576, -0.023173, 0.054848, 0.081167, 0.092160, 0.028567, -0.086263, 0.093824, -0.102433, -0.039082},
{0.098377, 0.028542, 0.052538, -0.078746, 0.099960, 0.060704, -0.110780, -0.183031, -0.033568, 0.035417, -0.013382, -0.099368, -0.104367, 0.134790, 0.060012, 0.115764, -0.033504, 0.098325, 0.106100, 0.174169, 0.130075, -0.087788, 0.049429, 0.051845, -0.070794, 0.115539, -0.015972, -0.016776, -0.012414, 0.162694, 0.174712, -0.055628, -0.012655, 0.050445, 0.135975, 0.068044, 0.098294, 0.050515, -0.010851, -0.166578, 0.029446, 0.068074, -0.232812, 0.096156, -0.147601, 0.093618, -0.139014, -0.004485, -0.095082, -0.049988, 0.013540, 0.035790, 0.184982, -0.171911, -0.104297, -0.163776, -0.023391, -0.057798, -0.084463, 0.121441, -0.077606, -0.035825, 0.056052, -0.031261, 0.076569, -0.072555, -0.100848, -0.028805, 0.082678, -0.026883, -0.001871, -0.080555, -0.022778, -0.027003, 0.016940, 0.054645, -0.053207, 0.002632, -0.248251, -0.007405, 0.125429, -0.075282, 0.003823, 0.041907, 0.110812, 0.034829, -0.013529, 0.150186, 0.012830, -0.075912, 0.001052, -0.066680, -0.075973, 0.011860, 0.083082, 0.067502, -0.026918, 0.164981, 0.015270, -0.075356, -0.135440, -0.032883, -0.026291, 0.055188, -0.218386, -0.028655, -0.114942, -0.093961, -0.048389, 0.016237, -0.026858, 0.009510, -0.065034, -0.030875, -0.180402, 0.120794, -0.107320, 0.108017, 0.056544, -0.105420, 0.012106, 0.001570, 0.002352, 0.080279, -0.027978, 0.024753, -0.045472, -0.015799},
{-0.035039, 0.003939, -0.089856, 0.109258, 0.037154, -0.080951, 0.027377, 0.087873, 0.121822, 0.089960, -0.081828, -0.055073, 0.027918, 0.129886, -0.055170, -0.103372, 0.031653, -0.013281, -0.026638, -0.036251, -0.044999, -0.141966, -0.107816, 0.099201, 0.019742, -0.087241, 0.064870, -0.103428, -0.166221, -0.039663, 0.050941, -0.119935, -0.037907, -0.088943, 0.009116, -0.056187, -0.132602, -0.051497, 0.183118, 0.006115, 0.090484, -0.084084, 0.153517, 0.115854, 0.113831, 0.029891, 0.005975, 0.018962, 0.022015, -0.011262, 0.169215, 0.094649, 0.044293, 0.175239, -0.129390, 0.085963, 0.186824, -0.085983, 0.056188, 0.136117, 0.095452, 0.063337, -0.025919, -0.047926, 0.061591, 0.005027, 0.086665, 0.084240, 0.177483, -0.080906, 0.156611, -0.007646, -0.064027, -0.140732, 0.116282, 0.071158, 0.056815, 0.095055, 0.149767, 0.055148, -0.084090, -0.106352, -0.036472, 0.162996, -0.020963, 0.035139, 0.142042, 0.080485, -0.043760, 0.030601, -0.106902, 0.117259, 0.100467, -0.005683, -0.048170, -0.089693, 0.069938, -0.020436, 0.060191, 0.081493, 0.132066, -0.061827, -0.096955, 0.023151, -0.026170, 0.138087, 0.059271, -0.034777, -0.118746, -0.097841, 0.066170, 0.057097, -0.057570, -0.050578, 0.061677, 0.005566, -0.178845, 0.120218, -0.184758, 0.137654, -0.160232, 0.033964, 0.085476, 0.152514, -0.084682, 0.031014, 0.099244, -0.071304},
{0.000194, 0.058699, 0.062801, 0.041056, -0.054099, -0.123670, 0.047315, -0.012282, 0.166528, 0.179036, 0.135131, 0.019802, 0.089991, 0.092785, -0.202307, -0.078925, -0.005586, -0.194080, -0.142767, -0.123379, -0.049553, -0.078434, 0.012312, 0.075191, 0.091542, -0.065812, -0.004463, 0.119052, 0.075233, -0.020467, -0.063630, 0.018775, -0.093630, -0.216509, -0.088576, 0.062401, 0.051304, 0.095495, 0.027444, 0.073602, -0.098862, 0.125340, 0.128215, 0.069549, -0.021408, 0.088036, 0.075394, -0.038847, 0.056025, -0.040993, 0.009664, 0.109012, -0.059463, -0.153534, 0.075179, 0.063600, -0.079520, 0.032227, 0.095975, -0.153786, 0.290925, -0.115444, 0.020833, -0.074694, -0.264520, 0.126905, 0.297379, -0.020015, 0.002755, -0.076605, 0.108266, 0.005454, 0.094389, 0.060677, 0.163912, 0.062528, 0.155764, 0.019120, 0.228333, -0.131473, -0.163432, -0.317118, -0.024304, -0.098483, 0.064046, 0.025295, 0.027218, 0.083767, 0.102838, 0.136932, -0.123344, 0.320219, 0.007880, -0.015197, -0.005557, 0.104237, -0.104494, -0.094500, -0.021934, -0.013048, 0.250283, 0.077643, 0.357862, -0.063634, 0.126261, -0.047280, 0.291438, -0.183402, -0.042377, -0.185563, 0.052227, 0.152320, 0.099784, -0.179858, 0.082845, 0.293430, -0.051162, -0.068581, -0.046018, 0.136268, -0.071371, -0.010788, -0.013938, -0.026221, 0.027145, -0.018086, 0.101221, 0.014004},
{0.005549, -0.046033, 0.080647, -0.170332, 0.094884, 0.028422, -0.069691, 0.155935, 0.071692, -0.095437, 0.111513, 0.011307, -0.004147, -0.007677, 0.001777, -0.086395, -0.019140, 0.009240, -0.078353, -0.107079, -0.014054, 0.107816, 0.013535, 0.040538, -0.100267, 0.099588, 0.063262, -0.007392, -0.028241, -0.158901, 0.079001, -0.020174, -0.028595, -0.014126, 0.069709, 0.030710, -0.078510, -0.006977, -0.090421, -0.010477, -0.075483, -0.140138, 0.081268, 0.044002, -0.041558, -0.169213, -0.090713, 0.053356, 0.071450, 0.107822, 0.096198, 0.027402, 0.062889, 0.235536, -0.101875, -0.042924, -0.031869, -0.055304, 0.031558, 0.016795, -0.115255, 0.093015, 0.069731, 0.060148, -0.006780, -0.002533, -0.005836, -0.069445, -0.102578, 0.048584, 0.005084, -0.144915, 0.071500, -0.045053, -0.007918, -0.054614, -0.021942, 0.070084, 0.077129, -0.102608, 0.067015, 0.036117, -0.010296, -0.027951, -0.087651, -0.000569, 0.003084, 0.033611, 0.151454, -0.021906, 0.006740, -0.092736, 0.121920, 0.049978, -0.125815, 0.066137, 0.165537, 0.030718, -0.072079, -0.011438, -0.012574, 0.051712, 0.093178, -0.105956, -0.056476, -0.073234, -0.046714, 0.131219, -0.080329, -0.029900, -0.054502, -0.005880, -0.038053, 0.148224, -0.048777, 0.016611, -0.044814, 0.045257, -0.112127, 0.063309, -0.010014, 0.073173, -0.077459, 0.048613, -0.137554, 0.110411, 0.124506, 0.033174},
{-0.067308, 0.085694, 0.033478, 0.077688, 0.200497, 0.081604, -0.094320, -0.150823, -0.115422, -0.008356, -0.043778, -0.054320, 0.009353, 0.086430, -0.100899, 0.034904, 0.198542, 0.082146, 0.059610, -0.044152, 0.046838, 0.050333, 0.077692, 0.125579, 0.100368, 0.046512, -0.071854, 0.083984, 0.078352, 0.142912, 0.016172, -0.130000, 0.045850, 0.015950, -0.051506, 0.057643, -0.015067, -0.018989, 0.037886, 0.165117, -0.025774, -0.191675, 0.072592, 0.086209, -0.078869, -0.080473, -0.165192, 0.019772, -0.065186, -0.125084, 0.069829, 0.004294, -0.043486, -0.135803, -0.012025, -0.141303, -0.145480, 0.040510, 0.027464, 0.065567, 0.003819, 0.091643, -0.091054, -0.115682, -0.142693, -0.172610, -0.074846, 0.006537, 0.002543, -0.014817, -0.007468, 0.121276, 0.028336, -0.007696, 0.017746, 0.090224, -0.078940, -0.115376, -0.030266, 0.110134, -0.100437, -0.070440, -0.029255, -0.026943, -0.096202, 0.000200, -0.096569, -0.057686, 0.094653, 0.025275, 0.138865, 0.049144, -0.051890, 0.015696, -0.033030, -0.160764, -0.127875, 0.041242, -0.167415, -0.142416, -0.045740, 0.003035, 0.145949, 0.028849, -0.037782, 0.088186, -0.033079, 0.036558, 0.086989, -0.001878, 0.054396, 0.037848, -0.061092, -0.067691, -0.092763, 0.003488, -0.095944, -0.129249, 0.147368, -0.061383, -0.007292, -0.066885, 0.074503, -0.109378, -0.012411, -0.007934, -0.074356, 0.005083},
{0.067584, -0.020738, 0.071197, -0.278355, 0.165587, 0.040701, -0.062066, 0.115486, 0.068402, 0.036336, 0.148736, -0.207335, -0.138117, 0.061811, 0.054835, -0.048241, -0.180598, 0.067270, 0.035071, 0.214682, 0.045164, 0.259749, 0.057221, -0.077861, -0.283276, -0.005985, 0.047318, -0.057334, -0.077861, 0.077217, 0.408537, -0.037263, -0.192793, -0.076734, 0.046771, 0.164540, -0.208033, -0.134583, 0.066291, 0.012178, 0.001537, 0.058794, -0.008368, 0.136510, -0.207653, -0.195908, -0.057047, 0.027798, -0.397055, -0.164481, -0.033915, 0.134492, 0.243210, -0.107540, -0.329346, 0.126545, -0.140856, -0.014052, 0.104417, -0.305177, 0.006079, 0.150191, 0.076355, -0.198541, 0.120044, -0.025814, -0.086561, -0.111269, -0.085878, -0.335628, -0.075145, 0.116629, -0.279670, -0.193926, 0.053809, -0.258639, -0.056225, 0.167348, 0.252024, 0.112433, 0.154540, -0.135970, -0.274108, -0.027344, 0.140784, -0.100536, 0.255098, 0.089050, -0.147804, -0.088012, -0.015777, 0.083873, 0.068975, -0.027414, -0.043696, 0.121121, -0.090847, 0.029019, 0.353964, -0.098584, 0.159969, 0.191713, 0.128082, 0.067345, -0.022550, -0.073721, -0.021287, -0.237206, 0.053968, -0.041894, 0.102888, -0.245802, -0.133000, -0.250237, -0.153396, 0.228701, 0.208439, 0.103948, -0.290500, 0.136838, 0.196116, 0.152943, 0.153547, 0.112814, -0.132362, 0.455057, 0.026156, -0.157640},
{0.003768, 0.136985, 0.070916, -0.063228, -0.016149, -0.012359, 0.083950, 0.039316, 0.063451, -0.117657, -0.108474, 0.095599, 0.115508, 0.048990, 0.114092, 0.067943, -0.157162, -0.007057, 0.092753, -0.133965, 0.067583, 0.001815, 0.067850, -0.057350, -0.063181, -0.063001, -0.013283, -0.131763, 0.046545, 0.008023, -0.010978, -0.010884, 0.066627, 0.009209, -0.052535, 0.030990, -0.028536, 0.002009, -0.120669, 0.095806, 0.064542, -0.063202, -0.015199, 0.054938, -0.132168, -0.014053, 0.095914, 0.089753, 0.045842, 0.136246, 0.166439, 0.080097, -0.110973, 0.025728, -0.090013, 0.007630, -0.000237, -0.029998, -0.012684, 0.057589, -0.029945, -0.019480, 0.094375, 0.056033, 0.035289, 0.057930, -0.128824, -0.045301, -0.013691, -0.009574, -0.068733, 0.061818, -0.007164, 0.101760, -0.215500, -0.097749, 0.141960, -0.018645, -0.052517, 0.006071, -0.002011, -0.070757, 0.027905, -0.120116, -0.030088, 0.052185, -0.012173, 0.111515, -0.010037, 0.007025, 0.099162, 0.082177, 0.082721, 0.005984, -0.121982, -0.060844, -0.011537, 0.100584, -0.034500, 0.051503, -0.089306, 0.065460, 0.075842, -0.083038, -0.002524, -0.076650, 0.151431, -0.052707, 0.000193, 0.026983, 0.101138, -0.103583, -0.053868, -0.013856, 0.124649, -0.014425, 0.120929, -0.040437, -0.162743, -0.129501, -0.003403, -0.009673, -0.016113, -0.070545, 0.035178, 0.053000, -0.132012, -0.022911},
{0.067581, -0.058960, 0.003161, 0.026164, 0.022596, 0.138542, 0.025603, -0.070913, 0.022953, -0.011025, -0.062711, -0.038152, 0.013842, -0.004953, -0.013033, -0.090626, 0.036620, -0.059496, -0.186496, -0.082387, 0.103766, -0.030230, -0.000899, -0.040400, 0.083476, 0.045331, 0.005643, -0.045659, -0.010490, -0.049467, 0.106538, 0.095625, 0.077499, 0.123126, -0.096861, 0.158170, 0.074499, -0.032190, 0.136735, 0.065840, -0.025150, 0.027777, 0.046567, 0.073107, -0.040724, -0.047163, 0.103688, -0.082157, -0.014731, 0.062710, -0.199311, -0.099641, -0.001869, -0.147959, 0.038199, -0.075365, 0.050669, 0.036479, -0.063577, 0.003697, 0.033851, -0.111526, 0.064174, 0.032829, -0.060351, 0.161718, 0.036654, 0.058765, 0.055057, 0.112973, -0.047355, -0.016857, 0.081364, 0.056993, 0.043872, 0.055258, -0.035544, 0.031495, -0.103958, 0.088272, 0.108709, -0.050926, 0.044069, 0.152910, -0.021533, -0.017664, -0.076186, 0.031699, 0.068080, 0.095821, 0.077581, 0.033611, 0.078955, -0.037099, 0.006384, -0.023388, 0.044756, 0.006006, 0.115366, -0.049966, 0.019269, 0.059375, 0.068450, -0.076820, -0.005630, 0.034574, 0.034306, 0.141576, 0.017862, 0.026130, 0.054167, -0.065179, 0.143943, -0.035513, -0.096459, 0.032516, 0.114048, 0.075942, 0.004540, -0.081718, 0.094313, -0.103873, -0.000759, 0.100377, -0.082430, 0.103231, -0.006356, -0.098309},
{0.084336, 0.010743, -0.049088, 0.014104, 0.025417, 0.093299, 0.011011, -0.052719, -0.174704, 0.070343, -0.074398, -0.129035, 0.054304, -0.049406, 0.030441, -0.000973, 0.087339, -0.050554, 0.014875, -0.067588, 0.070179, 0.050335, 0.028801, 0.116847, 0.086686, 0.054519, 0.040919, 0.051643, -0.040739, 0.046640, 0.007407, -0.060583, -0.049350, 0.017458, 0.073350, 0.079503, -0.019394, -0.060698, 0.104211, 0.052699, 0.071087, -0.043996, 0.105699, 0.021041, 0.024399, 0.034008, 0.065976, -0.068021, 0.080073, -0.060064, -0.028944, 0.054004, -0.072424, -0.115778, -0.001723, -0.021551, 0.006617, -0.108938, 0.004484, -0.002674, 0.044222, 0.019910, 0.098474, -0.139560, -0.058531, 0.128463, -0.053693, -0.034877, 0.118242, 0.036160, 0.081055, 0.041895, -0.054575, -0.057924, -0.184083, -0.059964, 0.053093, 0.067324, -0.052453, -0.028346, 0.029825, 0.133147, 0.020783, 0.152950, -0.033118, -0.061078, 0.028152, -0.075904, -0.032749, 0.142788, 0.083884, 0.144763, -0.071315, 0.068195, 0.040909, -0.017181, 0.048076, -0.012942, -0.008277, 0.005256, 0.018378, -0.022845, 0.102637, 0.007796, -0.048007, 0.049567, 0.069762, -0.010457, 0.030833, 0.053624, 0.074362, -0.075571, 0.043545, -0.049421, -0.121166, 0.043438, -0.203168, -0.092522, 0.082217, 0.101764, -0.042647, -0.037998, 0.103150, 0.023770, -0.031265, -0.013883, -0.016638, -0.116291},
{0.000684, 0.133581, 0.025434, -0.125961, -0.031850, 0.057214, -0.081166, 0.050871, 0.110930, 0.089710, 0.055287, 0.052993, 0.064522, 0.044990, -0.026035, 0.004234, -0.110764, 0.022233, -0.079187, 0.038022, -0.007080, -0.056863, -0.075084, 0.045702, 0.068970, -0.146628, -0.008907, -0.024957, -0.098852, 0.091838, 0.099050, -0.043586, 0.074652, 0.102057, 0.118690, 0.118589, -0.023625, 0.096484, 0.026253, -0.071742, -0.016739, 0.012420, -0.082702, -0.057315, -0.021292, -0.006193, 0.012992, -0.096257, 0.072326, -0.045474, 0.131680, -0.041760, 0.135252, -0.085291, -0.080932, 0.057140, -0.030568, -0.077570, 0.055236, -0.048440, -0.024189, 0.014539, 0.122003, 0.069061, -0.031536, 0.108584, -0.100508, -0.074694, -0.041910, -0.086714, -0.114404, 0.086151, 0.101321, -0.082765, -0.033792, -0.022937, 0.099136, -0.082819, -0.033061, -0.061225, -0.041896, 0.109830, 0.108727, -0.059936, -0.070245, -0.114414, 0.032132, 0.046007, 0.005397, -0.012965, 0.011780, 0.097128, 0.045715, 0.066897, 0.003417, 0.098435, 0.018658, -0.017082, 0.081754, -0.065344, 0.060997, 0.026149, 0.018849, -0.095671, 0.102558, 0.120111, -0.121419, 0.006041, -0.147949, 0.029725, 0.079808, 0.031174, -0.061860, -0.007483, 0.091687, 0.011649, 0.118256, 0.066994, 0.040239, -0.050958, -0.046319, 0.097886, 0.001501, 0.101270, -0.087135, 0.125610, 0.112834, 0.119444},
{0.104595, 0.037151, -0.088779, -0.036986, 0.117571, 0.064878, -0.089920, -0.172100, -0.191341, 0.099800, 0.042091, -0.095866, -0.029688, 0.118672, -0.061321, 0.186016, -0.010880, 0.046210, -0.010175, -0.046895, 0.094520, 0.065723, 0.076550, 0.005393, -0.002739, 0.049636, 0.001297, -0.039764, -0.075283, -0.096745, 0.055568, 0.015178, -0.055580, 0.004154, -0.079584, 0.150804, 0.101516, 0.033112, -0.016410, -0.047876, 0.102700, -0.053479, -0.092570, 0.070558, 0.007690, 0.018420, 0.073638, -0.074840, 0.066470, -0.127116, -0.109366, 0.015604, 0.052733, -0.059723, -0.100545, -0.183516, 0.010818, -0.056746, -0.006699, 0.036744, 0.024205, -0.008146, -0.016268, -0.045926, 0.001432, -0.068508, -0.099126, -0.145551, -0.065471, -0.009437, 0.109794, -0.005667, 0.048756, 0.044873, -0.044749, -0.052688, -0.041600, -0.046707, -0.154202, 0.154368, 0.065068, -0.016132, -0.014044, 0.088423, 0.000629, -0.137622, 0.001122, -0.100838, 0.000975, 0.008557, 0.077560, -0.073781, 0.085620, 0.061598, 0.081655, -0.005973, 0.091498, 0.094109, 0.014872, 0.043040, 0.051537, 0.050945, 0.127313, -0.043684, -0.174272, -0.214765, -0.110516, 0.043366, -0.058894, 0.055021, -0.084959, -0.128471, 0.020514, -0.087988, -0.094557, 0.011007, 0.105317, 0.030676, 0.008764, 0.108005, 0.027038, -0.103599, 0.120310, -0.071997, -0.103804, 0.061683, -0.144665, -0.038012},
{0.041172, 0.094188, -0.103538, 0.124904, -0.010920, -0.065932, -0.049105, 0.148620, 0.181900, -0.091914, -0.023292, -0.209197, 0.240036, 0.027950, 0.024559, -0.005664, -0.034710, -0.000668, -0.042443, -0.085522, 0.038578, 0.062067, -0.195418, 0.117768, -0.081714, -0.176979, -0.020079, -0.073975, -0.015770, 0.074926, 0.101318, 0.105032, -0.089307, -0.174531, 0.025089, 0.030222, 0.003793, -0.033488, 0.201379, 0.157763, 0.031688, 0.135581, 0.209769, 0.132836, 0.052839, -0.064348, 0.081647, 0.028478, -0.024125, -0.027783, 0.019297, -0.006848, -0.027700, -0.155293, -0.168804, 0.064461, 0.036610, -0.121698, 0.176394, -0.108368, 0.119320, -0.084064, 0.063815, -0.019651, -0.101333, 0.089688, -0.191246, 0.029856, 0.207755, -0.133524, -0.083242, 0.182957, 0.023885, -0.102524, -0.197652, 0.017520, 0.169918, 0.080656, 0.157450, 0.006769, -0.083421, -0.029977, -0.151818, 0.167703, 0.047956, 0.024325, -0.085099, 0.128660, -0.010273, -0.008675, -0.119971, 0.328203, -0.099873, -0.147954, -0.064100, 0.272328, -0.071265, -0.097915, -0.004249, -0.018960, 0.071530, 0.131857, 0.053177, 0.003695, 0.008898, 0.031772, 0.059611, -0.073145, 0.112489, -0.019619, -0.042027, -0.052494, 0.133256, 0.091924, -0.017522, 0.074669, -0.070222, -0.064019, 0.032968, 0.115998, -0.160142, 0.022982, 0.035110, 0.085583, 0.039869, 0.111947, -0.194379, -0.134923},
{0.011051, 0.092198, 0.047580, 0.139593, 0.035720, -0.105168, 0.003629, -0.195783, -0.038377, 0.164282, 0.106361, 0.125547, 0.003676, 0.149391, 0.060795, -0.008066, -0.073013, 0.004164, 0.035424, 0.083681, 0.024763, 0.115124, 0.094080, -0.066138, 0.145548, -0.075097, -0.067238, 0.022338, 0.033067, -0.116601, 0.019183, -0.217902, 0.155955, 0.061884, 0.162582, 0.001409, 0.046100, 0.186126, -0.068010, 0.047983, -0.000635, 0.143767, 0.007788, -0.028390, -0.154537, -0.289044, -0.100929, 0.000541, 0.032375, 0.016423, -0.116940, 0.047088, 0.212289, -0.041011, -0.114505, -0.096391, -0.078390, 0.058202, -0.077625, 0.073042, -0.045738, 0.090714, 0.029128, -0.111448, 0.002571, 0.066577, -0.001212, -0.018515, -0.202169, -0.097765, -0.033521, 0.053047, -0.204231, 0.041738, -0.017149, 0.050203, 0.128717, 0.097447, -0.187003, -0.039065, 0.073902, 0.270679, 0.218138, -0.064516, 0.118702, 0.031066, -0.039962, 0.146608, -0.015880, 0.085410, -0.006782, 0.046570, -0.191191, -0.183230, 0.027526, -0.025626, -0.167591, 0.202905, -0.034575, 0.060370, -0.247065, -0.010329, -0.010119, -0.043392, 0.081719, -0.020921, -0.242582, 0.239379, -0.180155, -0.079038, -0.147038, -0.037879, -0.092373, 0.201837, 0.017703, -0.227494, 0.112251, 0.019420, -0.202974, 0.089101, -0.191649, -0.098775, -0.011907, 0.053099, -0.093757, 0.158564, 0.188880, 0.006884},
{-0.062047, 0.038360, 0.051327, 0.021608, 0.015482, -0.060966, 0.072945, -0.082226, -0.063992, 0.019732, 0.026218, -0.024426, 0.088749, -0.025552, 0.007470, -0.010917, -0.042885, 0.013547, -0.160502, -0.054791, 0.088366, -0.045932, 0.134451, 0.113736, 0.067158, 0.009899, -0.101892, 0.032502, 0.062630, 0.036923, 0.065904, -0.024098, 0.088636, 0.073230, 0.049248, 0.074431, 0.117745, -0.009853, 0.043513, -0.077025, -0.021259, -0.050119, -0.057043, 0.063432, 0.026968, 0.067061, 0.016720, -0.080799, 0.017649, 0.093033, -0.014550, -0.002106, -0.037136, -0.026725, -0.033979, 0.090057, -0.046783, -0.028677, 0.016268, -0.023227, -0.029987, 0.017435, 0.081553, 0.102783, 0.044350, -0.038417, 0.073085, 0.003837, -0.019060, 0.150356, 0.060885, -0.031593, -0.013859, 0.114236, 0.024846, 0.035635, 0.031771, -0.065306, 0.047358, 0.033439, 0.105171, 0.017121, 0.069547, -0.006407, -0.033075, -0.052260, 0.098281, -0.097745, 0.095163, -0.022875, -0.014131, -0.100612, 0.044618, 0.123880, -0.147982, -0.031321, 0.057235, 0.027689, 0.057952, 0.103341, 0.017569, -0.032774, 0.155291, -0.016317, 0.139113, -0.051999, 0.118222, 0.110488, -0.067286, -0.131999, 0.117695, 0.109267, -0.040511, -0.059641, 0.029111, 0.017184, 0.085558, 0.060001, 0.089911, -0.072661, 0.068549, 0.102745, 0.011246, 0.021013, -0.096288, 0.006967, 0.072198, -0.109903},
{-0.093473, -0.113676, -0.052041, -0.094659, 0.167024, 0.115434, -0.058457, 0.110135, 0.051011, 0.270554, -0.024068, -0.063108, 0.037177, -0.049731, 0.012316, -0.074059, 0.190568, 0.014844, 0.130039, 0.095143, 0.173827, -0.016815, -0.096699, 0.263166, 0.167016, -0.000930, 0.020975, 0.016360, 0.033683, 0.151402, 0.088499, 0.107752, 0.234964, -0.064314, 0.012323, 0.043043, 0.120140, 0.162331, -0.106517, -0.136008, 0.060955, -0.184187, -0.042546, 0.073146, -0.025496, -0.002376, -0.029471, -0.074757, 0.072206, -0.107161, -0.070864, -0.036362, -0.102258, -0.032868, -0.077621, 0.124446, 0.023443, 0.077731, -0.052117, 0.044126, 0.098085, -0.110645, -0.076464, -0.025663, 0.111234, -0.025959, 0.193195, -0.020350, -0.172232, 0.183641, 0.220797, -0.092124, -0.041840, 0.039425, -0.018131, -0.142552, 0.009203, -0.109879, 0.013096, -0.162002, -0.103498, 0.006405, 0.180641, -0.062114, 0.016232, -0.033721, -0.011578, -0.180741, 0.176025, -0.008190, -0.003455, 0.012124, -0.129290, 0.104285, 0.170339, 0.096731, -0.038684, -0.031396, -0.114134, -0.000522, -0.032598, -0.123875, 0.158694, -0.013936, 0.067431, 0.031089, -0.024223, 0.047690, -0.128514, -0.028988, -0.042031, 0.069121, -0.032526, 0.127268, 0.174371, -0.097697, -0.106229, -0.280435, 0.071718, -0.050277, 0.103927, 0.123672, -0.115969, -0.195127, -0.069136, -0.108118, -0.030656, 0.388290},
{-0.126105, 0.071780, 0.022277, -0.132663, 0.089031, 0.029309, 0.055286, -0.047562, 0.028287, -0.030486, -0.167603, -0.023841, 0.114616, 0.135600, 0.005679, -0.063973, 0.008721, 0.121424, 0.109257, 0.095056, -0.115648, 0.010966, -0.117013, -0.014024, -0.051288, -0.001410, 0.040496, -0.147939, -0.061858, -0.016027, 0.105751, -0.149352, 0.028573, -0.053027, 0.041204, 0.137986, -0.073673, 0.110976, -0.006445, -0.012213, 0.013405, 0.078338, -0.022316, 0.061792, 0.089539, -0.039293, 0.027009, -0.102357, 0.082956, -0.039941, 0.041164, -0.070163, 0.123668, 0.055317, -0.051976, 0.096960, 0.035771, -0.050577, 0.018395, 0.003862, 0.045429, 0.016729, 0.107353, 0.000047, 0.119409, 0.034909, -0.064487, -0.109742, 0.006392, -0.123599, 0.020851, 0.041992, 0.010788, -0.146432, -0.044376, -0.210971, -0.019200, -0.126152, 0.099726, -0.013006, -0.053479, 0.108811, 0.038520, -0.045908, -0.006606, -0.034915, 0.097999, 0.003103, -0.004262, 0.127359, 0.063534, -0.024117, 0.007597, -0.080564, 0.039281, 0.065026, -0.089328, 0.119442, -0.053560, -0.119933, -0.045362, -0.012709, 0.006108, -0.069863, -0.022185, -0.000475, 0.032774, 0.013217, -0.020421, -0.077250, 0.065747, -0.044054, 0.018689, 0.069729, 0.018814, 0.064880, 0.069004, -0.039758, -0.086026, 0.008689, 0.035659, 0.055073, 0.117893, 0.006596, -0.047390, 0.030441, 0.026768, 0.016579},
{-0.312547, 0.133545, 0.154747, 0.023671, 0.120801, 0.044993, -0.069596, -0.253929, 0.107521, -0.195292, -0.023030, 0.108014, 0.022574, -0.016680, 0.017338, 0.195640, -0.044918, 0.093743, 0.068529, 0.034646, -0.018364, 0.005545, -0.063912, 0.020833, 0.034729, 0.104893, -0.061623, -0.214206, 0.054506, -0.043681, -0.048625, 0.051003, 0.144327, -0.137364, 0.171253, 0.060202, 0.052292, 0.056610, 0.113259, -0.053782, 0.040226, -0.136563, -0.108902, 0.101370, 0.144177, 0.029014, 0.015977, -0.109538, -0.002555, -0.026231, -0.071715, 0.062841, -0.081233, 0.069300, -0.083513, 0.146075, -0.056241, 0.044583, -0.043137, -0.038326, -0.048029, -0.184259, 0.099353, -0.103733, 0.041920, -0.082070, -0.093377, -0.009701, -0.116389, -0.104372, 0.104331, -0.219269, 0.045020, 0.012680, 0.091135, 0.073450, -0.069235, -0.208900, -0.024633, 0.070579, -0.070015, -0.012352, -0.028093, 0.108762, -0.038030, -0.134650, -0.014689, 0.018225, 0.062838, 0.083291, 0.033416, -0.166034, 0.067339, 0.023240, -0.008053, -0.012426, -0.213410, 0.043890, 0.078209, 0.019580, -0.007310, -0.001976, -0.061397, -0.023588, 0.045865, 0.127470, 0.020497, -0.022895, -0.055107, -0.135946, 0.132191, -0.061707, -0.025747, -0.010363, -0.101333, 0.123729, -0.045042, -0.111131, -0.059952, -0.091838, -0.024492, 0.149644, -0.031875, -0.011747, -0.033806, -0.009009, 0.021708, 0.026767},
{-0.039881, -0.068341, -0.096921, 0.031849, 0.008575, -0.103203, -0.023138, 0.028077, 0.102489, -0.165919, -0.092631, -0.134725, 0.223711, 0.176379, -0.279102, -0.040364, -0.155332, -0.275194, 0.052115, -0.199067, 0.032237, 0.027918, -0.275124, 0.087463, -0.111692, -0.349554, -0.010960, 0.218288, -0.080243, 0.271554, -0.069816, 0.224497, -0.219802, -0.055805, 0.110100, 0.067514, -0.029597, 0.012447, 0.265145, -0.031140, 0.002631, -0.042319, -0.016718, 0.457415, 0.058142, -0.013497, 0.045247, -0.078572, 0.074335, 0.079313, 0.204688, -0.078603, -0.145983, -0.212141, -0.008431, 0.062637, 0.203971, 0.036239, 0.343761, 0.041238, 0.152076, 0.296417, 0.073375, -0.106699, -0.332353, 0.100155, -0.037290, -0.191673, 0.400300, -0.163910, 0.097039, 0.113569, 0.064191, 0.194506, 0.106295, -0.105956, 0.171453, -0.175884, 0.352724, 0.033663, -0.043028, -0.123310, -0.045525, 0.299385, 0.099250, -0.003605, -0.074868, 0.087606, -0.020343, 0.053003, -0.134709, 0.340138, -0.088007, -0.139566, 0.063178, 0.110616, 0.130212, -0.145408, -0.026382, -0.226846, 0.248677, 0.039178, 0.124129, -0.030114, -0.195610, 0.253210, 0.256269, 0.004028, -0.090478, 0.026155, 0.008235, 0.134312, 0.024441, -0.114108, -0.010932, 0.214813, -0.060084, 0.050859, -0.279171, 0.022072, -0.305306, 0.163319, -0.179869, -0.006358, -0.056335, 0.065665, -0.229512, -0.064824},
{0.081579, -0.091164, 0.013043, -0.101503, -0.024776, -0.102252, -0.053002, -0.209836, 0.125427, 0.132452, -0.104066, -0.028914, -0.070229, 0.088161, -0.083588, 0.013999, -0.018135, -0.188755, 0.028905, 0.338946, -0.099470, -0.095422, 0.040744, 0.018820, -0.121111, -0.121490, -0.044566, 0.252805, -0.028183, 0.204692, 0.138214, -0.048399, 0.034549, -0.034278, -0.013962, -0.029682, 0.056884, 0.177745, -0.108454, 0.048890, 0.151137, 0.034208, -0.065968, -0.230874, 0.044849, -0.018249, -0.145888, -0.002708, -0.039814, -0.104759, 0.001242, 0.192848, 0.092481, 0.056675, -0.003098, -0.015815, -0.015399, -0.065498, 0.067700, -0.104751, -0.085054, 0.124109, 0.071756, -0.062892, 0.261908, 0.030776, 0.068606, -0.188591, 0.107051, 0.007933, -0.038718, 0.114986, -0.044141, -0.011566, -0.029050, -0.055299, -0.015275, -0.090319, 0.095933, 0.035333, 0.133489, -0.035315, -0.050646, -0.150366, 0.038452, -0.044002, 0.160240, -0.141219, 0.056054, -0.138738, -0.159556, -0.027622, 0.017174, -0.105585, -0.208574, -0.089751, 0.022612, -0.039460, 0.021369, -0.120605, -0.125787, 0.076357, 0.059777, 0.016959, -0.003094, -0.124385, -0.022946, -0.154938, -0.068145, 0.058786, 0.069702, -0.069855, -0.108628, 0.083720, 0.110987, 0.124007, -0.052717, 0.013761, -0.024710, -0.046447, -0.017698, 0.197989, 0.114385, -0.170487, 0.057111, 0.000613, -0.207762, -0.097718},
{0.039312, -0.087508, -0.058211, -0.006389, 0.012586, 0.121523, 0.042977, -0.121742, 0.057976, -0.034366, -0.093233, 0.070103, 0.061385, 0.034298, 0.002793, 0.059394, -0.040370, 0.010019, 0.003697, 0.032977, 0.078950, 0.116488, 0.093719, 0.037857, -0.009498, 0.015053, -0.098443, -0.054201, 0.045581, 0.010584, -0.084897, 0.078881, 0.063941, -0.086717, -0.090303, 0.133607, -0.009194, -0.015252, -0.016358, -0.015049, 0.076738, -0.062942, -0.077741, -0.039632, 0.082552, -0.018066, -0.008912, 0.000259, 0.116888, 0.036757, 0.037590, -0.059926, -0.139235, -0.059021, 0.127626, 0.009983, -0.025997, 0.071326, 0.052785, -0.090743, -0.026220, 0.062581, -0.024073, 0.016916, 0.044418, 0.045027, -0.012439, -0.016631, 0.039113, 0.026187, -0.054876, -0.034932, -0.011624, 0.117717, 0.045390, 0.009760, 0.067608, -0.022048, 0.062254, 0.040505, -0.050743, -0.006300, 0.052357, 0.052267, 0.027223, -0.031368, -0.034028, 0.006302, -0.045430, 0.071003, 0.046730, -0.027867, -0.013627, 0.079664, 0.034948, -0.116292, 0.010595, 0.100938, 0.067449, -0.036555, 0.107975, 0.017452, 0.047973, -0.036745, 0.073748, 0.033879, -0.080026, 0.069753, -0.122082, -0.006877, 0.086864, 0.091698, 0.088874, 0.008829, -0.061001, 0.004270, 0.034929, -0.039915, -0.040691, -0.016715, 0.024059, 0.078054, -0.048846, 0.096280, -0.038659, 0.029911, -0.080716, 0.073729},
{-0.131969, -0.180648, 0.033394, -0.011083, 0.046288, 0.018723, -0.004724, 0.063542, -0.020622, 0.121963, 0.017259, -0.117630, -0.152843, -0.015875, 0.114312, 0.038779, -0.078929, 0.029918, -0.050936, 0.069106, 0.077108, 0.015590, 0.010852, -0.103481, -0.079703, 0.075415, 0.085201, -0.098196, 0.101951, -0.135724, -0.034775, -0.006501, -0.180301, 0.020891, -0.039800, -0.074819, 0.031370, -0.101924, -0.038544, 0.054448, -0.025167, -0.131911, -0.087330, 0.087577, -0.027488, 0.014015, -0.043344, 0.080426, -0.126215, -0.120689, 0.040110, 0.001338, 0.180255, -0.020015, 0.059403, -0.019880, 0.009297, 0.070519, 0.063987, -0.020698, 0.045234, 0.014392, 0.075452, 0.015346, 0.062963, 0.029507, 0.068671, 0.070566, -0.059224, 0.177849, -0.072946, -0.032311, -0.093333, -0.041076, 0.058665, 0.045533, 0.012417, 0.026185, 0.090351, -0.137088, -0.008367, 0.133607, 0.001413, 0.096614, 0.078243, 0.044838, 0.085527, 0.062101, -0.040887, -0.088177, 0.062818, 0.042996, 0.042352, -0.012881, 0.018755, -0.069373, 0.094455, 0.003734, 0.086419, 0.038478, 0.092270, 0.028065, -0.032514, -0.084641, 0.074244, 0.032727, 0.066237, -0.076609, -0.057654, 0.039263, 0.055008, 0.011841, -0.030003, -0.111391, -0.011644, 0.073672, 0.122755, 0.049961, -0.023875, 0.198623, 0.001854, -0.049155, 0.061897, -0.040175, -0.090951, 0.069706, -0.007607, -0.054101},
{-0.022719, -0.033764, -0.037124, 0.055878, 0.001861, 0.059118, 0.017836, 0.034539, 0.031023, -0.078175, -0.029544, 0.109793, 0.054244, 0.117746, -0.001445, -0.144379, 0.005714, -0.016031, -0.094451, 0.028511, 0.003894, -0.127218, 0.045062, -0.041803, 0.089793, 0.072978, -0.015633, -0.103091, -0.036355, 0.025707, 0.017798, 0.104527, -0.020655, -0.043792, -0.142700, 0.004520, 0.113805, -0.096025, 0.017138, -0.001928, -0.027844, 0.112303, 0.081312, -0.012689, 0.058449, 0.028322, 0.012133, 0.005467, 0.029757, -0.007088, 0.042863, 0.068588, 0.028884, 0.023634, 0.041037, 0.039268, -0.061082, -0.027712, 0.142450, -0.138755, -0.032947, 0.021577, 0.013923, -0.070105, 0.078435, 0.033625, -0.158334, 0.091806, 0.108793, -0.130521, -0.085230, 0.130815, 0.059762, -0.071737, -0.089886, 0.069353, 0.086673, -0.042817, 0.014570, 0.036763, -0.047006, 0.029107, -0.018321, 0.097218, 0.119998, -0.043924, -0.043170, -0.021948, -0.024753, -0.036636, -0.106688, 0.079352, -0.114662, -0.040457, -0.048693, -0.117816, 0.092829, -0.067930, 0.102084, -0.000714, -0.055681, -0.056884, 0.048662, 0.080058, -0.064407, -0.017743, 0.047267, 0.072806, -0.030747, -0.062854, -0.020272, -0.100261, 0.075844, -0.008922, -0.063758, 0.123985, -0.108328, -0.039988, -0.057841, 0.129707, 0.115787, -0.113769, -0.008986, -0.002979, -0.122830, 0.028985, 0.113127, -0.022923},
{0.049777, 0.016201, -0.038534, 0.025505, 0.034439, 0.063415, 0.043030, 0.106674, -0.013451, -0.097624, -0.079245, -0.041439, 0.055260, 0.047936, -0.164117, 0.034589, -0.092580, -0.116688, -0.006566, -0.013059, 0.022302, 0.097717, -0.013701, 0.097222, -0.004996, 0.087566, -0.064358, -0.138321, -0.115307, 0.032250, 0.004045, 0.060035, 0.145415, 0.097751, 0.003226, 0.095690, 0.015900, -0.034113, 0.068475, 0.052629, 0.102897, 0.069977, 0.064826, -0.076371, 0.041774, -0.102884, 0.131522, 0.059569, 0.042008, -0.001317, -0.170177, -0.085209, -0.157006, 0.062217, -0.066621, 0.050773, -0.113438, -0.074291, 0.090264, 0.075005, 0.099791, -0.109878, 0.067305, 0.001091, -0.175146, -0.049338, 0.071146, -0.061403, -0.056006, 0.037183, -0.137099, -0.066898, 0.178109, 0.090611, 0.156055, 0.009156, 0.048283, 0.006029, 0.095905, 0.102445, 0.023548, 0.017817, -0.036566, 0.062901, 0.020416, -0.049498, -0.042523, 0.159559, -0.031364, 0.158394, 0.054704, 0.125961, -0.064235, 0.122717, -0.143211, 0.051340, -0.086804, 0.085189, 0.020287, 0.042732, 0.044913, -0.125222, 0.050810, -0.075272, -0.135291, 0.034088, 0.120883, 0.060827, -0.084096, -0.045300, 0.116126, -0.146384, 0.004835, -0.028754, -0.054369, 0.093815, 0.055670, 0.015718, 0.040004, 0.001671, -0.028160, -0.042143, -0.037414, -0.051541, -0.021944, 0.104677, 0.088302, 0.002525},
{-0.088168, 0.019368, -0.026267, -0.122741, 0.190540, 0.055729, -0.031767, 0.125427, 0.044913, -0.036912, -0.029032, -0.058317, -0.131578, 0.043469, 0.012515, 0.030334, 0.045447, -0.138425, -0.033465, 0.080415, 0.079221, 0.081335, 0.066321, 0.063916, 0.065692, 0.188119, 0.023288, -0.000003, -0.111294, 0.095523, 0.075938, 0.055805, -0.025158, 0.032067, -0.025681, -0.077169, 0.085055, 0.001921, 0.042753, -0.002607, -0.036944, -0.042489, -0.225684, -0.107233, -0.103425, 0.058314, -0.157740, -0.002861, -0.070024, 0.086104, 0.028515, -0.049914, -0.017391, -0.043212, 0.104016, -0.012187, -0.037833, 0.004804, 0.094671, 0.035948, -0.008444, 0.081247, -0.086630, -0.113710, 0.022256, -0.050201, -0.056959, 0.015261, -0.009708, 0.074869, 0.190261, 0.008940, 0.048401, -0.002228, 0.058506, 0.126288, -0.022934, 0.022910, -0.007941, -0.054136, 0.139508, -0.057088, -0.029095, -0.025312, 0.043892, 0.020461, 0.118177, -0.087535, 0.210019, -0.064199, 0.106265, -0.185760, 0.073445, -0.030761, 0.008976, 0.133989, -0.004985, 0.021103, -0.018317, -0.057049, 0.078244, -0.024175, 0.232223, 0.023456, -0.080173, -0.108226, 0.008360, 0.005414, 0.042542, 0.085926, -0.089503, 0.177013, 0.025304, -0.022148, 0.128642, 0.124849, -0.020815, -0.100835, 0.012153, 0.095139, -0.037518, 0.114899, -0.118895, 0.039419, 0.005478, 0.066688, -0.054053, 0.114508},
{-0.124791, -0.000970, 0.046532, 0.114247, 0.094596, 0.067547, 0.048650, -0.031278, 0.024569, -0.047906, 0.100705, 0.017613, 0.035606, 0.177301, 0.060399, -0.053579, -0.110160, -0.111850, -0.094267, -0.078225, -0.003761, -0.018767, 0.048229, 0.059189, 0.075377, 0.073309, 0.073743, -0.040572, -0.157651, -0.069217, -0.002544, -0.010172, -0.075394, 0.125364, 0.113626, 0.156216, -0.040767, 0.057235, 0.134009, -0.059776, 0.083336, 0.002993, 0.021547, 0.123705, -0.032394, -0.133438, 0.063016, 0.045961, 0.119233, -0.102355, 0.024213, -0.007228, -0.012405, -0.100274, -0.176343, 0.108601, -0.105442, -0.056358, 0.020372, 0.004181, -0.016124, -0.050921, 0.061729, -0.076616, 0.023945, 0.041827, 0.005912, -0.166654, 0.063041, 0.004222, 0.013160, -0.114135, -0.013500, -0.014020, -0.123790, -0.087882, 0.060324, -0.007231, 0.093433, 0.005503, -0.041214, -0.004873, 0.016318, 0.069841, 0.089492, 0.075281, -0.090068, 0.025768, -0.029100, 0.041074, -0.042168, 0.073446, -0.047455, -0.028236, -0.118273, 0.065240, -0.214433, 0.058736, 0.040743, -0.088891, 0.075439, 0.011183, 0.153143, 0.005568, 0.060908, 0.198445, -0.017406, 0.046609, -0.178631, -0.106422, -0.036813, 0.066482, 0.033122, -0.067360, -0.017867, 0.034499, 0.055213, 0.097458, -0.115983, 0.052237, -0.013754, 0.002289, -0.053046, 0.133863, 0.031805, 0.121981, 0.097900, 0.029703},
{0.013513, 0.126957, -0.053035, -0.016430, 0.184832, 0.146784, -0.062324, 0.076810, 0.147282, -0.090050, 0.021266, -0.120261, -0.000570, -0.068818, 0.225408, 0.194473, 0.041668, 0.193847, -0.097578, -0.091113, -0.043445, 0.089373, -0.055123, 0.052144, -0.175572, 0.121176, -0.080326, 0.099309, 0.111989, -0.043558, 0.113672, -0.031004, -0.081690, -0.003841, 0.055568, 0.050756, 0.133563, -0.190977, -0.012552, 0.028815, -0.024768, 0.081911, 0.088921, 0.103251, 0.032117, -0.050696, -0.031856, 0.059437, 0.031351, -0.082074, -0.006459, -0.077902, 0.102919, -0.171018, 0.002120, 0.027926, 0.020764, -0.043862, 0.001919, 0.036797, -0.073723, -0.109779, 0.067277, 0.015480, -0.013751, -0.098453, -0.096012, 0.054862, 0.042858, 0.045237, -0.033625, -0.203758, 0.139700, 0.140741, -0.057723, 0.301154, -0.048013, 0.072644, 0.133459, 0.055439, -0.117336, 0.046998, -0.133691, 0.145369, -0.017839, 0.051245, -0.120910, -0.048501, 0.014600, 0.091295, -0.030087, -0.120103, -0.105047, -0.052758, 0.006806, -0.087100, -0.003351, 0.035185, 0.009197, -0.133501, 0.088234, 0.136097, -0.002678, 0.044334, -0.138486, 0.001747, 0.047431, 0.038643, 0.002920, 0.050437, -0.000238, 0.111672, 0.005792, 0.131897, -0.079688, 0.079037, -0.057688, 0.030690, -0.109698, -0.143336, -0.008106, 0.043433, 0.026140, 0.081781, 0.066750, 0.045222, 0.122809, 0.032675},
{0.264262, 0.033223, -0.034127, 0.067240, 0.109817, -0.000189, -0.049320, -0.145112, -0.112026, 0.156667, -0.100343, -0.007279, 0.015728, 0.146084, -0.061671, -0.040586, 0.109981, 0.098599, 0.111731, -0.159385, 0.073917, -0.091832, 0.052219, -0.060237, 0.041569, -0.105026, -0.051654, -0.126337, -0.031977, 0.020647, 0.055529, 0.185319, -0.017546, -0.080174, 0.049216, 0.220742, 0.104230, -0.115921, 0.029203, 0.106817, -0.093374, -0.070283, 0.250407, -0.040365, 0.043260, 0.007730, -0.005607, -0.127145, 0.028670, -0.205262, -0.076156, 0.090703, 0.048688, -0.031353, 0.053858, 0.071559, -0.031241, -0.051771, 0.087804, 0.046595, 0.175286, -0.079363, -0.019169, 0.040250, -0.111620, -0.011385, 0.044762, 0.061407, 0.175230, 0.049466, -0.170014, 0.202112, 0.012199, 0.014907, -0.155358, -0.175331, -0.045923, 0.108509, 0.056067, 0.001605, -0.075073, -0.086752, -0.031328, 0.093870, 0.127601, -0.057722, -0.040137, -0.056480, -0.056728, -0.002800, -0.059125, 0.180170, -0.006671, -0.195709, -0.098458, -0.118374, 0.055516, -0.069000, -0.041797, -0.096679, -0.149761, 0.029079, 0.115580, -0.067187, 0.030192, 0.122458, -0.119290, -0.124289, 0.043874, 0.005708, -0.187825, -0.165958, 0.057951, -0.160926, 0.144158, 0.041100, -0.095338, 0.000744, -0.024411, 0.062728, 0.164275, 0.020320, 0.152260, -0.046476, -0.123742, -0.013884, -0.042456, -0.112134},
{0.155966, 0.003243, 0.002089, 0.064569, -0.043523, -0.085060, -0.043938, -0.080336, -0.085041, 0.096243, -0.073346, -0.052988, -0.027413, -0.056268, -0.120126, -0.027599, 0.055684, -0.139600, -0.091585, -0.028641, 0.103623, -0.098456, 0.148799, -0.114601, -0.029779, 0.034509, -0.104039, 0.090214, -0.142915, 0.112586, 0.046597, 0.097438, -0.172559, 0.226139, -0.199013, 0.076299, 0.207843, -0.030644, 0.050081, -0.113289, -0.101154, 0.050292, -0.121636, 0.064369, -0.180219, 0.028311, 0.117275, -0.096135, -0.199827, 0.053052, -0.099115, -0.055405, -0.091221, -0.182333, 0.061502, -0.132939, -0.021788, -0.014131, 0.183434, -0.166287, 0.105408, 0.028214, -0.150371, -0.075195, -0.113740, -0.064565, 0.004117, -0.157044, -0.010201, -0.014186, -0.126739, 0.037638, -0.069884, 0.246877, -0.074643, 0.067336, 0.129876, 0.024169, -0.108761, 0.117118, 0.083379, 0.057942, 0.033477, 0.018001, -0.020316, -0.124253, -0.109375, -0.023474, 0.099816, 0.045046, -0.012715, -0.015079, -0.113378, -0.015945, 0.061599, -0.018090, -0.081889, -0.055930, 0.056696, 0.078591, 0.036794, 0.019079, 0.231904, -0.034919, -0.133533, 0.118418, 0.036895, 0.233226, -0.176396, -0.080587, -0.171102, -0.071772, 0.151241, -0.000612, -0.121675, 0.050108, 0.053877, 0.086712, -0.094717, -0.011155, 0.073718, -0.256035, -0.069120, 0.101194, -0.011469, -0.004050, -0.046945, -0.058289},
{0.072754, 0.220272, 0.027268, 0.022925, 0.144543, 0.101774, -0.035817, -0.029182, 0.245952, -0.181154, -0.101899, -0.120313, 0.200007, 0.016623, -0.294767, 0.004985, -0.109075, -0.063555, 0.000071, -0.171050, 0.187042, 0.236438, -0.260491, 0.204597, 0.137618, -0.062690, -0.019032, -0.266960, 0.007943, 0.035793, -0.109490, 0.132212, -0.087219, -0.109048, 0.087965, 0.226444, -0.087533, 0.113529, 0.136652, -0.020339, 0.057038, -0.072911, 0.148574, 0.164092, 0.093463, 0.076199, -0.002192, 0.019973, 0.001669, -0.063061, 0.067271, 0.048020, 0.053726, -0.150678, -0.035232, 0.035132, -0.079437, -0.033994, 0.206787, 0.119519, 0.046409, -0.051152, -0.006870, -0.132495, -0.187010, -0.031726, 0.089119, 0.011323, -0.010781, -0.211543, -0.113488, 0.055437, 0.020000, 0.008611, -0.000721, 0.236437, -0.066869, -0.180049, 0.106838, 0.058353, -0.190417, -0.218380, 0.074448, 0.128108, -0.028418, -0.117462, -0.052479, -0.069943, -0.108974, 0.086801, 0.068617, 0.088626, -0.027871, -0.141986, -0.065127, 0.284763, -0.015091, -0.031979, -0.051983, 0.103450, 0.204698, -0.008634, 0.268626, -0.001677, 0.016513, 0.041586, 0.143322, -0.084323, 0.023698, 0.026524, 0.096494, -0.077975, 0.100351, 0.072693, 0.165741, 0.180690, -0.063553, -0.082370, -0.072606, -0.230271, -0.046421, 0.203273, -0.023725, 0.003510, -0.033467, 0.066697, -0.099622, -0.064640},
{0.041009, -0.099764, -0.069290, 0.179213, 0.109811, 0.013581, 0.037076, -0.090140, -0.164016, 0.027856, -0.022652, 0.273121, -0.027870, -0.080356, 0.209957, -0.051321, -0.079916, 0.041138, -0.224347, 0.126006, 0.077884, -0.116617, 0.173114, 0.022058, -0.032462, 0.146124, -0.031133, -0.072642, -0.125330, -0.012259, 0.082053, -0.194738, 0.220079, 0.237447, 0.113432, -0.165518, 0.119895, 0.002917, -0.167319, -0.147335, 0.216551, -0.088928, -0.152961, -0.282535, -0.029894, 0.146270, 0.009942, -0.008729, 0.163400, 0.172527, -0.106586, 0.097425, -0.022687, -0.029109, -0.014857, -0.030891, -0.044310, -0.036690, 0.032902, 0.084794, -0.045753, -0.068803, 0.029767, -0.149913, 0.068391, 0.308243, 0.108648, 0.072467, -0.112501, 0.170165, -0.042465, -0.208591, 0.177405, 0.091062, 0.020037, -0.089783, -0.044840, -0.028298, -0.357921, 0.024818, 0.151112, 0.046326, 0.198448, -0.214869, -0.178704, 0.008314, 0.009812, -0.022541, 0.091043, -0.008628, -0.010205, -0.120775, 0.071395, 0.072630, 0.126634, -0.159933, 0.118583, -0.005444, 0.088059, -0.004877, -0.117513, 0.036929, 0.202181, 0.042214, 0.020739, -0.077361, -0.095763, 0.000087, -0.062004, -0.043579, 0.160372, 0.018221, 0.071100, -0.059684, -0.081596, -0.038820, 0.159404, -0.081022, 0.048917, -0.152642, 0.157360, -0.164541, 0.024266, -0.094549, -0.010441, -0.005838, 0.152375, 0.167537},
{0.052695, 0.084098, -0.057249, 0.079149, -0.055273, -0.250349, -0.084128, 0.103419, -0.118762, 0.113528, -0.030665, 0.117881, 0.203019, 0.207049, 0.023274, 0.003223, 0.098699, 0.021287, -0.115530, -0.056213, 0.024564, -0.084068, -0.034273, 0.005738, 0.073375, -0.137265, 0.073785, -0.078822, -0.033189, 0.042034, 0.049902, -0.206213, 0.058810, 0.041228, -0.060333, 0.054047, 0.043761, 0.096533, 0.025712, 0.065425, 0.065002, -0.056496, 0.094334, 0.051816, -0.103360, -0.049013, 0.054855, 0.033227, 0.089742, -0.013652, 0.087105, -0.075379, -0.046966, -0.068273, -0.053422, -0.122322, -0.088013, -0.086927, 0.042970, -0.031070, 0.002449, 0.249884, -0.072499, -0.021836, -0.095971, 0.058981, -0.022141, 0.187572, 0.046364, -0.045334, -0.004159, -0.094251, -0.001813, -0.044412, 0.138053, -0.120747, 0.008177, -0.029689, 0.063625, 0.071635, -0.053687, -0.020437, 0.088516, -0.006647, -0.046095, -0.003009, -0.016958, 0.033248, 0.009387, -0.000766, 0.062432, 0.163477, -0.033968, -0.261871, -0.199957, 0.061965, -0.022411, -0.050704, -0.050625, -0.020601, -0.064172, 0.206993, 0.232547, -0.085750, 0.171698, 0.165467, 0.000392, 0.033662, -0.120165, -0.096860, -0.097808, 0.031460, 0.129938, -0.104622, 0.093562, -0.090485, 0.026464, 0.091983, -0.088972, -0.034525, 0.040188, 0.033323, 0.132642, -0.006907, -0.004664, -0.012404, -0.052357, -0.086553},
{-0.032749, 0.017311, -0.121908, 0.015770, 0.094525, -0.024172, -0.069321, 0.001181, 0.055006, -0.040504, 0.000011, 0.079299, 0.203002, 0.160329, -0.217166, -0.004072, -0.148370, -0.159706, -0.130580, -0.137556, 0.156434, 0.045353, -0.066435, 0.149464, 0.099872, 0.135440, -0.106331, 0.027043, 0.036920, -0.091485, -0.177482, 0.102982, -0.079844, -0.035357, -0.072127, 0.196901, 0.067760, -0.089786, 0.178524, -0.072791, 0.007252, 0.017330, 0.160852, 0.201574, 0.034394, 0.149251, 0.278174, 0.040598, 0.080141, -0.062796, 0.128446, 0.091338, -0.185277, 0.087255, 0.090623, -0.051019, -0.049112, -0.058580, 0.174220, 0.025594, 0.255766, 0.057531, -0.040104, 0.097196, -0.044817, 0.062253, -0.299530, -0.038219, -0.036528, 0.106053, -0.143882, 0.207325, 0.026513, 0.171285, -0.012945, 0.167108, -0.078812, -0.219272, -0.005329, 0.008130, 0.026313, -0.102416, 0.140884, 0.099023, -0.065749, -0.034143, -0.082577, 0.025851, -0.025913, 0.049043, -0.054210, 0.050829, 0.072103, 0.158360, -0.048426, 0.044192, -0.015008, -0.064343, -0.046938, 0.137476, 0.097300, 0.138971, 0.240116, 0.024918, -0.063557, 0.150380, 0.262509, -0.018636, 0.021023, 0.009142, 0.062827, -0.263497, 0.086674, -0.053183, 0.021711, 0.089145, -0.003323, -0.104668, -0.034219, -0.146648, 0.173604, 0.057976, 0.170770, -0.068352, -0.025431, -0.111587, -0.213494, -0.060661},
{0.100667, 0.205021, -0.012728, -0.018785, 0.168323, -0.070265, -0.022265, 0.061879, -0.072216, -0.007711, -0.007284, 0.090424, 0.085102, 0.118444, 0.012344, -0.045903, 0.029838, 0.053130, -0.028033, 0.057178, 0.055830, -0.035304, 0.053929, 0.051825, 0.050289, -0.055789, 0.022220, -0.078422, -0.061292, -0.048727, 0.020444, 0.106063, 0.023917, -0.016578, -0.040931, 0.067147, 0.024715, 0.030306, 0.049065, 0.078247, 0.017922, 0.085932, 0.204352, -0.040732, -0.029535, -0.009330, 0.064106, -0.115648, 0.036074, -0.053223, -0.074175, 0.117203, 0.192275, -0.131666, -0.310510, -0.093664, -0.105716, -0.087157, -0.134165, 0.053710, -0.082039, -0.051559, 0.081443, -0.132372, 0.103063, -0.010176, 0.010221, 0.052943, 0.054653, -0.186102, -0.356950, 0.125009, -0.088861, -0.094573, -0.353319, 0.012792, 0.014659, -0.133827, 0.062740, 0.008685, 0.034193, 0.036481, 0.056365, -0.013545, 0.025879, -0.054500, 0.040801, -0.045952, 0.006460, -0.019100, 0.109784, 0.095848, 0.027793, -0.132575, 0.025059, 0.033680, -0.144514, 0.136982, -0.052396, -0.066378, -0.161879, -0.004994, 0.026270, -0.098787, -0.001521, 0.027556, -0.091740, 0.026989, 0.024856, -0.047880, 0.019277, -0.239670, -0.117664, -0.029240, 0.131904, -0.001880, 0.034379, 0.075146, -0.143857, 0.000135, -0.113917, -0.029102, 0.068800, 0.098065, -0.001465, 0.028262, -0.041958, -0.057326},
{0.192506, 0.156026, -0.159939, -0.033726, 0.244882, -0.025195, -0.052080, 0.005931, -0.030199, 0.158006, -0.130278, -0.156314, -0.073511, 0.149954, -0.150907, -0.060602, 0.098230, 0.026568, 0.075800, -0.202412, 0.073687, -0.037558, 0.062430, -0.050299, 0.003545, -0.068486, -0.109038, -0.083191, -0.177408, 0.152979, 0.290712, 0.074507, -0.072697, 0.096145, -0.136387, -0.073383, -0.087963, -0.084786, 0.058120, -0.075618, -0.250388, 0.027472, 0.174929, -0.053513, -0.009367, -0.222992, -0.052633, 0.017733, -0.160842, -0.164676, -0.088412, -0.044713, 0.021162, 0.033242, -0.188864, -0.051791, -0.001433, 0.035916, -0.149223, 0.043487, 0.108045, 0.124388, -0.009753, 0.014957, -0.012287, 0.011769, 0.026455, -0.121789, 0.210243, -0.290577, 0.499231, 0.108468, -0.049283, 0.062497, 0.007362, -0.172334, 0.102276, 0.203961, 0.039699, -0.124781, 0.081574, 0.131851, 0.200978, 0.226565, 0.183792, -0.074026, -0.159460, -0.010295, -0.021732, 0.058259, 0.073442, 0.037844, -0.163906, -0.314052, 0.018637, 0.135305, -0.017367, 0.072243, 0.060296, -0.180588, -0.143261, -0.076977, 0.123562, 0.093622, -0.194247, -0.042430, -0.143873, 0.144083, 0.086383, -0.053989, -0.224923, -0.047237, 0.021695, 0.066562, -0.057945, -0.031142, -0.092423, 0.020062, -0.103620, 0.185707, -0.184577, 0.029540, 0.180437, 0.002997, -0.074081, 0.105447, -0.009308, -0.052342},
{0.055137, -0.008099, -0.009791, 0.069328, 0.207113, 0.043389, 0.004943, -0.019008, -0.047178, 0.091918, -0.042344, -0.069452, 0.115320, 0.014230, -0.069272, -0.160175, 0.010103, 0.078117, 0.095002, 0.060562, 0.058882, 0.086460, 0.032785, 0.108040, 0.001554, 0.114317, -0.086367, -0.057090, 0.006632, 0.085815, -0.025170, -0.015567, 0.038545, 0.014235, -0.017243, -0.006074, -0.083501, -0.071868, -0.007318, 0.055378, 0.055678, -0.015049, 0.030409, 0.073447, -0.096053, -0.053128, -0.089842, -0.021418, -0.045384, 0.009878, -0.137220, -0.142119, 0.037084, -0.168124, -0.092452, -0.080979, -0.060119, -0.097589, 0.005289, -0.053127, 0.090710, -0.045099, -0.004623, -0.058595, 0.028520, -0.077093, -0.043336, 0.004077, 0.031450, -0.009994, -0.151708, -0.001356, 0.039727, 0.070063, -0.035239, -0.053963, 0.090494, 0.095953, 0.078551, -0.005475, -0.020164, 0.016202, 0.035793, -0.048093, 0.095526, -0.030853, 0.010276, 0.057620, -0.064558, 0.101022, 0.090186, 0.033577, -0.061128, -0.102765, -0.011122, -0.108023, 0.041238, 0.108857, -0.092318, -0.115380, 0.036849, 0.038092, -0.026938, -0.062342, 0.009300, -0.106773, -0.074589, 0.042143, -0.021264, -0.062540, -0.088835, 0.043800, 0.006802, -0.026112, -0.096587, -0.001865, 0.007790, -0.001158, 0.078874, -0.040584, 0.097052, 0.002839, 0.022030, 0.092908, 0.016612, 0.043863, 0.055634, -0.127640},
{0.028361, 0.006553, 0.143717, -0.130742, 0.232087, 0.110716, -0.063107, -0.121399, 0.138303, 0.171126, 0.071283, -0.044701, -0.100265, -0.007101, 0.102850, -0.052856, 0.074943, -0.080420, 0.170712, 0.125704, 0.070202, -0.107203, 0.117515, 0.135184, -0.040036, -0.021327, -0.114963, 0.065150, -0.083470, 0.058140, 0.216236, 0.086257, 0.012376, 0.125956, 0.112132, 0.104954, 0.031845, 0.066245, -0.056373, -0.060757, -0.117336, -0.096545, 0.043903, -0.015928, 0.038071, -0.223887, 0.111079, -0.042670, -0.051838, 0.024634, -0.022873, 0.079218, 0.062005, 0.032282, -0.166774, 0.076017, 0.074471, -0.063569, -0.017919, -0.050176, 0.040579, 0.061779, 0.127976, -0.119462, -0.015526, -0.012782, 0.148482, -0.195086, -0.157682, -0.139035, 0.227735, 0.027161, -0.013339, -0.000747, -0.007578, 0.050985, 0.081928, 0.083641, -0.038961, -0.071739, -0.039540, -0.014741, 0.049037, -0.025961, 0.060645, -0.074499, 0.071939, 0.014705, -0.055233, 0.111258, -0.125801, -0.075784, -0.007074, -0.164068, 0.037818, 0.086216, -0.021259, 0.023809, 0.091671, 0.025953, 0.033868, -0.033624, 0.210983, -0.022695, 0.076442, 0.003607, -0.168029, 0.050100, 0.084672, 0.049394, -0.044924, 0.015873, -0.092971, 0.097347, -0.090949, -0.078076, 0.068290, -0.004342, -0.039264, 0.170205, 0.050475, 0.030643, -0.103528, -0.062596, 0.023321, 0.114617, 0.150236, -0.054645},
{0.172423, 0.161013, 0.090118, -0.153876, 0.081254, -0.020581, -0.033028, -0.011151, 0.034129, 0.065465, -0.018309, -0.079047, -0.101504, 0.086633, -0.031563, -0.001061, 0.039622, -0.014790, 0.003014, -0.001081, 0.160014, 0.100324, -0.018630, -0.152096, -0.066779, 0.012881, -0.035121, -0.101777, -0.256956, -0.030688, 0.119071, 0.197782, -0.113122, 0.097595, -0.199194, 0.217287, 0.081766, -0.001966, 0.142906, 0.054636, -0.076677, -0.084000, -0.009699, -0.073248, -0.134219, -0.200673, -0.155917, -0.044766, -0.192557, -0.035718, -0.165489, -0.030598, 0.062654, -0.218432, -0.175890, 0.049446, -0.141886, -0.035942, -0.020691, -0.162831, 0.155584, -0.147371, -0.158127, 0.027405, -0.108077, 0.132698, 0.034656, -0.182212, -0.104840, -0.104476, 0.124444, -0.080066, -0.088117, -0.018932, -0.057672, -0.040449, 0.068553, 0.038264, 0.011560, 0.026788, -0.058437, -0.031218, 0.091512, -0.014792, 0.114371, -0.093442, 0.015642, 0.077912, 0.153013, 0.006411, 0.135772, 0.067171, -0.086099, 0.064830, 0.112463, 0.126316, 0.065052, 0.111479, -0.019060, -0.025180, -0.066870, -0.031371, 0.139003, -0.038753, 0.065810, 0.190385, 0.010614, 0.045891, -0.118500, -0.009391, -0.187567, 0.033862, -0.003376, -0.010788, -0.038739, 0.132536, -0.142063, 0.158842, -0.081159, -0.020160, 0.052228, -0.044014, 0.211482, -0.018979, 0.057214, 0.147403, 0.026984, 0.045463},
{0.163993, -0.128524, -0.051193, 0.021800, 0.122753, -0.013404, -0.032939, 0.005170, 0.059090, 0.087404, -0.064448, -0.207659, 0.030889, 0.002967, -0.075744, 0.014538, 0.005970, 0.064732, 0.033060, -0.194885, 0.096025, -0.046448, -0.086267, 0.103181, -0.157299, 0.091838, -0.124811, 0.149052, 0.098158, 0.054878, -0.082007, 0.090890, -0.000879, -0.052428, -0.064430, 0.046573, -0.039331, -0.039045, 0.121892, -0.003097, 0.009340, -0.097304, 0.002242, -0.033950, 0.031178, 0.166947, -0.021902, -0.087575, -0.030307, 0.033540, -0.134785, 0.078132, -0.070355, -0.093177, -0.054020, -0.175212, 0.079256, -0.068985, -0.033675, 0.050933, 0.134568, -0.108224, -0.074815, 0.001874, -0.099455, -0.171708, -0.131411, -0.024682, 0.065057, 0.138157, 0.025559, 0.005465, -0.104219, 0.095869, -0.090154, -0.018219, 0.077804, 0.027515, -0.075491, -0.021106, -0.230128, -0.008995, -0.231617, 0.194642, -0.000309, 0.117484, -0.135412, -0.117033, -0.289116, 0.195156, 0.058515, 0.179110, 0.053141, -0.143267, 0.077405, -0.041084, 0.110609, -0.009454, -0.006516, -0.047311, 0.066706, -0.108221, 0.007763, 0.022339, -0.059568, -0.086065, 0.050238, -0.105124, -0.056690, -0.188671, 0.028102, 0.019899, -0.025054, -0.062618, -0.193287, 0.013292, -0.119135, -0.166249, -0.087637, 0.112539, 0.032832, -0.075333, 0.018508, 0.103846, 0.025807, -0.017967, -0.363557, -0.060136},
{0.082444, -0.013916, 0.089437, 0.083653, 0.019745, 0.004461, -0.119717, -0.037574, 0.007417, -0.058917, -0.061727, 0.020716, 0.068522, 0.023278, -0.093907, -0.042579, -0.019800, -0.080890, -0.094052, 0.139242, 0.087218, 0.021302, -0.042076, 0.123103, -0.048035, 0.094293, -0.086499, -0.015309, 0.139507, 0.033800, 0.067209, 0.033081, -0.041653, 0.191666, -0.054856, 0.119580, 0.042830, -0.002378, 0.027897, -0.027396, 0.002578, 0.156947, 0.031298, 0.037451, 0.030407, -0.019780, 0.065704, -0.032332, -0.084486, -0.015817, -0.058341, 0.038480, 0.095819, -0.045761, 0.074525, -0.009920, 0.010638, -0.078701, 0.034349, -0.007318, -0.016837, 0.062926, 0.063595, -0.097365, -0.027639, -0.041693, -0.047618, -0.007827, 0.008137, 0.025198, -0.005824, 0.041230, -0.050029, 0.044168, -0.148150, -0.034347, 0.082516, 0.028663, -0.081171, 0.137616, 0.165869, -0.039338, 0.124979, -0.053523, -0.018869, 0.062056, 0.053509, 0.093634, 0.085423, 0.027299, 0.116132, -0.097006, 0.015225, 0.082910, 0.037062, 0.139807, -0.037093, 0.032930, 0.098109, 0.032613, 0.092808, 0.123098, 0.036616, 0.021133, -0.132750, 0.083941, -0.076031, 0.034441, -0.188825, 0.027455, 0.155690, -0.032827, 0.023897, 0.017342, -0.043870, 0.008100, -0.009006, 0.071303, 0.077511, 0.049273, 0.052025, 0.061210, -0.094478, -0.058170, 0.012814, 0.064297, -0.071934, 0.030972},
{0.076196, -0.081140, -0.121006, -0.094227, 0.116155, 0.108803, -0.084611, -0.081930, 0.028139, 0.037098, -0.052698, 0.065600, -0.042895, 0.030839, -0.122632, -0.011067, 0.071672, -0.066830, -0.091967, -0.051102, 0.256542, 0.087829, 0.030810, 0.008170, -0.068044, 0.235579, -0.077109, 0.090456, 0.008143, -0.016139, -0.102671, 0.125002, -0.112433, 0.110175, 0.021840, 0.105349, 0.075569, -0.189558, 0.087206, -0.000071, -0.064815, 0.043983, -0.031230, 0.003754, 0.036695, 0.115546, 0.161426, -0.007363, -0.193141, -0.034519, -0.143728, -0.115812, -0.008515, -0.015702, 0.001899, -0.142178, -0.097707, -0.045236, 0.097503, 0.096763, 0.002484, 0.107196, -0.064337, 0.003681, -0.142351, -0.075380, 0.089339, -0.044007, -0.048856, -0.066286, -0.090753, 0.149896, 0.047265, 0.232774, -0.034685, 0.199811, -0.089542, 0.038906, -0.183378, -0.107694, -0.102988, 0.059663, 0.192403, 0.008888, -0.002885, -0.107615, -0.002681, -0.131962, -0.045900, 0.105123, 0.059259, -0.143759, 0.161095, 0.077946, 0.168878, 0.012813, -0.181303, -0.040694, -0.017407, -0.076702, 0.022200, 0.050161, 0.167651, -0.019777, 0.084389, 0.047691, 0.008191, 0.049673, -0.072402, -0.041660, 0.003164, -0.049549, 0.084411, 0.063210, 0.138939, 0.066945, 0.026890, -0.147254, -0.097963, -0.119533, -0.019663, 0.055793, 0.017173, 0.047789, -0.024610, 0.082008, -0.222563, -0.046801},
{-0.167923, 0.051396, 0.045371, 0.051894, -0.015024, 0.083789, 0.009146, -0.031767, -0.044342, -0.011481, -0.041855, -0.173241, 0.138446, -0.134931, 0.119812, -0.054508, 0.021363, -0.026587, 0.160318, -0.072917, 0.115405, 0.124300, -0.116113, 0.131508, 0.001060, -0.102856, -0.044120, -0.014703, -0.005718, -0.036110, -0.093908, -0.085542, 0.010366, -0.041591, -0.069904, -0.019014, -0.034674, -0.034394, 0.085146, -0.082234, 0.024754, -0.058406, -0.134096, 0.005287, 0.111500, -0.002871, 0.008023, -0.046009, -0.001731, -0.057924, -0.018403, 0.060213, -0.028388, -0.133956, -0.110265, 0.056767, -0.009705, 0.030457, -0.032186, -0.037220, 0.068816, 0.042367, 0.165053, -0.100470, 0.067002, 0.214668, -0.179836, 0.014567, 0.103300, 0.024121, 0.148154, 0.084628, 0.064185, 0.050217, 0.051243, 0.088193, -0.050767, -0.059620, 0.126920, -0.114724, -0.040203, 0.085478, -0.031146, 0.103397, -0.067542, 0.025773, -0.010051, 0.058741, -0.133113, 0.117462, 0.006864, -0.016325, 0.108177, 0.060298, -0.012171, -0.041130, 0.029385, 0.014691, -0.130501, -0.055334, 0.094124, 0.066157, 0.032378, -0.054262, -0.076537, -0.042649, -0.060192, 0.088812, 0.175059, -0.087968, 0.093475, 0.133635, -0.002720, 0.084681, -0.116516, 0.017134, -0.094524, 0.052418, 0.038225, 0.048186, -0.104241, -0.074391, -0.171801, 0.092263, 0.063877, -0.028476, -0.047496, 0.058367},
{-0.048379, 0.035758, 0.059038, -0.028159, 0.184072, 0.112433, -0.103520, 0.069009, -0.041218, 0.134574, -0.109569, 0.011745, 0.122971, 0.108065, -0.036335, -0.112702, 0.113232, 0.131063, 0.093568, 0.015038, -0.044038, 0.022916, 0.143443, 0.062520, 0.111626, 0.075359, 0.024741, -0.040556, -0.061458, 0.002477, -0.048783, 0.013052, 0.062184, -0.003770, 0.036689, 0.066970, 0.112764, -0.036688, -0.052016, -0.030756, -0.084002, -0.127048, 0.020446, -0.083317, 0.034671, 0.014018, -0.107596, 0.072823, -0.060618, 0.039298, 0.090511, -0.073256, -0.124690, 0.022289, 0.161271, 0.030468, -0.025886, 0.026882, 0.124887, 0.052185, 0.042630, -0.071504, -0.022768, 0.077241, -0.046903, -0.114057, 0.189197, 0.014514, 0.128322, -0.196561, -0.078741, -0.007758, 0.012481, 0.024139, -0.135134, -0.083735, 0.016890, 0.121159, 0.086380, -0.065638, -0.053047, -0.051468, 0.084229, -0.055768, -0.166392, -0.034409, -0.016980, -0.017002, -0.007261, 0.067299, 0.040766, -0.100993, 0.005776, 0.014630, -0.039893, -0.115147, -0.126721, -0.118830, 0.038372, -0.063563, 0.058467, -0.158491, 0.088656, 0.018449, 0.009608, -0.098343, -0.058985, -0.077845, -0.046954, -0.065789, -0.078123, -0.107361, -0.048604, 0.001672, -0.040872, -0.042250, -0.023093, -0.096902, 0.038323, 0.042369, 0.089991, -0.044554, 0.060974, 0.064083, -0.076936, -0.064369, -0.115527, 0.163432},
{-0.227406, 0.049136, 0.250443, -0.350570, 0.201753, 0.398626, -0.075508, -0.087960, -0.008652, -0.288006, -0.005257, -0.032001, -0.346859, 0.088344, 0.055304, -0.156813, -0.034296, 0.031040, 0.036525, 0.119403, -0.058872, 0.396159, 0.027097, -0.222913, -0.244085, 0.114803, -0.101356, 0.025696, -0.128719, 0.240288, 0.204312, 0.165760, -0.112559, 0.135107, -0.311307, 0.066276, -0.173735, -0.134841, 0.211395, 0.005158, -0.264020, 0.169448, -0.291878, 0.153569, -0.254847, -0.144304, -0.087528, -0.029829, -0.234348, 0.091942, -0.146552, -0.095077, 0.160194, -0.152514, -0.099342, -0.158404, -0.214371, -0.109809, -0.173757, -0.416342, -0.151783, 0.091372, 0.090540, -0.158146, 0.130191, -0.093566, -0.058508, -0.206679, -0.340993, -0.267691, -0.223925, -0.169508, -0.096203, -0.066570, -0.032717, -0.170270, 0.002409, 0.101798, -0.038243, 0.105132, -0.053815, 0.044137, -0.103456, -0.107326, 0.297090, -0.016827, 0.293272, 0.052748, 0.030980, -0.055074, 0.220138, -0.003328, -0.167923, 0.015538, -0.208408, 0.120226, 0.003654, 0.276365, 0.277855, -0.246404, -0.013715, -0.021634, 0.012438, -0.026913, -0.030131, -0.099067, 0.056588, 0.136316, -0.168298, 0.008302, -0.034662, -0.069722, 0.049905, -0.108282, -0.253796, 0.260425, 0.190221, 0.102152, 0.001839, 0.110613, 0.236097, 0.011474, 0.066565, 0.035485, -0.134239, 0.284789, -0.001606, -0.184983},
{-0.157886, 0.107779, 0.094963, -0.014918, 0.137217, -0.132678, -0.078912, -0.009688, 0.049667, 0.103513, 0.134408, -0.072400, -0.033922, -0.010522, 0.068383, 0.038634, 0.061427, 0.164232, 0.039081, 0.269436, -0.104531, -0.034756, -0.062622, -0.017156, 0.065250, -0.125156, -0.036158, 0.175660, -0.086880, 0.124762, 0.328449, -0.090829, 0.201635, -0.094028, 0.251452, -0.123228, -0.128321, 0.018197, -0.026114, -0.165415, 0.120104, 0.025201, 0.010821, -0.118312, 0.016430, -0.212379, 0.047280, 0.072433, -0.011526, -0.032152, 0.117685, 0.053645, 0.287422, 0.171152, -0.250647, 0.213982, 0.035081, -0.075011, -0.036956, 0.214184, -0.136922, 0.054626, 0.054398, 0.077856, 0.283989, -0.031774, 0.143428, -0.058336, -0.088114, 0.066796, 0.149784, -0.099353, -0.292576, 0.052594, 0.067492, 0.109061, -0.017623, 0.172380, 0.155722, -0.185442, -0.000665, -0.011101, -0.094136, 0.032196, 0.199592, -0.155435, 0.155949, 0.035702, 0.103827, -0.158186, 0.045244, -0.088117, 0.154548, -0.070267, 0.123071, -0.091062, -0.085797, 0.005307, 0.075771, 0.001537, -0.050008, 0.246837, -0.092483, 0.061916, 0.048002, -0.169505, -0.196576, -0.129398, 0.083739, -0.021604, 0.091165, 0.101187, -0.356039, 0.144597, -0.070858, -0.097808, 0.177483, 0.038591, -0.067956, 0.137186, -0.163767, 0.197624, -0.029604, 0.091232, -0.052218, 0.081392, 0.105064, -0.065423},
{-0.065050, 0.132181, 0.094997, 0.110263, 0.089462, 0.129415, 0.026896, 0.076085, -0.024241, 0.057654, -0.006239, -0.033389, 0.119719, 0.043524, -0.020885, -0.035402, 0.023729, 0.086496, -0.062463, -0.041605, 0.017776, -0.139131, 0.060047, -0.002297, 0.065540, -0.047713, -0.018018, -0.216366, 0.008855, -0.049879, 0.023686, -0.087659, 0.007150, -0.113693, 0.060935, 0.074357, -0.088846, 0.154150, -0.007554, 0.065823, 0.016330, 0.118356, 0.059452, 0.094825, 0.114407, -0.131906, 0.087149, 0.029760, 0.026542, 0.043370, -0.078147, -0.035755, 0.125306, 0.047373, -0.277273, -0.064162, 0.016972, -0.006885, -0.168058, 0.105931, 0.130000, -0.006774, -0.021020, -0.080934, 0.092935, 0.045555, 0.113314, 0.003519, 0.108180, -0.195351, -0.041761, -0.039658, 0.092320, -0.107412, -0.048073, -0.123127, 0.133477, -0.022856, 0.034852, 0.046508, -0.043523, 0.035543, 0.045625, 0.101787, -0.023864, -0.088383, 0.064659, -0.023112, 0.086792, 0.069334, 0.108776, 0.028907, -0.057649, 0.021515, -0.063868, -0.127289, 0.002995, 0.114667, -0.113103, 0.083723, 0.012058, -0.137418, -0.059638, -0.035982, -0.052087, -0.126324, -0.080769, -0.011005, -0.016055, -0.124981, 0.016600, -0.190150, 0.074203, 0.066578, 0.204850, 0.054874, -0.029339, 0.025956, -0.147197, 0.059790, -0.082200, -0.048464, 0.077089, 0.123810, -0.134560, 0.136831, 0.011957, -0.048995},
{0.016885, -0.097135, -0.017850, 0.104910, 0.071412, 0.050353, 0.076461, 0.235946, 0.037265, 0.019633, 0.001784, 0.017285, -0.068907, -0.088807, 0.047387, 0.046949, 0.132200, 0.010780, -0.108636, 0.057019, 0.019297, -0.219683, 0.131637, 0.036725, 0.001853, 0.083759, -0.038480, -0.045247, -0.038829, 0.031265, 0.025583, -0.155429, -0.042240, 0.208560, 0.037930, -0.057871, -0.078397, -0.149387, -0.177220, -0.153652, 0.088621, 0.024850, 0.025109, -0.194175, 0.048359, 0.023575, 0.055353, -0.075566, -0.060946, -0.078184, 0.269912, 0.007818, 0.027845, 0.119503, -0.054567, 0.007772, 0.000421, 0.065802, 0.016867, 0.212277, -0.249169, 0.121306, 0.154831, -0.067116, 0.168256, 0.117685, 0.066361, -0.005193, 0.034453, 0.504954, 0.040711, -0.020549, -0.126939, 0.251064, 0.064459, 0.079013, -0.005003, 0.273648, -0.120857, -0.087104, 0.144782, 0.054220, 0.099722, 0.022737, -0.036402, -0.025241, 0.153154, -0.220225, -0.230170, 0.029618, -0.198072, -0.099373, 0.023864, 0.168228, 0.078743, -0.105937, -0.156365, -0.102850, 0.255751, 0.245109, -0.087655, -0.084396, 0.078307, -0.008894, 0.140753, -0.099656, -0.171226, 0.052351, 0.000635, 0.039134, 0.095725, -0.062992, -0.192752, 0.143837, -0.062550, -0.131434, 0.279902, -0.134192, -0.164117, -0.027422, 0.091267, -0.125001, 0.038600, -0.043019, 0.055348, 0.094570, -0.251019, 0.055038},
{0.094180, 0.052602, -0.024215, -0.177791, 0.275643, 0.130649, -0.101734, -0.059330, -0.111881, -0.036108, -0.208003, -0.069505, -0.116080, 0.032642, 0.049542, -0.056438, -0.100981, 0.115261, 0.014731, 0.103106, -0.040651, 0.055270, 0.131202, 0.011198, -0.185818, 0.073466, 0.020252, -0.102788, -0.257236, 0.005085, 0.210705, 0.163409, 0.067883, -0.063181, -0.214965, 0.003219, 0.030012, 0.076371, 0.049182, -0.116850, -0.062430, 0.045391, 0.024702, 0.037311, -0.145492, -0.156872, -0.072110, -0.119011, -0.164424, -0.178264, -0.127241, 0.072404, 0.139420, -0.060984, -0.027193, 0.023251, 0.024322, -0.118716, -0.062599, -0.157700, 0.043192, 0.133160, 0.101113, -0.056794, 0.115730, -0.060266, -0.098248, -0.085216, -0.070518, -0.257049, -0.075692, -0.007483, -0.054413, -0.129018, -0.267801, -0.377412, -0.065212, 0.058551, 0.055107, 0.046225, 0.066675, -0.076978, -0.052706, 0.043627, 0.098894, -0.170509, 0.046196, -0.015479, -0.082015, -0.052497, 0.045616, -0.049093, 0.004693, -0.032003, -0.101436, 0.018944, -0.078306, 0.041930, 0.116524, -0.321655, -0.121785, -0.099932, 0.110860, -0.085548, -0.016215, -0.142231, 0.023148, -0.112087, 0.010206, 0.005090, -0.043398, -0.141941, -0.115699, -0.265070, -0.105477, 0.024719, 0.062636, 0.063754, 0.053419, 0.061732, 0.186623, -0.058418, 0.000949, 0.074733, -0.042023, 0.172454, -0.120875, 0.026799},
{0.111435, 0.184368, -0.170553, 0.106753, 0.030364, -0.116255, -0.001791, 0.100007, 0.086438, 0.090744, -0.046972, 0.069291, 0.086101, 0.100573, -0.060327, -0.109080, -0.001737, 0.153627, 0.041143, -0.059382, 0.044831, -0.105697, 0.029264, -0.210354, 0.010427, -0.057973, -0.026379, -0.004444, 0.000661, 0.105441, 0.071979, -0.006220, -0.006306, 0.038212, -0.152820, 0.074323, 0.027880, 0.078319, 0.098448, 0.115236, -0.070914, 0.037351, 0.186776, 0.107085, -0.121949, 0.003947, 0.201923, 0.002232, -0.108339, -0.101571, 0.017895, -0.023362, 0.115813, -0.200887, -0.223240, -0.168142, 0.006632, -0.109341, -0.012249, -0.087615, -0.082534, 0.123435, 0.016171, 0.002644, 0.043695, -0.172469, -0.099397, -0.167082, 0.084467, -0.080051, -0.053918, 0.115091, -0.230067, -0.094715, -0.184902, -0.058581, -0.024816, 0.002484, 0.096665, -0.043480, 0.020205, 0.229406, -0.047054, 0.008229, 0.014004, -0.134146, -0.060726, 0.017868, -0.083372, 0.187754, 0.041217, 0.081658, -0.067041, -0.173358, 0.114796, 0.020418, 0.102992, 0.072052, 0.013155, 0.202533, -0.112844, 0.130733, -0.045845, -0.086175, -0.029857, 0.080246, -0.082196, 0.079751, -0.004350, -0.166836, -0.151025, -0.356404, 0.002911, 0.225796, -0.058491, -0.053537, -0.099722, 0.157883, -0.041887, -0.015161, -0.032091, 0.013745, 0.177121, 0.110831, 0.032076, 0.276085, -0.205981, -0.149350},
