float w1[784][128] = {{-0.050551, 0.047648, -0.055381, 0.027123, -0.070561, -0.063209, 0.031841, 0.002756, 0.034878, -0.022305, -0.046588, 0.057635, 0.066400, -0.064886, -0.071445, 0.020358, 0.079198, 0.016015, 0.025805, 0.067233, 0.056066, -0.049952, 0.011661, 0.014265, -0.078634, -0.016689, -0.006557, 0.066407, 0.027953, 0.042466, -0.027983, -0.024018, 0.011707, -0.022762, -0.048918, 0.070409, -0.057309, 0.048568, 0.054594, 0.009571, -0.070696, -0.007100, -0.042965, 0.025551, -0.062996, 0.012598, -0.013324, 0.046333, 0.009977, 0.016005, 0.071180, -0.034365, 0.003747, -0.058886, 0.028381, 0.068569, -0.030417, 0.026896, 0.030193, -0.040587, -0.047821, 0.078851, -0.070917, 0.009658, -0.012081, -0.040498, 0.035683, 0.002058, -0.047308, 0.008113, 0.033894, 0.047073, -0.017767, -0.048233, -0.058965, -0.050001, 0.057641, 0.015564, -0.079343, 0.045579, -0.022634, -0.062333, 0.070163, 0.028333, 0.032702, 0.023559, 0.063536, 0.002909, -0.046412, -0.022765, 0.004490, 0.058792, 0.039906, -0.059331, 0.074286, 0.064779, -0.054276, 0.046477, 0.073373, -0.057230, -0.024516, 0.016931, -0.037023, 0.061265, -0.035471, -0.043253, 0.047909, 0.030419, -0.060565, 0.006968, 0.004600, 0.005704, 0.037321, 0.073032, 0.070692, -0.080738, -0.037613, -0.055147, -0.001123, 0.074982, -0.042703, 0.026041, 0.058608, -0.025155, -0.011753, -0.053680, -0.079604, -0.046890},
{0.071429, 0.043114, 0.070007, 0.069801, 0.046220, 0.063323, -0.077935, 0.000504, -0.006767, 0.058425, 0.056176, -0.027415, -0.004666, -0.000416, 0.028626, 0.026397, 0.031639, 0.026681, 0.032410, 0.034866, 0.010990, 0.001863, 0.035840, -0.005215, 0.046544, -0.072986, -0.007787, 0.013825, -0.039416, -0.052089, 0.050511, 0.056092, -0.062821, 0.068945, 0.038855, 0.017894, -0.033272, 0.036642, -0.045911, -0.050213, -0.072149, -0.055873, -0.077944, -0.031029, 0.007312, -0.061609, -0.033008, -0.080650, -0.024414, -0.078096, 0.000308, 0.034658, -0.025973, -0.015823, -0.007925, 0.022019, 0.069206, 0.080945, 0.009919, 0.018697, 0.061904, -0.004557, -0.030133, 0.006963, -0.057996, -0.037814, -0.051307, 0.001453, -0.045890, -0.039274, 0.066809, 0.001086, 0.042640, 0.030959, 0.002018, 0.039281, -0.053219, 0.071710, -0.015636, -0.055805, -0.040898, -0.020070, -0.026734, 0.000844, 0.017436, 0.047638, 0.053174, -0.010364, -0.012269, 0.013173, -0.001763, 0.080998, 0.027801, 0.020188, 0.051255, 0.041169, 0.021107, -0.043597, -0.022118, -0.005362, 0.014337, -0.039778, 0.040802, -0.018230, 0.036671, -0.018419, -0.013687, 0.018317, -0.031115, 0.033364, -0.016174, -0.023571, 0.059646, -0.044568, -0.006174, 0.016085, -0.003755, -0.054317, -0.014042, 0.036988, -0.043583, 0.003133, -0.080694, -0.076704, 0.074666, 0.027829, -0.076938, 0.009406},
{0.027228, -0.002971, -0.033732, 0.059371, -0.056414, -0.076734, 0.041367, -0.011828, -0.071264, 0.038674, 0.008812, 0.034769, -0.074994, 0.069253, -0.008904, 0.072601, -0.059450, 0.062075, -0.010774, -0.054551, -0.053279, -0.053258, -0.058348, 0.054999, 0.037717, -0.026830, 0.074030, -0.051991, 0.059431, -0.074401, -0.057003, 0.036325, -0.020095, 0.055160, -0.041323, -0.071901, -0.080752, -0.046536, -0.020089, -0.020342, 0.009177, -0.029160, 0.063201, 0.026864, 0.068884, 0.074606, -0.058223, 0.034465, -0.065758, 0.040441, 0.039938, -0.059874, 0.006362, -0.080772, -0.036447, -0.030780, 0.034269, -0.080696, 0.021423, -0.062261, -0.045530, -0.046322, -0.056616, -0.055420, 0.041290, 0.069194, -0.014448, 0.002313, -0.005149, 0.069120, -0.068826, 0.023053, -0.032044, 0.018176, -0.004628, 0.062640, -0.067302, 0.064067, 0.044639, 0.015612, 0.057986, -0.002641, 0.002916, -0.017582, -0.042905, -0.042175, 0.064291, 0.001387, -0.047269, 0.064173, -0.036997, 0.007104, -0.036113, 0.042551, 0.020119, -0.034947, -0.007762, -0.001295, 0.035382, 0.035720, 0.027152, 0.040704, -0.051043, 0.058777, -0.027014, 0.052734, 0.044323, -0.018560, 0.032423, 0.023823, -0.039972, -0.032984, -0.009113, -0.065298, 0.042176, 0.069822, -0.075893, 0.072356, -0.080468, -0.063695, -0.020441, 0.066289, 0.020064, -0.023006, 0.059645, -0.037540, 0.053259, 0.073922},
{-0.056156, -0.056726, 0.046427, 0.029865, 0.042541, 0.048086, 0.005646, 0.072174, -0.053417, 0.013679, 0.079362, 0.041106, -0.043843, 0.003101, 0.042527, -0.024955, -0.062185, -0.009564, -0.080417, -0.056281, -0.040001, -0.068499, -0.043565, 0.062010, 0.017433, -0.061876, 0.079969, -0.071087, 0.077014, 0.034536, 0.058706, -0.028216, -0.062905, -0.013925, -0.045620, -0.023830, 0.012370, -0.060757, -0.078296, 0.016108, -0.062602, 0.065325, 0.022246, 0.071123, -0.078738, -0.052856, -0.035676, 0.011414, 0.025634, -0.023623, -0.008766, 0.066295, 0.013434, -0.035566, -0.051828, 0.073942, -0.041516, 0.077543, -0.008391, -0.006840, 0.069689, 0.054207, -0.071003, -0.071124, -0.003901, 0.077796, 0.007922, -0.065041, -0.076402, -0.025106, -0.059055, -0.033744, -0.050999, -0.027659, -0.033929, 0.025645, 0.076855, 0.072186, -0.039910, 0.003093, 0.051375, 0.071631, 0.033840, -0.043601, -0.026709, 0.000375, 0.007471, -0.060667, 0.025309, 0.029940, 0.079510, 0.020590, 0.046800, 0.068454, 0.073666, -0.031295, -0.063262, 0.010173, 0.072286, -0.026104, 0.024500, 0.038769, 0.068462, -0.060733, 0.075504, -0.029551, 0.025355, 0.074690, -0.005743, -0.027658, -0.077687, -0.017043, -0.000447, 0.049259, -0.004723, -0.065282, 0.014257, -0.073692, 0.074616, 0.002640, 0.045481, 0.069065, 0.013554, -0.015408, -0.040866, -0.053446, -0.051823, -0.051774},
{-0.066730, -0.031761, -0.034162, -0.020064, -0.030172, 0.080381, 0.002671, 0.016599, -0.028699, 0.030126, 0.080097, 0.077115, -0.058095, 0.046719, -0.003363, 0.065978, 0.039471, -0.043265, 0.076341, -0.030410, -0.036995, 0.020687, 0.004904, 0.045445, 0.068165, -0.068740, 0.019828, -0.045020, 0.031670, -0.006268, 0.023129, -0.041173, 0.052071, 0.059521, -0.068101, -0.071505, -0.041826, -0.046581, 0.034883, -0.060204, 0.031110, 0.015969, -0.067562, 0.060993, 0.047265, 0.073887, 0.017590, 0.026189, 0.012991, -0.049460, 0.045884, -0.069956, 0.054893, 0.060158, -0.076299, -0.047729, 0.041737, -0.047791, -0.072921, -0.045210, -0.000327, -0.003087, -0.070991, -0.034037, 0.019908, 0.058883, 0.005402, -0.040037, 0.030660, -0.058634, 0.010726, 0.080114, -0.051921, -0.047027, -0.033333, -0.016496, -0.036518, 0.018964, 0.015228, 0.004860, -0.041134, -0.058038, -0.033623, 0.054852, -0.040096, -0.010483, -0.047202, 0.046851, -0.005503, -0.012289, 0.023296, -0.070712, 0.071853, 0.037002, 0.035272, 0.018676, -0.016926, 0.001063, 0.021143, -0.024048, 0.054240, -0.030972, 0.048283, -0.008074, 0.015215, -0.028944, 0.064376, 0.056094, -0.058018, 0.034583, 0.065313, 0.009661, 0.027469, -0.033709, -0.053872, -0.003028, -0.019197, 0.018942, -0.023577, -0.057190, 0.007107, -0.055239, 0.069049, -0.000056, -0.072237, -0.001547, 0.024350, 0.047641},
{-0.012793, 0.044907, -0.081021, 0.063842, 0.060533, 0.021027, -0.070823, 0.004044, -0.075989, -0.020074, -0.036659, 0.022761, 0.051096, 0.013526, -0.070375, -0.061742, -0.012579, -0.036072, 0.012596, -0.009379, 0.057650, 0.059590, 0.060703, -0.024808, -0.011550, -0.067403, 0.048286, 0.062940, -0.025779, -0.005800, 0.047942, 0.024228, 0.038913, -0.064864, 0.052679, -0.038028, -0.027722, 0.059994, 0.080585, 0.036120, -0.063681, 0.046067, 0.031177, 0.036467, -0.002591, -0.063158, -0.021704, 0.069132, 0.048014, -0.065900, 0.071881, 0.033123, 0.080886, 0.077198, 0.077134, -0.066771, -0.056245, 0.027739, -0.054891, -0.014845, -0.003408, 0.072384, 0.034728, -0.041949, 0.055435, 0.031946, -0.080830, -0.058669, -0.050105, 0.039624, -0.027619, -0.045229, -0.032689, 0.033741, 0.079003, -0.042257, -0.031804, -0.067172, 0.077832, -0.053636, -0.035803, 0.049433, -0.036562, -0.040275, -0.036790, -0.053874, 0.049107, 0.069102, -0.029171, -0.065825, -0.029109, 0.063298, 0.034189, -0.008448, -0.015070, -0.037010, -0.044161, -0.013718, -0.063872, 0.074058, -0.064410, -0.063495, -0.071291, 0.040816, -0.009694, 0.000458, -0.006606, -0.034849, 0.028896, 0.017553, 0.000840, -0.054239, -0.012479, -0.012284, 0.025989, 0.052481, -0.080571, -0.075183, 0.002488, -0.006867, 0.000836, -0.077333, -0.057375, -0.080350, -0.011963, -0.007063, -0.036024, -0.062383},
{0.008838, 0.003938, -0.000382, 0.068990, -0.025510, 0.066423, -0.053589, 0.020195, 0.011667, 0.080477, -0.016518, 0.014286, -0.034018, 0.045963, 0.040455, 0.058482, 0.013349, -0.080642, 0.044354, 0.061828, 0.031819, -0.041081, 0.040935, -0.008609, -0.007412, 0.067421, 0.062445, 0.080515, -0.059208, -0.029633, -0.022879, 0.055189, -0.059364, -0.020661, 0.056838, -0.075490, -0.046530, 0.020410, 0.054501, -0.059267, 0.045017, -0.057074, -0.047868, 0.068528, -0.016868, -0.064537, -0.001240, -0.027579, -0.006087, -0.009244, 0.054912, -0.010080, -0.037928, -0.057867, 0.040331, -0.006824, -0.039660, -0.036048, 0.057535, 0.028845, 0.058063, -0.043474, 0.026959, 0.003375, -0.051928, 0.062198, -0.011219, -0.018011, -0.023648, -0.055520, -0.053058, 0.011586, -0.024129, -0.015593, 0.075280, -0.035644, -0.006061, -0.065666, 0.037650, -0.057686, 0.048514, -0.025201, 0.063533, -0.015855, -0.018126, 0.019405, -0.053369, 0.019291, -0.031418, -0.003232, -0.003703, 0.076960, -0.035360, -0.068457, 0.015649, -0.034575, -0.041334, -0.059827, 0.040314, 0.069147, -0.043870, -0.063106, -0.051397, 0.027738, -0.073266, -0.024898, 0.058634, 0.000116, 0.061840, -0.061635, 0.023524, 0.030198, 0.036621, -0.053215, 0.017392, -0.036525, -0.020721, 0.038613, 0.024176, -0.071551, 0.016449, 0.055895, 0.034488, -0.052650, 0.060766, 0.058192, -0.040063, 0.001411},
{-0.038428, 0.063841, 0.057696, -0.080188, 0.013520, 0.059884, 0.061490, 0.056199, -0.038223, 0.039268, -0.010602, -0.041445, -0.018802, 0.052189, -0.009353, -0.059069, 0.025702, -0.008894, -0.035649, -0.051231, -0.009541, 0.031446, 0.057553, -0.035087, 0.054680, -0.050880, 0.072214, 0.053260, 0.028884, -0.035657, -0.074129, 0.039268, 0.047465, -0.011987, -0.028177, -0.047864, -0.068756, 0.053266, 0.022637, -0.008863, -0.051138, 0.002090, 0.004727, 0.065571, -0.069740, -0.072101, 0.063895, 0.024515, 0.045387, 0.047877, -0.001636, -0.041912, -0.006403, -0.034802, 0.037920, 0.040515, 0.033333, 0.067029, -0.071359, 0.008060, -0.048754, -0.016613, -0.008435, -0.043316, 0.005517, 0.006872, -0.018753, 0.061858, 0.045223, -0.017393, 0.060172, -0.041644, -0.057464, 0.011256, 0.011120, -0.043190, -0.021573, 0.043307, 0.024790, -0.032963, -0.075298, -0.043818, -0.053496, 0.057070, 0.041586, -0.040325, -0.003824, 0.058279, -0.079755, 0.005325, -0.002525, -0.007001, 0.027237, 0.021742, 0.022638, -0.008442, 0.006894, -0.075787, -0.011248, 0.041414, 0.069897, -0.061837, 0.025140, 0.038227, 0.065972, 0.062657, -0.061738, -0.076982, 0.022568, -0.027810, -0.042436, -0.023605, -0.035275, -0.050760, -0.041264, -0.034825, -0.054217, 0.026295, 0.026639, 0.009278, 0.070142, -0.052630, -0.065562, 0.064911, 0.033595, 0.033755, 0.041124, -0.038463},
{-0.056652, 0.059213, -0.012519, -0.002066, -0.035408, -0.000838, -0.045546, 0.023428, 0.016582, 0.071942, 0.070069, 0.070599, 0.069778, 0.000177, -0.037596, -0.032228, -0.002311, 0.013309, -0.016050, 0.051325, -0.063338, 0.051205, 0.030749, -0.079654, 0.061843, -0.005351, -0.045287, -0.006756, 0.016518, 0.051569, 0.057276, 0.057680, -0.055174, -0.064645, 0.069397, -0.010728, -0.068009, -0.060638, 0.045646, 0.027442, -0.028042, -0.037080, -0.025419, -0.040039, -0.005768, -0.062447, -0.074789, 0.025553, 0.021840, -0.026988, -0.066888, 0.075194, 0.000585, -0.076313, 0.026557, 0.061462, -0.054428, -0.056819, 0.008853, -0.009535, 0.038614, 0.075345, 0.033268, -0.076462, -0.012668, -0.015772, 0.007126, 0.045881, 0.052086, -0.023025, -0.010456, 0.001811, 0.054627, -0.052175, -0.069385, 0.035542, -0.049732, -0.015208, 0.054298, 0.011336, -0.058139, -0.055512, -0.073038, 0.003357, -0.029482, -0.019408, 0.077745, 0.054126, -0.044153, 0.028633, 0.019345, 0.018837, 0.075106, 0.014187, 0.006926, -0.057091, 0.029390, 0.013617, 0.073341, -0.062783, 0.056606, 0.009320, 0.061132, -0.069319, -0.009197, 0.007082, 0.028717, 0.011608, 0.018811, 0.038211, -0.058823, -0.004025, -0.056184, 0.025443, 0.039089, -0.040464, -0.029101, 0.049235, -0.052894, -0.077169, -0.053779, 0.060310, 0.009181, 0.035979, 0.069042, 0.079925, -0.019466, -0.071702},
{0.071757, 0.066785, -0.068212, 0.060118, 0.075065, -0.068516, 0.041131, -0.044327, -0.001067, 0.070802, 0.035361, -0.013685, 0.017118, 0.033987, -0.047739, -0.010106, 0.046547, 0.047057, -0.030850, 0.035100, -0.070766, 0.080414, -0.052113, -0.052320, -0.056925, 0.042528, 0.036067, -0.037799, 0.052930, -0.066776, 0.002700, -0.042827, -0.080980, -0.003371, 0.013934, 0.043534, 0.047270, -0.071396, -0.042449, -0.042018, -0.064496, 0.047791, 0.004071, -0.063006, -0.041993, -0.046574, -0.064171, 0.012157, -0.043523, 0.040991, -0.020317, -0.048446, 0.021093, -0.034375, -0.076474, -0.026562, -0.009059, 0.069687, -0.071534, 0.054929, -0.060452, -0.074321, -0.044608, 0.026687, 0.074375, -0.023589, -0.012191, 0.069297, 0.039021, -0.027606, 0.028279, 0.066543, -0.013490, 0.003134, -0.058211, 0.063479, 0.065082, 0.006658, 0.001367, -0.061356, -0.069858, 0.025004, 0.052397, 0.043953, 0.057277, 0.018444, 0.057801, -0.017616, -0.055354, -0.015678, 0.025547, 0.037521, -0.077432, 0.004362, -0.006767, -0.034130, 0.033534, 0.009488, 0.054487, 0.036105, -0.045988, 0.010425, 0.021574, -0.073699, 0.000756, -0.060030, 0.045748, -0.046991, 0.058422, 0.026685, -0.056743, -0.055998, -0.068550, 0.074823, 0.052066, 0.026324, -0.037664, 0.046029, -0.012405, -0.047412, -0.022247, 0.063683, 0.012258, -0.031435, 0.055876, 0.034496, -0.058958, -0.047857},
{0.073759, -0.004710, -0.045898, -0.074676, 0.032547, 0.053544, -0.009996, 0.071693, -0.053519, -0.032057, -0.004498, 0.048014, -0.037533, 0.046356, 0.025066, 0.016308, -0.066773, 0.066209, 0.071091, 0.054954, -0.027128, 0.055686, -0.002942, 0.034553, -0.072978, -0.078440, 0.034734, -0.060026, -0.076075, 0.067648, 0.065243, 0.037014, -0.039268, 0.024428, 0.000136, 0.074321, 0.038889, -0.056211, 0.005956, -0.004224, -0.038969, -0.007907, 0.053188, -0.035734, 0.000832, 0.060662, -0.076644, 0.019397, 0.078897, 0.031463, 0.042638, -0.048982, 0.008686, 0.008691, 0.031654, -0.009818, -0.041516, 0.060139, -0.070638, 0.018673, -0.042511, -0.007019, 0.040582, 0.051437, -0.009858, 0.068281, 0.036591, 0.015880, 0.010295, 0.028798, -0.072372, 0.063424, -0.012346, -0.019052, -0.055001, 0.023290, 0.070876, 0.036779, -0.071200, -0.008865, 0.066893, 0.046906, 0.059952, -0.018399, 0.011023, -0.051705, -0.044651, -0.008291, 0.066850, 0.005215, 0.004250, -0.022362, 0.042729, -0.039833, 0.061918, 0.037470, 0.071807, -0.002173, 0.011366, 0.072023, -0.076637, -0.038913, 0.049081, 0.027842, 0.002303, 0.004683, -0.075694, -0.017537, -0.032154, 0.037165, -0.024684, 0.052294, -0.034362, -0.008950, 0.072465, -0.019426, -0.031609, 0.051018, 0.018441, -0.030403, 0.005582, 0.013360, -0.078227, 0.033961, -0.080075, 0.041478, 0.046947, 0.060875},
{0.014159, 0.064161, -0.008437, 0.005593, 0.021480, -0.004490, 0.018742, 0.064480, -0.052751, 0.033379, 0.051548, 0.018846, 0.020635, -0.032987, 0.040304, 0.042678, -0.077871, 0.039185, -0.026963, 0.019173, 0.036648, -0.076208, -0.046582, -0.045627, -0.052459, -0.052151, 0.011577, -0.009292, -0.030230, 0.065901, -0.036392, -0.040215, 0.063796, -0.004067, -0.037024, 0.027223, 0.054802, 0.031919, 0.064045, -0.066899, 0.008874, 0.037048, 0.061868, 0.067602, 0.017241, -0.000113, -0.018159, -0.061992, 0.018806, 0.055548, 0.039603, -0.065966, -0.024911, 0.079218, 0.036324, 0.075315, 0.037573, -0.030536, -0.004096, 0.012809, -0.028572, 0.064850, 0.075258, -0.071040, 0.067310, 0.001246, 0.080199, 0.022333, 0.032640, -0.003024, 0.031294, -0.064993, 0.008246, 0.047896, 0.032310, 0.039853, -0.075973, 0.062193, -0.022997, 0.076701, -0.020534, -0.055403, -0.031003, 0.075792, -0.029365, -0.050677, -0.056751, -0.021093, 0.002358, 0.051264, -0.049943, -0.009018, -0.079088, 0.072165, -0.013137, 0.026068, -0.068615, -0.074475, 0.001359, 0.069633, -0.065407, -0.047081, -0.022217, 0.077640, -0.019188, -0.037372, -0.013376, 0.040807, -0.039480, 0.033586, -0.004392, -0.004956, 0.041503, -0.064665, -0.034039, -0.073586, 0.059524, 0.046070, 0.032716, -0.048158, 0.005712, 0.063460, -0.052820, 0.039087, -0.032632, 0.049483, -0.080764, -0.029034},
{-0.084903, 0.070741, -0.033371, -0.112105, 0.132687, 0.040674, -0.050427, 0.054643, 0.025872, 0.106462, 0.088232, -0.034594, 0.046188, 0.142074, 0.023097, 0.089825, 0.027420, -0.150246, 0.056301, 0.113879, -0.069585, -0.067237, 0.057521, 0.100939, 0.080977, -0.023071, -0.013847, 0.107286, 0.039912, 0.041120, -0.058106, 0.046767, 0.097475, 0.156230, 0.090908, 0.023190, -0.013340, 0.017420, -0.121895, -0.023211, 0.078178, -0.022667, -0.065277, 0.100219, 0.076279, -0.044912, 0.050632, -0.024590, -0.066556, 0.006773, 0.016954, 0.135626, -0.050628, -0.006304, 0.033797, 0.022215, -0.021672, 0.044420, 0.033842, 0.060697, 0.096900, 0.027625, 0.065852, -0.101597, 0.145449, 0.005934, 0.126393, 0.024209, 0.001745, 0.046092, -0.069060, 0.089529, -0.050196, 0.034614, 0.036928, 0.090783, 0.136132, 0.045078, 0.007944, 0.162749, -0.086815, -0.075548, -0.079630, 0.118740, -0.061495, -0.000881, 0.064503, -0.020698, -0.073514, -0.134764, -0.073817, -0.129563, -0.025815, -0.075418, 0.007372, 0.056058, -0.115479, -0.005292, -0.041301, 0.041575, 0.114988, -0.083483, 0.037506, 0.040939, -0.055171, 0.125221, 0.013223, 0.083154, 0.042984, 0.031948, 0.063600, 0.082848, 0.020378, 0.033445, 0.128901, -0.013520, -0.044693, -0.029626, -0.024399, -0.038907, -0.034102, 0.030564, 0.029128, -0.171358, 0.134316, 0.083195, 0.080361, 0.069629},
{0.035482, 0.103260, 0.080860, -0.001217, 0.088122, -0.060903, 0.149097, -0.022068, 0.005944, 0.013589, 0.080356, -0.089592, -0.006421, 0.058308, 0.022639, 0.053195, -0.031046, 0.014686, 0.010754, 0.041048, 0.079029, 0.006983, -0.016234, 0.044500, 0.095403, 0.011911, -0.061791, 0.026603, 0.110893, -0.025325, -0.075321, 0.152962, 0.051158, 0.042738, 0.089768, -0.008872, -0.032710, -0.040608, -0.064609, 0.002862, 0.045945, 0.051025, -0.012786, 0.090765, 0.058847, 0.009143, 0.011766, 0.081332, -0.146192, 0.060827, 0.029543, 0.091563, 0.067902, -0.040342, 0.016013, -0.051123, -0.099212, -0.038663, -0.020112, -0.066893, 0.071236, 0.141929, -0.030677, -0.069053, 0.047208, -0.032932, 0.181371, -0.004935, -0.118921, 0.162528, -0.118782, -0.047800, -0.054491, -0.045916, 0.090215, -0.041024, 0.014727, 0.014640, 0.146953, 0.123698, 0.048739, -0.046632, -0.036765, 0.105125, 0.024919, 0.146950, 0.003020, -0.047057, -0.066563, -0.163035, 0.044956, -0.057856, -0.045999, -0.097990, -0.080487, -0.054024, 0.066699, -0.011105, -0.068195, -0.020451, 0.004502, 0.031332, 0.049568, 0.173629, -0.056096, 0.121848, 0.062393, 0.013271, 0.103801, 0.028162, 0.168586, 0.064877, 0.159728, -0.084983, 0.129973, -0.027135, 0.028052, -0.064635, -0.062773, -0.100197, -0.030551, -0.023550, -0.075021, -0.000971, 0.176570, 0.132693, 0.145131, -0.031525},
{0.037808, 0.152618, 0.136414, 0.066871, -0.114694, -0.030195, 0.114721, 0.084249, 0.020436, -0.042673, -0.002984, -0.096285, 0.016059, -0.132153, 0.112089, 0.019932, 0.018451, 0.128854, -0.115451, -0.110346, -0.059671, 0.065419, 0.066630, -0.038742, -0.071852, 0.015566, 0.065097, 0.051223, -0.007598, -0.123114, 0.037060, 0.067067, -0.097280, -0.022230, 0.015702, 0.103504, 0.047180, -0.012224, 0.063558, 0.036681, 0.068597, -0.080142, -0.066799, 0.094287, -0.061510, -0.060628, 0.011931, -0.076915, -0.054038, 0.074995, 0.007359, -0.084713, 0.044229, -0.005972, 0.021168, -0.047368, -0.020246, -0.021192, -0.017544, 0.043148, 0.124004, -0.074597, 0.014162, 0.035834, -0.070813, -0.012436, 0.080984, -0.045425, 0.010661, 0.090902, -0.031655, -0.083149, -0.080462, -0.114668, 0.008126, -0.036660, -0.045881, 0.003057, 0.010949, -0.014900, 0.138085, 0.088105, 0.096205, 0.101045, 0.027417, 0.130401, -0.000933, -0.073092, -0.052322, -0.022562, -0.024096, 0.002574, -0.056059, -0.047398, 0.051923, -0.076364, 0.020449, -0.049362, -0.025448, 0.011640, 0.044578, -0.046323, 0.035601, -0.082187, -0.016559, -0.056241, -0.026915, -0.062312, 0.050324, 0.072435, 0.047968, 0.064633, 0.066968, -0.090520, 0.007830, 0.057768, -0.032429, -0.058211, 0.066446, -0.072858, 0.011630, 0.054430, -0.036010, 0.089339, 0.029342, 0.060143, 0.054625, 0.000583},
{-0.005358, -0.040450, -0.048946, -0.041298, 0.026071, 0.041935, 0.063853, 0.024642, -0.021250, -0.051113, 0.012397, -0.033057, -0.013461, -0.087545, 0.084304, 0.023172, -0.029709, -0.058179, -0.004222, 0.043402, 0.069369, 0.008514, 0.039294, -0.005693, 0.052759, -0.003961, -0.069290, -0.084878, 0.080794, 0.013573, -0.070169, 0.012717, 0.028559, 0.067625, 0.026046, 0.067796, 0.021962, 0.040371, 0.038667, -0.018159, 0.079145, -0.039759, -0.032833, 0.052175, -0.052585, 0.038805, 0.067845, 0.000281, 0.075197, -0.001353, -0.053181, -0.085745, 0.062395, 0.018805, -0.015443, -0.077964, -0.001360, -0.079548, -0.058919, 0.039912, -0.041057, -0.066311, -0.040613, 0.041658, -0.075795, -0.036826, 0.015499, -0.034399, -0.055067, 0.015488, -0.063048, 0.026394, 0.021730, -0.056905, 0.075887, -0.007343, 0.065135, 0.056049, 0.046661, 0.067372, -0.058480, -0.008099, 0.074031, -0.051531, 0.073960, -0.049564, -0.028287, -0.023596, 0.050068, -0.029434, 0.072977, -0.038047, -0.030647, -0.010190, 0.078363, -0.027811, 0.062931, -0.047656, -0.079588, -0.066320, -0.017651, -0.015950, 0.051834, 0.025261, 0.032377, -0.051902, 0.041956, -0.082523, -0.060423, -0.072640, -0.004666, -0.052721, -0.070645, 0.013046, 0.059610, -0.036435, 0.023138, 0.053494, -0.005549, -0.014972, 0.036112, -0.070686, -0.064424, 0.059599, 0.008654, 0.103370, 0.054126, -0.034677},
{0.073467, 0.058517, 0.059491, -0.028986, 0.049303, -0.039154, 0.003094, 0.072279, 0.004667, 0.020531, -0.058494, -0.057238, 0.012249, -0.077541, -0.028836, 0.041869, -0.018132, 0.013595, -0.079673, 0.034985, -0.029836, -0.075635, -0.076756, -0.002918, 0.011724, 0.022607, -0.048296, 0.060045, 0.076043, -0.027015, 0.012346, 0.049679, -0.043576, 0.072650, 0.022292, 0.009039, 0.056004, 0.079306, -0.015680, -0.015922, -0.069298, 0.063392, 0.029264, -0.024654, 0.016793, -0.027396, 0.073119, -0.064730, -0.027330, -0.050062, -0.003872, -0.053355, 0.016208, -0.019524, -0.027442, -0.067582, -0.037700, 0.071431, -0.061382, 0.033894, -0.071973, -0.031811, -0.076038, -0.072322, 0.026344, -0.066763, -0.028788, -0.018677, -0.044114, 0.015735, -0.014567, 0.068128, 0.021776, -0.038738, -0.039480, 0.050801, 0.071550, 0.077187, 0.078135, 0.077565, -0.035118, -0.073529, 0.071214, 0.053434, 0.072122, 0.003601, 0.007715, 0.035226, 0.019618, -0.000416, 0.069288, 0.057370, -0.010189, -0.019123, -0.011413, -0.073862, 0.055794, 0.008206, -0.079981, 0.068248, -0.019304, -0.033626, 0.047937, -0.040558, 0.081083, 0.025787, -0.000010, -0.043679, 0.038765, 0.030926, -0.019337, 0.007156, -0.067977, -0.080427, 0.045456, -0.007788, 0.015308, -0.003483, -0.060002, -0.067844, 0.062612, -0.067138, 0.016166, -0.010302, 0.011628, 0.027891, 0.069721, 0.061128},
{0.039960, 0.044481, 0.008389, 0.038076, -0.001195, -0.078621, -0.043673, 0.065155, 0.075293, -0.045958, -0.046774, -0.031825, -0.006836, 0.014138, -0.072935, -0.030920, 0.039120, 0.038230, -0.040621, -0.058088, -0.004915, 0.076438, 0.022766, 0.012735, -0.021866, -0.048731, -0.030855, 0.006873, 0.055755, -0.046153, 0.039791, -0.061885, -0.068686, 0.055596, 0.077510, -0.016524, -0.055811, -0.048682, 0.021627, 0.042721, 0.056784, -0.000419, 0.042522, 0.050059, -0.066854, 0.006508, 0.041416, -0.057386, 0.076681, -0.006420, -0.004932, -0.066626, -0.018485, 0.072538, 0.065603, 0.046364, -0.025108, 0.044764, -0.041972, 0.030963, -0.037980, 0.023002, -0.054215, 0.025624, 0.074268, -0.069044, -0.058744, 0.075355, -0.078592, 0.053108, -0.016926, 0.020680, -0.020820, -0.068388, -0.035631, 0.068451, -0.014571, 0.034249, 0.019585, -0.030692, 0.046960, 0.026818, -0.036806, 0.070826, 0.053409, 0.018362, -0.077029, -0.058592, 0.046805, -0.002077, 0.058868, -0.015343, -0.069014, 0.076817, -0.069940, -0.068338, 0.079786, 0.070391, 0.031084, 0.000738, 0.027060, -0.060726, -0.035193, 0.075050, 0.066338, 0.005776, 0.016056, -0.019114, 0.013307, -0.072104, -0.009706, -0.005189, 0.028204, 0.071223, -0.061874, 0.024719, -0.002303, 0.073191, -0.036623, 0.008854, 0.048002, -0.080139, -0.022830, -0.010665, 0.049303, -0.071386, 0.003120, -0.024004},
{0.062112, 0.006338, -0.010890, -0.044568, -0.029245, 0.057568, 0.014078, 0.068964, 0.076901, 0.037475, -0.075637, 0.059186, -0.052884, -0.044355, 0.066047, -0.043523, 0.051711, -0.052197, -0.080872, -0.057809, -0.008034, 0.001877, 0.015118, -0.066786, -0.057663, 0.015549, 0.005929, -0.066838, 0.009251, 0.068813, -0.061062, 0.067413, -0.015540, 0.028782, 0.023211, -0.052987, 0.022895, 0.055517, 0.059083, 0.062973, -0.032735, 0.016894, 0.033109, -0.053997, -0.026900, 0.063494, -0.024037, 0.043709, -0.010564, 0.070498, -0.068583, -0.014805, 0.004897, -0.056231, 0.010882, 0.073734, -0.015123, -0.030845, 0.025680, -0.025522, -0.005688, -0.064611, -0.060815, 0.046277, -0.071470, 0.040446, 0.069555, 0.050448, 0.015199, -0.078575, 0.017644, -0.021070, 0.022970, -0.020004, -0.062879, -0.058895, 0.030686, 0.076657, 0.048904, -0.063610, -0.028855, -0.009137, 0.005144, 0.014184, 0.038887, 0.080969, 0.014219, 0.026528, 0.077894, -0.039093, 0.022141, 0.053288, -0.065119, -0.054013, 0.031711, -0.014144, -0.003417, 0.029402, 0.016244, 0.079166, -0.014503, 0.016361, 0.060192, 0.033923, -0.066975, -0.011226, 0.066783, -0.006254, 0.024987, -0.079268, 0.067487, 0.029160, 0.047086, -0.012446, 0.068350, -0.053815, 0.006181, 0.040476, -0.025041, 0.031024, 0.016271, -0.010837, -0.064167, -0.007757, -0.018139, -0.020751, -0.062194, 0.034459},
{-0.014793, 0.048639, 0.028860, 0.060655, 0.075068, -0.066140, -0.045164, 0.037203, -0.030172, 0.058193, -0.061870, 0.004533, -0.072456, 0.028528, 0.051448, -0.034387, 0.077251, 0.057598, 0.062838, -0.032421, 0.025734, -0.012956, -0.021262, 0.049123, 0.053162, 0.066165, -0.061153, 0.023979, -0.015656, 0.014626, -0.068982, 0.047848, -0.020123, -0.047177, -0.002863, -0.002358, 0.028206, -0.072624, -0.007969, -0.045791, 0.066373, -0.015945, 0.039845, -0.052936, -0.055661, -0.018905, -0.020725, -0.032817, -0.017583, -0.061173, -0.044499, -0.000430, -0.030038, 0.055290, 0.059311, -0.064490, 0.055294, -0.031247, 0.067301, -0.061291, 0.013949, -0.006790, -0.051175, 0.004841, -0.022574, 0.001492, -0.002416, 0.034008, 0.047708, -0.014695, -0.032706, 0.029525, -0.054392, 0.010203, 0.065771, 0.065437, -0.015712, 0.038809, 0.032443, 0.019819, -0.043209, -0.067387, -0.073058, -0.061729, 0.008465, 0.043208, -0.067393, 0.032563, 0.049373, -0.058284, 0.020771, -0.031912, 0.005041, 0.037107, 0.006042, 0.017787, 0.030567, -0.080379, -0.064346, 0.009384, -0.026893, -0.060016, 0.078952, 0.016877, -0.006633, -0.054968, 0.048439, -0.044585, 0.048515, 0.019125, -0.007505, 0.042698, 0.041651, 0.022488, 0.042011, 0.024679, -0.074497, -0.028098, -0.004013, -0.014830, 0.039655, -0.039688, -0.049563, -0.037384, -0.065755, -0.015063, 0.052229, -0.069360},
{-0.000902, 0.075399, 0.031975, 0.008381, 0.013730, -0.071383, 0.057287, 0.013428, 0.038185, -0.029110, 0.027121, 0.045524, 0.016104, 0.005217, 0.077175, -0.046708, 0.006908, 0.010677, 0.080228, -0.063673, -0.010659, 0.078224, 0.077268, 0.003951, -0.071242, -0.029582, -0.031317, 0.063893, -0.049852, 0.044741, 0.051384, 0.044796, 0.013613, 0.080576, -0.035653, -0.038732, -0.001432, 0.038631, 0.033153, 0.022979, -0.039289, -0.010883, -0.004583, -0.067080, 0.067342, -0.076508, -0.061400, -0.080025, -0.042009, -0.054899, -0.010877, -0.037607, -0.038467, -0.062676, 0.071210, 0.015763, 0.043126, -0.071454, 0.038679, -0.029511, -0.052271, -0.068699, -0.049804, 0.014414, -0.024074, -0.020713, 0.006771, -0.026890, -0.057634, -0.039064, 0.042597, 0.005642, 0.026546, 0.005351, -0.026919, 0.051030, -0.010148, -0.073907, 0.021927, 0.065514, -0.006209, 0.044831, 0.009567, -0.036570, -0.019590, -0.080264, 0.044731, 0.040893, 0.062374, 0.010765, -0.050045, -0.012710, 0.011947, 0.023269, -0.005258, -0.046087, -0.068127, 0.079831, 0.061782, 0.023103, -0.051142, -0.041262, -0.068073, -0.064282, -0.000829, -0.077801, 0.056395, -0.059631, 0.064562, 0.052351, 0.077777, -0.076097, 0.034378, 0.009338, 0.024478, -0.069065, -0.011231, -0.010575, -0.059049, -0.049984, 0.080950, -0.076382, 0.029488, 0.071570, -0.077224, -0.059012, 0.054138, -0.056979},
{-0.036349, 0.067825, 0.069650, -0.067098, -0.071320, 0.072417, -0.001245, -0.008051, -0.052978, -0.004661, 0.045664, 0.006519, -0.075779, -0.030805, -0.066002, 0.001637, 0.073999, -0.072368, -0.026248, 0.048771, 0.025035, 0.077583, -0.035359, -0.012637, 0.077310, 0.064615, 0.064727, 0.074000, -0.018717, -0.041792, -0.067860, 0.074672, 0.013781, 0.023457, -0.078592, -0.038587, -0.062253, -0.079524, -0.008126, 0.053971, 0.017209, -0.014783, 0.071767, 0.004399, 0.026916, 0.029117, 0.063061, 0.057120, 0.003970, 0.047256, -0.070789, -0.026409, -0.046069, -0.080329, 0.048724, -0.063810, 0.070763, -0.006109, -0.051957, 0.032132, -0.056740, 0.076658, 0.025066, 0.049993, -0.033367, -0.048028, -0.034090, 0.046844, 0.074249, -0.052938, -0.060526, 0.039124, -0.021724, -0.042977, 0.061112, -0.032831, 0.035930, 0.076797, -0.059949, 0.056331, 0.038891, -0.038156, 0.028239, -0.001919, 0.062736, 0.020691, -0.016974, 0.013264, 0.024019, -0.061824, -0.006787, -0.036699, -0.074497, -0.030701, 0.022305, 0.017129, -0.020037, -0.008683, -0.018974, 0.023658, 0.075544, -0.077524, -0.004291, -0.039058, 0.076599, 0.006105, -0.033252, 0.049799, 0.055199, 0.036849, 0.053518, -0.008920, -0.067487, 0.000544, 0.028472, 0.080603, -0.073121, 0.016591, -0.029884, 0.043318, -0.059132, -0.058888, -0.026343, 0.022183, -0.076498, 0.070314, 0.070877, 0.057877},
{0.057027, 0.002581, -0.070703, 0.022901, 0.043554, -0.031218, 0.057433, -0.008030, -0.024663, -0.059220, -0.050212, 0.056986, 0.069593, -0.052694, -0.015978, 0.001369, 0.026942, 0.070888, 0.072134, -0.012676, 0.028288, 0.001177, -0.016054, -0.062619, -0.006760, 0.002951, 0.072167, 0.056697, 0.027898, 0.008260, -0.027026, 0.012124, 0.037659, -0.026974, 0.023384, -0.057134, -0.073452, -0.036729, -0.001282, -0.034453, -0.066819, -0.028307, 0.054424, 0.078522, -0.070878, -0.057376, 0.027069, 0.048751, -0.040641, 0.041412, 0.015110, 0.040971, 0.069385, -0.026627, -0.039400, 0.020785, -0.029534, -0.013872, -0.009259, -0.071062, 0.013429, -0.015034, -0.034233, -0.058154, 0.050247, 0.059152, -0.021698, -0.067936, 0.032080, -0.025990, 0.052905, -0.073380, 0.051544, -0.032282, 0.032804, 0.026603, -0.044513, 0.008703, 0.041349, -0.021936, -0.061833, -0.009880, 0.076928, -0.023511, -0.076625, 0.074323, -0.037308, 0.030835, 0.056479, -0.045132, -0.049262, -0.076540, 0.002055, -0.066909, -0.010240, -0.065882, -0.070191, -0.076746, 0.012977, 0.046796, -0.029682, 0.000284, -0.013250, 0.024731, 0.077232, -0.070197, 0.069566, 0.050829, -0.058250, -0.073785, -0.070705, 0.044930, 0.081086, -0.019979, -0.079890, 0.006632, 0.005002, -0.034553, -0.022261, 0.064844, -0.058312, -0.026384, -0.048428, 0.055313, 0.059811, 0.051017, -0.075609, -0.058320},
{0.009097, 0.075909, -0.033385, 0.013434, -0.012040, -0.069225, -0.043605, -0.032048, 0.017139, -0.071642, -0.067618, 0.064258, 0.061815, -0.073151, -0.016331, -0.016889, 0.025442, -0.016434, -0.026925, -0.039486, 0.044192, 0.014120, 0.052420, 0.064542, -0.006128, -0.024225, -0.003022, 0.008815, 0.020337, 0.043473, -0.043278, 0.068869, -0.004785, -0.053833, -0.012136, 0.079770, -0.002814, 0.040791, -0.032510, 0.024979, 0.068509, 0.056896, 0.052120, -0.048534, -0.033706, -0.060965, 0.072597, 0.010759, 0.050937, -0.041715, -0.026849, 0.021498, -0.009649, 0.006844, 0.020080, 0.023746, 0.064571, 0.042225, 0.076531, 0.071371, -0.062874, 0.063205, -0.080519, -0.019998, -0.022253, 0.075164, 0.030720, -0.059961, -0.006682, -0.020354, -0.043606, 0.040234, -0.000531, 0.053744, -0.009800, -0.063320, 0.003208, 0.001716, -0.075055, 0.038482, 0.043757, -0.063149, 0.038158, 0.029846, 0.020407, -0.023912, 0.036707, -0.035483, 0.019809, -0.051750, -0.057449, -0.027427, 0.020706, -0.055857, -0.016346, -0.023246, 0.026760, 0.058363, -0.028671, -0.007268, 0.044307, -0.065140, 0.039911, 0.066436, 0.062613, 0.037227, -0.028443, 0.076982, 0.043231, -0.021681, -0.061947, -0.038007, 0.022598, -0.050716, 0.041658, -0.041532, 0.070022, 0.033873, -0.076314, 0.037656, 0.014174, -0.026912, -0.000477, 0.079094, -0.001910, -0.012621, 0.044531, 0.075925},
{-0.076433, 0.080103, 0.028853, -0.040155, 0.002809, -0.033760, 0.043773, 0.045734, -0.018878, 0.000737, -0.035538, -0.075059, -0.055340, 0.049226, -0.066724, -0.061793, 0.062274, 0.027288, -0.047427, 0.008780, -0.032462, 0.050330, 0.016959, 0.049743, 0.052070, -0.047525, -0.031549, 0.004367, 0.046156, 0.030459, 0.034089, 0.080884, -0.036191, -0.012766, 0.043719, -0.013981, -0.009223, -0.032765, 0.015545, -0.016401, 0.038599, -0.008933, -0.073728, 0.043386, -0.062241, -0.041977, 0.020906, -0.044264, -0.056592, 0.065187, -0.078659, -0.023802, 0.079861, -0.048589, 0.056843, -0.028605, 0.021258, -0.061424, -0.062701, 0.005533, 0.067682, 0.016068, -0.020924, 0.049626, 0.057720, 0.065744, -0.051386, 0.003151, 0.016463, -0.060247, -0.059305, 0.079739, -0.039861, 0.047531, 0.040338, 0.035727, 0.028289, 0.065820, -0.040296, 0.021509, 0.042520, 0.057453, -0.066806, 0.025563, -0.077785, -0.014956, 0.059660, -0.078467, -0.053403, 0.042483, -0.077638, -0.065442, -0.046918, 0.003302, -0.012631, -0.048836, 0.043717, 0.010769, 0.078566, 0.011298, -0.014202, 0.018011, -0.017783, 0.025103, 0.068889, -0.050299, -0.043598, -0.069202, -0.009554, -0.048043, 0.017819, 0.042261, -0.057527, -0.046962, 0.071712, 0.030858, -0.020951, -0.031089, -0.049395, 0.047400, -0.039773, 0.004249, -0.040900, 0.059659, -0.057528, -0.039325, 0.033575, 0.020921},
{0.052768, -0.066318, -0.008299, 0.016621, 0.005725, 0.078336, 0.059669, -0.024935, 0.077708, -0.055118, -0.010174, -0.033471, -0.044346, 0.072165, -0.025970, -0.025730, 0.018653, -0.069019, -0.018483, -0.006013, 0.013789, 0.048175, -0.028606, -0.075727, 0.033457, 0.077507, 0.058477, -0.051170, 0.042543, -0.069567, -0.071477, 0.052645, -0.029345, 0.073857, 0.000713, 0.024183, 0.036904, -0.062152, -0.057249, 0.080710, -0.012787, 0.012158, -0.009484, -0.025998, -0.030181, 0.044566, 0.077753, 0.076776, 0.004887, 0.049019, 0.049118, 0.006117, 0.021019, -0.065554, 0.063684, -0.065521, -0.046277, -0.055061, 0.015432, 0.016657, 0.080472, -0.033778, -0.064869, 0.067261, 0.021330, 0.016829, -0.014343, -0.063330, 0.046139, 0.013241, 0.002547, 0.037808, -0.039569, 0.008093, -0.055379, -0.076493, 0.013739, 0.050480, 0.078825, 0.002395, 0.019128, 0.036155, 0.021694, -0.072035, -0.034832, 0.073183, -0.078334, 0.014703, -0.056656, 0.036488, -0.064793, -0.053397, 0.015543, 0.022872, 0.043944, 0.018928, 0.032514, 0.048384, -0.044570, 0.015588, 0.059222, -0.035308, 0.029652, 0.080370, 0.069567, -0.071207, -0.032836, 0.048747, -0.016287, -0.042649, 0.021249, -0.039558, 0.069514, -0.044313, 0.043153, 0.033744, -0.012103, 0.075304, -0.050550, 0.078094, -0.073014, 0.010052, 0.043134, -0.029312, 0.002975, 0.070908, -0.038092, -0.055616},
{-0.013548, -0.054946, -0.071975, 0.055625, -0.038003, -0.022383, -0.055449, -0.014133, 0.032539, 0.077933, -0.008632, 0.032575, 0.015455, -0.037711, -0.005330, 0.065444, -0.046342, 0.001964, 0.047181, 0.055593, 0.078437, -0.003570, 0.074419, 0.079064, 0.005851, 0.080409, 0.079784, 0.062184, 0.006831, -0.069301, 0.076772, 0.014780, -0.080185, 0.003713, -0.016634, -0.072687, -0.055023, 0.034326, -0.034422, -0.000974, -0.019097, 0.074058, -0.016084, -0.077437, 0.056328, -0.018638, -0.053161, -0.067635, 0.045918, 0.073163, -0.004121, 0.015328, -0.053656, -0.021514, -0.018814, -0.025415, 0.048636, 0.034748, 0.020057, 0.008762, -0.031578, -0.064845, 0.017805, -0.013479, -0.025037, -0.000335, -0.022340, 0.073223, 0.009307, -0.012425, 0.048625, 0.010561, -0.012928, -0.064875, -0.074084, 0.076120, 0.012916, -0.076546, -0.075922, -0.062931, 0.060814, -0.053052, 0.020578, 0.044307, 0.059150, 0.041459, -0.069313, -0.052730, -0.035979, -0.000888, 0.070543, 0.057428, 0.071816, -0.037908, 0.020272, 0.001382, 0.052411, 0.046540, -0.005262, 0.043074, -0.064291, 0.048365, -0.033563, 0.061549, 0.060526, -0.059811, 0.038591, 0.010025, -0.035548, 0.018092, -0.041224, -0.000765, -0.007821, 0.052589, -0.049156, 0.027326, 0.044124, -0.022302, -0.007675, 0.053904, 0.062358, -0.027102, -0.002944, 0.009370, 0.028507, -0.030150, 0.066447, 0.070987},
{0.004546, 0.014463, -0.003278, -0.078628, 0.027365, -0.078267, -0.015901, -0.043046, -0.043398, 0.045152, -0.024260, -0.022959, 0.078488, -0.008792, 0.059455, 0.067589, 0.026173, -0.035021, 0.011090, -0.015164, -0.053675, 0.029285, -0.027788, 0.025847, -0.031179, -0.054629, -0.014811, -0.023165, -0.022718, 0.020740, 0.065499, 0.008407, 0.050432, -0.039941, -0.068264, -0.049955, 0.070372, 0.076022, 0.045763, -0.016744, -0.007187, -0.052313, -0.045154, -0.006326, -0.038758, -0.076720, -0.056532, -0.076597, 0.000199, -0.042052, 0.015655, -0.020874, -0.054498, 0.014226, -0.055531, -0.043298, 0.069860, -0.069431, -0.010564, -0.061146, 0.000226, -0.026142, 0.072437, -0.025047, 0.019467, 0.025110, -0.039507, -0.058429, -0.076413, 0.057118, -0.071905, 0.001126, 0.043651, -0.065708, -0.052439, -0.049343, -0.071264, 0.056612, 0.010965, -0.044537, 0.045553, -0.028554, -0.021411, 0.029941, -0.005157, 0.062669, -0.000715, -0.015255, 0.080152, 0.002483, -0.003153, -0.049868, -0.057862, 0.068648, -0.077761, -0.027102, 0.057361, 0.007183, 0.067122, -0.028551, 0.038160, 0.020535, -0.064338, -0.046438, -0.005713, 0.053627, -0.030636, -0.071765, 0.071696, -0.036677, -0.010250, 0.080164, 0.024372, 0.032612, 0.071581, -0.032480, -0.059500, 0.051495, 0.007410, -0.067146, 0.078269, -0.018271, 0.022979, 0.043475, 0.079842, 0.027329, 0.059071, -0.014864},
{-0.063385, 0.069622, 0.043936, 0.070520, -0.019358, -0.029531, -0.052399, -0.041045, 0.052783, 0.039255, -0.072390, -0.056720, 0.065909, -0.076301, 0.018703, 0.052378, 0.064305, -0.033996, 0.051202, 0.039972, -0.030967, 0.042222, 0.018639, 0.061288, 0.060524, -0.077426, 0.077325, -0.046143, 0.011961, 0.053574, 0.056285, 0.067862, -0.035837, 0.074415, 0.008370, 0.035038, -0.009323, -0.008074, -0.047176, 0.040381, -0.023984, 0.003793, -0.022975, 0.022557, 0.060954, 0.041499, -0.059768, -0.016461, 0.033824, -0.054142, -0.065006, 0.039562, 0.017556, 0.055025, -0.016188, 0.076076, -0.052762, -0.015851, -0.076271, 0.061397, 0.038543, -0.061049, 0.013550, 0.058917, 0.035265, 0.066049, -0.012288, -0.063636, -0.014669, 0.080086, 0.029320, 0.053118, 0.073405, 0.038754, 0.026904, -0.055902, -0.051464, 0.076299, -0.055013, -0.014416, -0.017089, -0.063452, -0.019088, 0.065982, 0.013900, 0.035265, 0.063235, -0.007133, -0.002878, 0.046649, -0.023502, 0.067672, -0.050094, -0.080633, 0.025752, 0.011180, 0.001944, 0.011002, -0.079339, -0.011597, 0.000587, -0.068906, 0.071872, -0.053304, -0.022095, -0.025987, -0.065757, -0.063126, -0.004151, 0.009919, 0.028757, 0.027884, 0.076178, -0.068297, -0.048066, -0.071605, -0.075823, -0.066717, -0.040591, 0.020577, 0.027136, 0.074957, 0.049885, -0.019138, 0.039787, -0.021711, 0.061007, 0.018440},
{0.012318, 0.019817, -0.038707, 0.004318, 0.013082, -0.061700, -0.009163, -0.073671, 0.075520, -0.034923, -0.004424, 0.050762, 0.029106, -0.056098, -0.053685, -0.054793, -0.049732, -0.052432, 0.075523, 0.019067, -0.011826, -0.068646, -0.051392, -0.050277, -0.051634, -0.074244, -0.027933, -0.025907, -0.059734, -0.025129, 0.008578, 0.026317, 0.050597, 0.069069, -0.007006, 0.008585, -0.024841, 0.016372, -0.063449, -0.048027, 0.079066, -0.044165, 0.078104, 0.022343, -0.032933, 0.068175, -0.074479, 0.033829, -0.018957, 0.066848, 0.030688, -0.050034, 0.018340, 0.020451, 0.009666, 0.012713, 0.006497, 0.011332, -0.016919, -0.072478, -0.073013, 0.055780, 0.023369, -0.009584, -0.055356, -0.040970, -0.034357, 0.015004, -0.028697, -0.076202, 0.065827, 0.038564, -0.068665, 0.050941, -0.002115, 0.064254, -0.059440, -0.078585, 0.031239, 0.080160, 0.051548, -0.004345, 0.011408, 0.037599, -0.032608, -0.039694, 0.050013, 0.028588, 0.040668, 0.030297, -0.049224, 0.070339, 0.074042, -0.073968, -0.076130, 0.012517, 0.012657, 0.079483, -0.004736, 0.079627, -0.046844, 0.046623, 0.037061, -0.068631, 0.016236, 0.018609, 0.014940, -0.029528, -0.019518, 0.049993, -0.051802, 0.078599, -0.054383, -0.054725, 0.045315, -0.016383, 0.012915, -0.079343, 0.071039, 0.046237, -0.033711, 0.005872, 0.014566, 0.056108, 0.080388, 0.075117, -0.063498, -0.029156},
{-0.002318, -0.073111, 0.045418, 0.036057, -0.042768, -0.041755, -0.070332, 0.032064, 0.057488, -0.019980, -0.032801, 0.042826, -0.058495, -0.009210, -0.006875, 0.006163, -0.077120, 0.026752, -0.075490, -0.054584, 0.053126, -0.072199, 0.056125, 0.002030, -0.060832, 0.067512, 0.018221, -0.078488, -0.033709, 0.018492, 0.054187, 0.045083, 0.065186, -0.002942, -0.010468, -0.012467, 0.057173, 0.030584, -0.024999, -0.017238, 0.015148, 0.015262, -0.070688, 0.028086, 0.011973, -0.015944, 0.009662, 0.053322, -0.049212, -0.011551, -0.005493, -0.035016, 0.069395, 0.003725, 0.049471, -0.008087, -0.028856, -0.079506, -0.070193, 0.002018, -0.001070, -0.044226, -0.074708, 0.072097, 0.037347, 0.068786, -0.005494, -0.053737, -0.078513, -0.003096, 0.006875, 0.069296, 0.027303, 0.032584, -0.042920, 0.028170, 0.055588, 0.077184, 0.029086, -0.020088, 0.010280, 0.021042, 0.080296, 0.057999, -0.041297, 0.019729, -0.056368, 0.037312, -0.070709, 0.064024, -0.026949, -0.041020, -0.030738, 0.025890, -0.021402, -0.017884, -0.047129, -0.045545, -0.073956, 0.056423, 0.071253, -0.013937, -0.007473, -0.048336, 0.005329, -0.023434, 0.068960, -0.075152, -0.057786, -0.065240, -0.004362, -0.048893, 0.057764, -0.001764, -0.067558, 0.067734, -0.078546, 0.070860, -0.017641, -0.029444, -0.054911, 0.040172, -0.038288, 0.022389, 0.030325, 0.057335, 0.022634, -0.042978},
{0.012583, -0.070577, -0.015670, -0.023864, -0.007378, 0.047278, 0.078797, 0.069160, 0.006794, 0.026731, 0.044143, 0.000528, -0.058077, 0.076688, -0.013657, -0.013648, -0.053007, -0.034776, 0.069893, -0.066199, 0.031757, -0.021942, -0.028190, -0.038660, -0.072504, 0.061722, 0.060388, -0.013173, 0.024204, 0.043325, -0.004579, -0.044522, 0.022413, 0.056180, 0.058393, -0.015739, 0.057950, -0.051684, 0.077347, 0.004755, -0.026875, 0.046636, 0.045209, 0.036725, -0.040059, -0.025809, -0.059519, -0.042245, 0.022661, 0.068757, 0.003655, -0.068011, -0.014079, -0.063458, -0.017551, 0.073552, -0.068706, 0.063346, -0.014925, 0.023229, -0.051412, -0.040164, 0.028819, 0.039982, -0.032447, 0.011546, 0.031442, 0.019598, -0.056881, 0.069338, -0.044093, -0.008879, -0.003285, -0.057513, 0.006018, 0.063145, 0.039578, -0.023099, -0.023961, 0.050964, 0.012951, -0.052658, 0.046048, -0.010196, 0.030235, -0.043910, 0.042675, 0.033517, 0.073009, 0.080708, -0.012786, 0.044395, 0.020566, -0.010194, 0.011532, 0.010131, -0.015805, -0.069342, 0.007478, -0.009686, -0.073950, 0.023990, -0.043366, 0.057613, 0.053578, -0.048379, 0.065419, -0.000788, 0.042083, -0.023691, -0.009235, -0.048331, -0.043759, 0.032103, 0.077254, -0.036549, 0.028455, 0.079446, -0.038514, -0.000316, -0.075094, -0.008495, 0.077905, 0.038941, -0.010198, -0.009167, 0.030425, 0.027812},
{-0.044865, -0.028647, -0.054375, -0.057223, 0.070686, 0.014668, -0.031493, 0.021100, -0.036917, -0.075018, 0.063402, 0.077432, 0.007480, -0.052899, -0.024912, 0.067504, -0.065321, 0.051729, 0.000639, -0.053002, 0.065298, 0.003210, 0.021121, 0.001809, 0.054949, 0.062127, -0.045474, -0.030805, 0.068043, -0.071779, -0.009618, -0.016673, -0.032108, -0.070835, -0.066599, 0.026634, -0.010939, 0.072632, 0.021656, -0.045835, -0.023017, -0.064679, 0.019165, 0.032773, 0.065693, -0.044636, 0.039446, -0.065301, 0.009661, 0.013395, -0.066041, 0.032202, -0.029368, -0.015830, -0.011348, 0.015657, -0.033179, 0.054331, 0.046953, 0.000882, -0.055132, -0.015650, 0.004127, 0.053170, -0.043101, 0.028028, -0.036107, 0.061336, -0.010046, 0.024332, -0.060840, -0.043931, -0.073147, -0.078839, 0.019500, -0.035334, 0.039287, 0.011986, 0.039409, -0.065320, -0.004167, -0.040506, 0.036842, 0.013410, -0.045772, -0.050431, 0.058908, 0.082532, 0.067046, -0.031685, 0.037795, 0.034609, 0.072290, 0.019310, -0.037410, -0.007059, -0.053091, 0.071396, -0.034643, 0.062746, -0.067270, -0.058770, 0.062077, 0.006849, 0.033422, 0.052070, -0.027400, 0.021003, -0.052137, -0.028208, 0.077602, 0.018412, 0.038168, 0.073660, 0.047183, 0.023144, 0.074001, 0.011517, 0.035018, -0.027379, -0.083017, 0.079201, 0.064121, 0.015661, -0.015740, 0.012022, 0.057147, -0.063162},
{0.091781, 0.014507, 0.061751, 0.086706, -0.072920, -0.077429, -0.020665, -0.003081, -0.074534, -0.057676, -0.022276, -0.009276, 0.008496, -0.018386, 0.077652, 0.094248, 0.071269, -0.077607, -0.013511, -0.052591, -0.093170, 0.010803, -0.080128, 0.002562, 0.009283, -0.005778, -0.076058, 0.000594, 0.015452, -0.060375, 0.006183, 0.105053, 0.002342, 0.060088, -0.028719, -0.046971, -0.049263, 0.022143, -0.037797, 0.053783, 0.054629, 0.007735, -0.020157, 0.031541, 0.029639, -0.001733, -0.051134, 0.092489, -0.076409, 0.062622, 0.000275, -0.015703, 0.015929, -0.057857, 0.070209, -0.031865, 0.025718, -0.021887, -0.111148, -0.043149, 0.015536, 0.052709, -0.004846, 0.059225, 0.058302, -0.068935, -0.004472, 0.007515, 0.072027, -0.033817, -0.073452, 0.081345, 0.071982, 0.014017, 0.018446, 0.020149, 0.065248, -0.032617, -0.045518, 0.061261, 0.037588, -0.014389, -0.001850, -0.004965, 0.034976, 0.051677, -0.054381, 0.015016, 0.052780, -0.031063, -0.070223, -0.072058, -0.085706, -0.024157, 0.034155, 0.037239, 0.027075, -0.079180, 0.073143, 0.044546, 0.016525, -0.059842, 0.047328, 0.021692, 0.014596, 0.074922, -0.030033, 0.074959, 0.037965, -0.030082, 0.053977, -0.026141, 0.079983, 0.010180, 0.066194, 0.100488, -0.052242, 0.032875, -0.004311, -0.046838, -0.087693, -0.084226, -0.064762, -0.023247, 0.042912, 0.069053, 0.078210, 0.000053},
{0.027058, -0.049730, 0.139127, -0.010100, -0.121967, -0.038956, 0.103607, 0.023097, 0.006806, 0.045196, 0.047932, 0.006538, 0.009482, 0.060743, -0.014402, -0.033721, -0.001813, -0.119962, -0.020532, 0.153973, -0.028377, 0.016979, 0.033082, 0.014480, 0.030481, -0.079838, -0.147058, 0.091230, -0.056597, 0.018200, 0.001837, 0.077222, -0.065837, 0.115076, 0.082852, -0.018588, 0.004238, 0.007189, -0.101339, -0.054392, 0.032026, 0.051743, -0.081507, 0.103005, 0.045344, 0.023943, 0.026397, 0.096399, -0.149706, 0.025316, -0.015018, 0.030880, -0.044530, -0.058901, 0.027620, 0.010121, -0.094957, -0.085253, -0.012376, 0.035526, 0.129303, 0.066408, -0.073551, -0.098833, -0.071699, 0.024879, -0.012155, 0.001583, -0.028427, 0.138339, -0.099449, -0.008973, -0.036620, -0.054792, 0.151541, 0.169214, 0.136427, 0.032306, -0.028594, 0.001035, -0.142012, 0.003601, 0.091243, 0.056980, 0.003940, -0.053295, -0.123615, -0.033694, -0.040580, -0.142625, 0.041315, -0.085176, 0.016316, -0.052025, -0.027551, -0.031051, 0.150070, 0.063601, 0.015225, -0.068580, 0.185984, -0.109422, 0.231712, 0.012714, -0.061299, 0.017626, 0.055196, 0.114570, 0.078561, -0.032492, 0.053918, 0.049262, 0.150875, 0.000286, 0.135231, 0.090346, 0.041168, 0.025319, -0.004896, 0.065383, -0.090824, -0.109784, -0.110364, -0.031235, 0.121689, -0.040084, 0.088696, -0.088050},
{0.013391, -0.038276, 0.143370, 0.057066, -0.055806, 0.044563, 0.143850, 0.020169, -0.055963, -0.070866, 0.073608, 0.022361, 0.012677, 0.169312, 0.005075, 0.030988, -0.033124, -0.165186, -0.142070, 0.088892, -0.036257, -0.056522, -0.071957, -0.020874, 0.006611, 0.062625, -0.097689, 0.098633, -0.026055, -0.004965, -0.022337, 0.045957, -0.117869, 0.036674, 0.147939, 0.047535, 0.022496, -0.021038, -0.160182, -0.053483, 0.008351, -0.022494, -0.073992, 0.054677, 0.175891, 0.035293, -0.021537, 0.157881, -0.051537, 0.036952, 0.090540, 0.011832, 0.056029, -0.030020, -0.023971, -0.074587, -0.103023, -0.102448, -0.118214, 0.011622, 0.028079, 0.059166, -0.013986, -0.050122, -0.032973, -0.072214, 0.080337, 0.078058, -0.101777, 0.167842, -0.032101, -0.102087, -0.028915, -0.018663, 0.200283, 0.157966, 0.173377, -0.000885, 0.099899, 0.079654, -0.106749, 0.071965, 0.065025, 0.153023, 0.005338, -0.007356, -0.000609, 0.075601, -0.174305, -0.123702, 0.014672, -0.062635, -0.037078, -0.112600, -0.136020, 0.103254, 0.087374, -0.019415, 0.056708, -0.050503, 0.111824, -0.092475, 0.130333, 0.069351, -0.033324, 0.092994, 0.013638, 0.006982, 0.150453, 0.034910, 0.164505, 0.035230, 0.098567, -0.080051, 0.055021, 0.093400, -0.075492, -0.028499, 0.081667, -0.054204, -0.075508, -0.016045, -0.166412, -0.069590, 0.121495, 0.034712, 0.183416, -0.047479},
{0.021127, 0.028332, 0.141011, 0.045023, 0.048918, -0.009363, 0.107975, 0.028956, 0.018369, -0.055705, 0.152625, -0.080562, -0.090902, 0.066488, 0.006737, 0.125468, -0.078159, -0.125127, -0.097059, 0.190140, 0.012178, 0.020989, -0.145515, -0.052282, 0.063287, 0.110111, -0.150153, 0.075130, 0.004948, -0.031892, 0.021242, 0.057486, -0.015089, 0.068662, 0.164203, -0.079078, 0.031832, -0.037479, -0.156707, -0.049564, -0.049870, -0.020941, -0.027922, 0.081080, 0.204289, -0.015722, 0.148358, 0.124665, -0.195558, 0.068727, 0.102481, -0.055454, 0.044380, 0.042964, 0.076986, -0.001130, -0.069291, -0.062132, -0.153767, -0.010519, 0.124488, -0.074809, -0.087221, -0.017478, -0.090532, -0.111260, 0.120742, 0.002226, -0.063165, 0.188469, -0.134051, 0.052117, 0.050439, -0.131737, 0.276114, -0.039482, 0.074359, 0.102585, 0.048025, 0.071520, -0.003734, -0.008127, 0.165322, 0.102979, -0.040701, -0.010480, -0.073888, 0.007811, -0.144781, -0.116685, -0.068053, -0.015328, -0.076149, 0.023653, -0.023416, 0.089344, 0.062787, 0.073845, 0.096509, 0.010778, 0.277981, -0.115391, 0.185579, 0.124775, -0.148303, 0.053710, 0.093443, 0.147632, 0.027040, 0.043583, 0.089333, 0.156431, 0.137138, -0.002392, 0.064365, 0.065164, -0.077836, 0.088666, 0.113505, -0.108448, -0.022905, 0.001707, -0.037913, 0.026664, 0.070979, 0.026278, 0.105470, -0.051974},
{0.028402, 0.077188, 0.207892, 0.202945, 0.121513, 0.028494, 0.017862, 0.105160, -0.040414, -0.000991, 0.239737, -0.020665, -0.060597, 0.082941, 0.089598, 0.016634, 0.056775, -0.050253, -0.087793, 0.121642, -0.015960, -0.051529, -0.117420, 0.113364, -0.001463, 0.088994, -0.072326, 0.117425, 0.038255, -0.141158, -0.064987, 0.155262, -0.123436, 0.144440, 0.122024, -0.067827, -0.009802, 0.068289, -0.066285, -0.015819, 0.011472, 0.042346, -0.066510, 0.051095, 0.073490, 0.079968, -0.059848, 0.139813, -0.181150, 0.087610, -0.017972, 0.187630, 0.031280, 0.106446, 0.041374, -0.066417, -0.205782, -0.068343, -0.145366, 0.010937, 0.172993, -0.073926, 0.012110, -0.029774, 0.127210, -0.074896, 0.095583, 0.031029, 0.037446, 0.198072, -0.146937, 0.081676, 0.028123, -0.050417, 0.265682, 0.114619, 0.176821, 0.066059, 0.054300, 0.056626, -0.025237, -0.028371, 0.077746, 0.155424, 0.042349, 0.046748, -0.041286, 0.082026, -0.187190, -0.081167, -0.022233, -0.170483, -0.078007, -0.021336, 0.036701, 0.044224, 0.069821, -0.045927, 0.099535, -0.118571, 0.196181, -0.120590, 0.276358, 0.036521, -0.149757, 0.061258, -0.000062, 0.149615, 0.191094, -0.121139, 0.111331, 0.123402, 0.262868, 0.156784, 0.247246, 0.061837, 0.022820, 0.131671, 0.050855, -0.049626, -0.141405, -0.075396, -0.044421, -0.050686, 0.168851, 0.069755, 0.166801, -0.021440},
{-0.166240, 0.028038, 0.221465, 0.062112, 0.042092, -0.044134, 0.126861, 0.040215, 0.021622, 0.060184, 0.220712, 0.033580, -0.168253, 0.171139, -0.042957, 0.016359, -0.050560, -0.119292, 0.081672, 0.210827, -0.122968, -0.039125, 0.022241, 0.077414, 0.213848, -0.058744, -0.123655, 0.119894, 0.043277, -0.012919, 0.047640, -0.003017, -0.169735, 0.128560, 0.235611, 0.014386, -0.068091, -0.047691, -0.186062, -0.018676, 0.061213, 0.044990, -0.038105, 0.101591, -0.073341, 0.010453, -0.042675, 0.094187, -0.070002, 0.019841, 0.015978, 0.181355, -0.040967, -0.009019, -0.022161, -0.017113, -0.049915, -0.077115, -0.011165, -0.114351, 0.133769, 0.105982, -0.019157, 0.005367, 0.090834, 0.029705, 0.096008, 0.056320, -0.121263, 0.215826, -0.057936, 0.112967, -0.022597, 0.001737, 0.380386, 0.014190, 0.150735, 0.127955, -0.009319, 0.111403, -0.060053, -0.106605, -0.085782, 0.179293, -0.065789, 0.053514, 0.013535, 0.124339, 0.036298, -0.159460, -0.088330, -0.057249, -0.043616, -0.130591, 0.005360, 0.035192, 0.043536, 0.039767, -0.079180, -0.095603, 0.158614, -0.057493, 0.153542, 0.016149, -0.021585, 0.158938, 0.138536, 0.199870, 0.119216, -0.152058, 0.182587, 0.126336, 0.202699, 0.093956, 0.057722, -0.042132, 0.044075, 0.064967, 0.010068, -0.042409, -0.202106, -0.033889, -0.125257, -0.014537, 0.152827, -0.039291, 0.117614, -0.016028},
{0.025245, -0.007158, 0.225587, -0.034608, 0.075359, -0.025767, 0.076884, -0.055590, 0.063085, -0.010103, 0.021590, 0.073592, -0.110613, 0.024277, -0.045760, 0.024039, -0.021283, -0.078031, -0.054296, 0.313794, 0.008537, -0.102016, -0.088587, 0.023174, 0.076969, 0.116635, -0.105171, 0.065997, 0.049265, 0.145379, -0.101843, 0.143845, -0.174620, 0.070660, -0.097620, 0.070753, -0.005442, 0.033674, -0.011340, -0.049749, 0.004021, 0.016139, -0.007438, 0.117099, -0.076780, 0.015864, -0.073825, 0.014088, 0.060580, 0.048798, -0.089665, 0.111659, -0.064259, 0.034119, 0.022558, -0.030746, -0.071925, -0.099993, -0.207791, -0.052085, 0.131339, 0.160856, 0.017917, -0.083082, -0.072034, 0.041727, 0.158553, 0.075607, -0.113627, 0.074865, -0.022666, 0.114910, -0.052991, -0.039757, 0.193020, -0.035614, -0.026045, 0.092312, 0.028062, 0.101303, -0.014365, -0.076751, 0.013797, 0.036719, -0.041169, -0.054253, 0.063230, 0.063105, -0.032149, -0.193812, -0.005041, -0.097655, -0.125713, -0.106394, 0.036374, 0.046600, -0.058289, 0.053737, 0.013103, -0.006659, 0.186604, -0.049453, 0.268265, 0.015710, 0.085199, 0.042616, -0.107955, 0.208185, 0.126397, -0.248363, 0.197243, -0.017513, 0.236228, -0.160795, 0.260721, -0.114873, -0.084022, -0.010434, 0.115501, 0.011221, -0.010297, -0.065217, -0.103689, 0.002513, 0.132859, 0.083366, 0.124416, -0.084919},
{-0.078324, 0.084155, 0.296589, -0.027841, -0.015018, -0.022368, 0.088389, 0.002153, 0.154933, -0.029099, 0.002197, 0.076547, -0.121734, 0.109612, -0.185400, 0.092615, -0.037349, -0.284490, -0.109693, 0.272345, -0.169795, -0.168776, -0.100028, 0.014231, -0.040391, 0.083858, -0.294501, 0.065001, 0.107961, 0.038585, -0.020620, 0.139263, -0.125889, 0.238212, -0.101742, 0.021633, 0.024114, -0.069626, 0.047298, -0.097196, -0.063731, 0.126410, -0.086122, 0.023454, -0.089617, 0.016802, -0.097271, 0.120158, -0.070978, 0.063542, 0.001208, 0.199990, 0.094113, 0.025045, 0.078203, -0.103049, -0.215363, -0.112328, -0.189206, -0.083998, 0.322340, 0.057708, 0.099713, -0.003576, 0.102193, -0.018016, 0.227396, -0.017106, -0.059897, 0.234007, 0.002411, 0.131159, -0.109412, 0.007123, 0.152817, 0.029623, 0.016106, 0.044762, 0.225845, 0.098449, -0.195222, -0.218887, 0.132358, 0.027092, -0.100721, -0.034221, -0.101279, 0.094269, -0.073753, -0.146806, -0.012237, -0.161190, -0.184782, -0.047050, -0.056494, 0.042427, 0.059145, 0.023090, -0.160552, -0.208598, 0.248213, -0.229383, 0.340449, 0.226649, -0.099995, 0.176179, -0.087941, 0.259704, 0.309693, -0.271943, 0.325442, 0.035688, 0.178825, -0.175846, 0.390401, -0.051641, -0.093612, -0.046030, 0.091240, -0.020334, -0.047037, -0.240867, -0.103231, -0.302221, 0.338928, 0.216361, 0.075279, -0.114069},
{0.072824, 0.013438, 0.220115, 0.163442, 0.081808, 0.053781, 0.057922, 0.072487, 0.004494, 0.044727, 0.082425, -0.077760, -0.047100, 0.174080, 0.073546, 0.023581, -0.244063, -0.083559, -0.097000, 0.362559, 0.016755, -0.212910, -0.143243, -0.000302, 0.027958, 0.114944, -0.213404, -0.043425, 0.010765, -0.093809, -0.032083, 0.039473, -0.190835, 0.191002, 0.031364, -0.027542, -0.057773, 0.084492, -0.107494, -0.115844, -0.005351, 0.176717, -0.131623, -0.075072, -0.094332, 0.052488, 0.010917, 0.084465, 0.003116, 0.003300, -0.025936, 0.188408, 0.270964, 0.089385, 0.074128, -0.054872, -0.118423, -0.067828, -0.111237, 0.009869, 0.143012, 0.096869, -0.054602, -0.024010, 0.151062, 0.032003, 0.121038, 0.075704, -0.095056, 0.287099, -0.095062, 0.274180, 0.025099, -0.021567, 0.173736, 0.237862, 0.160491, 0.012927, 0.174991, 0.145994, 0.024268, -0.184459, 0.196825, 0.074642, -0.074696, 0.254670, -0.016193, 0.025185, -0.010846, -0.083768, -0.062307, -0.078349, -0.067272, -0.123148, 0.205775, 0.004300, 0.230311, 0.061956, -0.156150, -0.300411, 0.263021, -0.269886, 0.349880, 0.250959, 0.028579, 0.103785, 0.027376, 0.137876, 0.063327, -0.114297, 0.275355, -0.002230, 0.359568, 0.059217, 0.401300, 0.042566, 0.124985, -0.030819, 0.214531, -0.035891, -0.184755, -0.102409, -0.087654, -0.131137, 0.268063, 0.128678, 0.005303, -0.092716},
{0.162102, -0.046288, -0.010106, 0.174065, -0.028727, 0.182700, -0.036815, 0.127995, 0.041202, 0.250922, 0.057694, -0.003325, -0.057628, -0.082802, 0.135431, -0.034415, -0.134010, 0.027918, 0.056787, 0.135264, -0.092980, -0.170980, -0.077668, 0.126225, -0.102811, -0.063215, -0.209533, 0.015356, -0.071334, -0.215323, -0.094206, -0.050118, -0.140756, 0.211407, 0.044908, -0.027057, -0.063243, -0.050616, -0.036084, -0.113679, 0.000201, 0.065288, -0.146803, -0.074526, 0.025102, -0.089891, -0.129777, 0.038236, -0.000331, 0.135602, -0.090731, 0.129437, 0.084978, 0.165602, -0.077961, -0.115849, -0.117855, 0.065615, 0.040802, -0.019931, -0.091885, -0.064220, -0.069344, 0.099298, 0.052964, 0.010019, -0.099954, -0.081047, 0.047484, 0.167137, -0.135256, 0.161392, 0.022471, -0.212737, 0.103469, 0.110390, -0.020943, -0.147647, 0.143782, 0.003255, 0.132797, -0.172539, -0.049173, 0.113261, 0.082090, 0.151671, 0.090585, 0.111270, -0.015112, -0.009371, 0.142259, 0.018082, -0.102654, 0.045429, 0.125821, -0.170974, 0.048706, -0.145468, -0.079688, -0.275213, 0.312534, -0.146896, 0.081808, 0.014902, -0.075930, 0.158506, -0.045091, 0.222836, 0.101136, 0.178015, 0.003474, 0.144618, 0.145702, 0.032008, 0.214021, -0.015178, 0.141742, -0.055779, 0.097174, 0.131018, -0.072920, 0.053599, -0.077372, 0.029537, 0.363161, -0.061520, -0.100768, 0.025223},
{0.096665, -0.068667, 0.178842, -0.017267, -0.151393, 0.089208, 0.117774, 0.048812, 0.007553, 0.005435, 0.181866, -0.006293, -0.043371, -0.123332, -0.118322, 0.098435, -0.075496, -0.067378, -0.129766, 0.010268, -0.115712, -0.213760, -0.103219, 0.007526, -0.100737, 0.025907, -0.209785, 0.031483, -0.063961, 0.024701, -0.040273, 0.151614, -0.120912, 0.176910, -0.075417, 0.122008, 0.046394, -0.050077, -0.211169, -0.092776, -0.028044, 0.091309, -0.130522, -0.001287, -0.045165, 0.013083, -0.053172, 0.151128, -0.137627, 0.061070, -0.030347, -0.067079, 0.045295, 0.007108, -0.031216, -0.120976, -0.118105, -0.228213, -0.243648, 0.082524, 0.208013, -0.102110, -0.138071, 0.027545, 0.110462, -0.156399, 0.118215, -0.112451, -0.031338, 0.151328, -0.097028, -0.043504, -0.107297, -0.184454, 0.158624, 0.074339, 0.178924, -0.156722, 0.111411, -0.098602, -0.041778, -0.102459, 0.008824, 0.261977, -0.043715, 0.140382, 0.045745, 0.167446, 0.018036, -0.212984, 0.086539, -0.207892, -0.151175, -0.056485, -0.139222, -0.046533, 0.046641, -0.081785, -0.069298, -0.128022, 0.184710, -0.060359, 0.389198, 0.118636, -0.104916, 0.190187, -0.037599, 0.094728, 0.173855, 0.079962, 0.276320, 0.020600, 0.237891, -0.097848, 0.083084, 0.024946, 0.053960, -0.034409, 0.114569, 0.017862, -0.134908, -0.074056, -0.100547, -0.040767, 0.325093, 0.007892, -0.107977, 0.036331},
{-0.039045, 0.087750, 0.233575, 0.000198, -0.115952, -0.106504, 0.029979, 0.025674, -0.011550, -0.125136, 0.043379, -0.127101, -0.113911, 0.037903, 0.023967, -0.026816, -0.096608, -0.049116, -0.157619, 0.157296, -0.088582, -0.222025, -0.121909, -0.180876, -0.160349, 0.096657, 0.052715, -0.114620, -0.146362, 0.018682, 0.002126, 0.100870, -0.085269, 0.451436, 0.078815, 0.096300, -0.056490, -0.006316, 0.120874, -0.030821, -0.017087, 0.192756, -0.155464, 0.101618, -0.003409, -0.013552, -0.011286, -0.023157, -0.047247, 0.039637, 0.080391, -0.081470, -0.136144, 0.200040, -0.031151, -0.043655, -0.063329, -0.010664, -0.129585, 0.040521, 0.272375, -0.009733, -0.073562, 0.101682, -0.170468, -0.121788, 0.145606, -0.114351, 0.107506, 0.098340, -0.072634, 0.044802, 0.016927, -0.175757, 0.090048, 0.053933, 0.209270, -0.018843, 0.225588, 0.011341, -0.037259, 0.041550, 0.270206, 0.042277, -0.155251, 0.071565, -0.189534, 0.132597, -0.029945, -0.026778, 0.106042, -0.046062, -0.107674, -0.065197, -0.160361, 0.064560, 0.230852, -0.056770, -0.111729, -0.038000, 0.148514, -0.081844, 0.346212, 0.094257, -0.029194, 0.140985, -0.131533, 0.124380, 0.090493, -0.052500, 0.095397, 0.148727, 0.172613, -0.044607, 0.234565, -0.025228, -0.072249, 0.070694, 0.155429, -0.205801, -0.212094, -0.272701, -0.099896, 0.120380, 0.523610, 0.240427, -0.030303, -0.046699},
{-0.055256, 0.034899, 0.232059, -0.086309, 0.027357, -0.174563, -0.028485, -0.057744, -0.065035, -0.082803, -0.087649, -0.033365, -0.060310, 0.155105, -0.006018, 0.084958, -0.151209, -0.063907, -0.096055, 0.242167, -0.160581, -0.239870, -0.074848, -0.071254, -0.004823, 0.098570, -0.073625, -0.026549, -0.075205, 0.070062, -0.120865, 0.152932, 0.013627, 0.439222, -0.052059, -0.065197, 0.044545, 0.046204, -0.002320, -0.059627, 0.047726, 0.031586, -0.136051, 0.090496, 0.026706, 0.014100, -0.048178, 0.085954, 0.022966, 0.014613, 0.090957, -0.063529, -0.179985, 0.015749, -0.021627, 0.034472, -0.152217, -0.057863, -0.144178, 0.055538, 0.209516, 0.002893, -0.216130, 0.021434, -0.082519, -0.103591, 0.306983, -0.137632, -0.090572, 0.224530, -0.271086, 0.046444, 0.044234, -0.117582, 0.261889, 0.014124, 0.303652, -0.131983, 0.134311, -0.076257, -0.196507, -0.091680, 0.166676, 0.109742, -0.196181, -0.049480, -0.156589, 0.116888, 0.050096, -0.078522, 0.029905, -0.137035, -0.197052, -0.069472, -0.108270, -0.033985, 0.123356, -0.011509, -0.063952, 0.023070, 0.159727, -0.110210, 0.037890, 0.086847, -0.047925, 0.171480, 0.043637, 0.187609, 0.157310, -0.090537, 0.238572, 0.181073, 0.108361, 0.049964, 0.199656, -0.015301, -0.059957, -0.077742, 0.157927, -0.062977, -0.146091, -0.186880, -0.103215, -0.052996, 0.385028, 0.144570, -0.002601, -0.073578},
{-0.118186, -0.072889, 0.185988, -0.067462, 0.075160, -0.068539, 0.063814, 0.051207, -0.036484, 0.077657, 0.157424, -0.021069, -0.069836, 0.110266, -0.093549, 0.148401, -0.163362, -0.194436, -0.036469, 0.190001, -0.122771, -0.057390, -0.009478, 0.125325, 0.141669, -0.079733, -0.190350, 0.114967, -0.057198, 0.082259, -0.059181, 0.109567, -0.027870, 0.278453, 0.055717, -0.087682, -0.009284, 0.070496, -0.285424, -0.007568, -0.063295, 0.133634, -0.059202, 0.214899, -0.036693, -0.045890, -0.030997, 0.161959, -0.104717, -0.148907, 0.097895, 0.073355, 0.069218, -0.054990, -0.036990, -0.054363, -0.124273, -0.079073, -0.169873, -0.020345, 0.074858, -0.035610, 0.026137, -0.054130, 0.247840, -0.146178, 0.124551, 0.052808, -0.178018, 0.147472, -0.177545, 0.077725, -0.071490, -0.061944, 0.255596, 0.021255, 0.249121, 0.105617, 0.038513, 0.098146, -0.166308, -0.107286, 0.006173, 0.205188, -0.180473, 0.142048, -0.034860, 0.222296, 0.028339, -0.078960, 0.057771, -0.137109, -0.072985, -0.099456, -0.052913, -0.003448, -0.012408, 0.176250, -0.035512, -0.150866, 0.201090, -0.090516, 0.089572, 0.135094, -0.209532, 0.182596, 0.178873, 0.098263, 0.243688, -0.298992, 0.100748, 0.130235, 0.121913, -0.054307, 0.153941, -0.058332, 0.091505, -0.132016, 0.127916, 0.130425, -0.080131, -0.008651, -0.068577, -0.078183, 0.271934, 0.038815, 0.291681, -0.015122},
{-0.140108, 0.059153, 0.218958, -0.148361, -0.019415, -0.070131, 0.104863, -0.015475, -0.165550, -0.008387, 0.091679, -0.155579, -0.111774, 0.150295, -0.206673, 0.080807, -0.222642, -0.219996, -0.113487, 0.195965, -0.068539, -0.107093, -0.104737, 0.044605, 0.174927, -0.062522, -0.252401, 0.063991, -0.099290, 0.205073, 0.004327, 0.033429, -0.033680, 0.255313, 0.064636, -0.062286, -0.049129, 0.048216, -0.126856, -0.069989, 0.005715, 0.040336, -0.019985, 0.122796, -0.031407, 0.005581, -0.105363, 0.232329, -0.272632, -0.072209, -0.029194, -0.041567, 0.179853, -0.190058, 0.021107, -0.146605, -0.206127, -0.074891, -0.094113, -0.156093, 0.178754, -0.000472, 0.087400, -0.132121, 0.269907, -0.137013, 0.092436, -0.008489, -0.143769, 0.224443, -0.092456, -0.116707, -0.095640, -0.075263, 0.092149, -0.055028, 0.132350, 0.142136, 0.115462, 0.179493, -0.137951, -0.057360, 0.073630, 0.208908, -0.239699, 0.020467, -0.002460, 0.221573, -0.018180, -0.142070, -0.022997, -0.149202, -0.068606, -0.186449, -0.132737, -0.077404, 0.097413, 0.185121, -0.056644, -0.027820, 0.239515, -0.070621, -0.007780, 0.164679, -0.117391, 0.159545, 0.251051, 0.114139, 0.219754, -0.218686, 0.153235, 0.154105, 0.120127, -0.032818, 0.213321, -0.085485, 0.175954, -0.123833, 0.125164, 0.117031, -0.149404, -0.098311, 0.033381, -0.126560, 0.244751, 0.176512, 0.146702, 0.023431},
{-0.089964, -0.056484, 0.175697, -0.185132, 0.026200, 0.028104, 0.192918, 0.037435, -0.102397, 0.020805, 0.178579, -0.122807, -0.139323, 0.185820, -0.160640, -0.018801, -0.193329, -0.090322, -0.032454, 0.120666, -0.022825, -0.055434, -0.046448, 0.111285, 0.138369, 0.044831, -0.170603, 0.140442, 0.009407, 0.105790, 0.054861, 0.199476, 0.063987, 0.263228, -0.002828, 0.171597, 0.073082, 0.014193, -0.149892, -0.147654, -0.064597, 0.070891, -0.010615, 0.086311, 0.008137, 0.014562, -0.018058, 0.237526, -0.256900, -0.073408, -0.036148, -0.023427, 0.034152, -0.231314, 0.044627, -0.127172, -0.168133, 0.107985, -0.073759, -0.167226, 0.149865, 0.040512, -0.052223, -0.097495, 0.232037, -0.097856, 0.213328, -0.075285, -0.123465, 0.184908, -0.230517, -0.050459, -0.070574, -0.143232, 0.204607, -0.029483, 0.120447, 0.163371, 0.086222, 0.029667, -0.231166, -0.079763, 0.063046, 0.093591, -0.191947, 0.142697, -0.032837, 0.325076, 0.051080, -0.235631, 0.077821, -0.121701, -0.130832, -0.156779, -0.151728, -0.026913, 0.000336, 0.171759, -0.138952, -0.072066, 0.251352, -0.141416, 0.041909, 0.120694, -0.173022, 0.204380, 0.239767, 0.106108, 0.149027, -0.176595, 0.171188, 0.239415, 0.199026, -0.185340, 0.068841, -0.019023, 0.122528, -0.217278, 0.086836, 0.127810, -0.118171, -0.205565, 0.007811, -0.211484, -0.026398, 0.121393, 0.208651, -0.010122},
{-0.066690, -0.017159, 0.045039, 0.011097, 0.033137, 0.053996, 0.002057, -0.007247, -0.087547, 0.097341, 0.157402, -0.063027, -0.090195, 0.069715, -0.113361, -0.030818, -0.125639, -0.029767, -0.043037, 0.014941, -0.023920, 0.065335, -0.118177, 0.003101, 0.030199, -0.045100, -0.070840, 0.003569, 0.014447, -0.053979, 0.057928, 0.057452, -0.116937, 0.137492, 0.060563, 0.126207, 0.046689, -0.057517, -0.097761, -0.092694, 0.049861, 0.016346, 0.035948, 0.024528, 0.070891, 0.028885, -0.080155, 0.117733, -0.135962, 0.020085, -0.021946, 0.001957, 0.082776, -0.125497, 0.029823, -0.051329, -0.153549, -0.015357, -0.068219, -0.134987, 0.090602, 0.097527, -0.001797, 0.005570, 0.153549, -0.077177, 0.056250, -0.009753, 0.005191, 0.112525, -0.069625, 0.034617, -0.068527, -0.144398, 0.163583, 0.057686, 0.101930, 0.121582, -0.001499, 0.008679, 0.002954, 0.002174, -0.000483, 0.154788, 0.021190, -0.059090, 0.018799, 0.112512, -0.000484, -0.091016, -0.023304, -0.060426, 0.008326, 0.046662, -0.140863, 0.151115, 0.112898, 0.074759, -0.081721, -0.138272, 0.021739, -0.137006, -0.058497, 0.104480, -0.108263, 0.119252, 0.131000, 0.105785, 0.018842, -0.027972, 0.122175, 0.163841, 0.045326, 0.029995, 0.076888, 0.054530, 0.006744, -0.108885, -0.062699, 0.070255, -0.124469, -0.053816, -0.045693, -0.134871, -0.053711, -0.019527, 0.007384, -0.061177},
{0.001195, 0.026559, 0.104465, 0.005746, -0.070690, -0.027460, 0.151758, -0.078756, -0.024912, -0.005231, 0.043066, -0.103256, -0.091740, 0.126907, -0.006679, -0.007244, -0.065174, -0.051640, -0.022576, 0.101745, -0.045140, 0.055465, -0.075842, -0.002262, -0.021363, 0.016017, -0.093721, 0.057129, -0.101734, -0.005543, -0.004443, 0.057739, -0.045369, 0.126803, 0.053544, -0.050849, -0.074450, -0.056189, -0.094816, -0.025965, 0.040678, -0.005548, -0.071407, 0.069225, 0.141080, 0.000656, -0.035779, 0.046964, -0.084169, -0.048301, 0.060350, -0.057016, 0.031093, -0.056136, 0.057018, -0.020786, -0.065739, -0.024676, -0.148199, -0.067165, 0.136505, 0.041340, 0.049318, -0.045052, 0.012084, -0.002855, 0.065448, -0.081561, -0.099013, 0.006050, -0.141486, -0.036591, 0.007877, -0.037750, 0.155139, 0.039137, 0.158468, 0.039493, -0.011639, -0.023461, -0.035967, 0.026684, 0.093813, 0.036231, -0.129803, -0.059827, 0.105809, 0.069517, 0.036292, -0.124703, 0.054769, -0.108510, -0.149170, -0.071205, -0.033757, 0.031821, 0.124971, 0.115268, 0.047732, 0.009736, 0.002802, -0.046488, 0.135522, 0.006083, -0.064456, 0.103457, 0.128400, -0.020633, 0.088396, -0.002792, 0.051206, 0.068770, 0.036903, -0.135162, 0.043150, -0.012222, 0.059563, -0.026144, 0.095479, -0.006839, -0.028490, 0.022953, -0.109862, -0.049891, 0.123118, 0.050267, 0.059125, -0.051677},
{-0.062246, 0.005893, 0.162732, -0.076306, -0.144717, -0.046384, 0.126675, 0.020283, 0.019995, 0.052956, 0.024821, -0.027677, -0.117935, 0.134174, 0.025233, -0.027573, -0.082901, -0.046525, -0.026605, 0.051425, -0.015432, -0.060756, -0.072551, -0.077086, 0.060697, 0.052892, -0.006240, -0.017458, 0.009875, 0.003188, -0.033451, 0.103985, 0.044992, 0.016403, 0.019996, 0.063193, 0.052402, 0.024165, -0.142905, 0.011182, -0.064635, 0.060481, -0.136245, 0.168356, 0.032242, -0.075784, 0.085898, 0.085212, -0.155802, -0.040615, 0.064707, 0.054858, 0.063522, -0.122445, -0.053149, -0.047799, -0.033171, -0.014720, -0.137659, -0.069144, 0.063453, 0.055470, -0.042918, 0.001182, 0.142862, -0.000617, 0.138937, 0.002131, -0.019227, 0.091472, -0.043088, -0.021480, -0.047415, -0.089100, 0.043855, 0.074363, 0.153661, 0.103800, 0.009421, 0.041603, -0.150547, 0.105649, 0.090029, 0.016771, -0.127588, 0.049004, -0.062280, 0.044157, -0.094854, 0.018303, -0.077540, -0.110959, -0.108404, -0.079508, -0.082150, -0.010585, 0.132522, -0.004425, -0.079096, -0.089125, 0.167558, -0.157276, 0.042690, 0.107341, -0.115949, 0.124728, -0.039457, 0.060872, 0.074779, -0.040811, 0.093493, 0.049689, 0.124072, -0.072961, 0.068004, 0.088665, -0.027229, -0.080077, -0.009133, 0.134598, -0.152624, -0.105931, -0.122043, -0.005329, 0.019749, -0.005078, 0.131093, 0.006355},
{-0.013415, 0.023622, -0.022611, -0.007121, -0.043666, 0.010857, 0.052191, 0.054844, -0.055738, 0.055414, -0.077095, -0.010813, -0.001868, -0.074234, -0.013093, 0.046673, -0.015763, 0.072787, -0.072178, -0.014966, 0.057606, 0.028518, -0.046982, 0.013276, 0.030063, 0.069892, 0.012319, 0.011152, -0.078400, -0.057395, -0.025684, 0.048153, 0.000205, -0.059585, 0.053275, -0.046377, 0.057462, -0.040248, 0.061114, 0.073415, 0.053152, 0.018172, 0.016863, 0.034768, -0.035655, 0.010196, 0.060469, -0.039377, -0.009850, 0.032238, -0.015040, -0.004660, 0.040579, 0.068737, 0.062064, -0.000369, -0.066762, 0.034170, 0.000339, 0.008912, 0.034464, -0.019002, -0.075023, -0.021817, 0.015384, -0.064149, 0.036249, 0.019382, -0.030368, 0.020994, 0.032129, 0.023129, 0.010455, 0.073343, 0.016774, -0.008937, 0.022361, -0.013771, 0.025806, 0.041128, -0.007786, -0.074361, 0.019150, 0.005747, -0.044962, -0.010417, 0.054477, 0.065659, -0.014365, -0.065353, -0.008480, 0.004980, 0.051244, -0.000158, 0.040769, -0.076877, -0.078551, 0.005940, -0.075034, 0.010003, 0.077939, -0.036239, 0.054621, 0.066566, 0.054843, -0.035866, -0.003381, 0.046420, -0.025478, 0.022027, -0.008906, -0.036577, -0.040770, 0.039734, 0.062698, -0.037114, 0.014410, -0.050694, -0.074204, 0.070671, 0.041069, 0.014607, -0.007700, 0.055819, -0.071312, -0.069918, -0.041598, 0.019269},
{0.080062, 0.050743, -0.031215, 0.009913, 0.014889, -0.000070, 0.041851, 0.017784, 0.007675, -0.046355, 0.036002, -0.014894, -0.058534, -0.054186, 0.004374, -0.008426, 0.063185, 0.055694, -0.060644, 0.026037, -0.052862, -0.009549, 0.033973, -0.016357, -0.027488, -0.033276, 0.000863, 0.005155, 0.039595, -0.013072, -0.060569, 0.073934, -0.058451, 0.049810, 0.010975, 0.078014, -0.062323, 0.066550, -0.076689, -0.059102, 0.078070, 0.045896, 0.023532, 0.071123, -0.065721, 0.045118, 0.035028, -0.070278, -0.020849, 0.053706, -0.026285, 0.046764, -0.061227, -0.052630, 0.015516, -0.027732, 0.042832, 0.063558, -0.026526, 0.005146, 0.025500, -0.024594, 0.028401, 0.042507, 0.068633, 0.027169, -0.060324, 0.009844, -0.068489, 0.039665, 0.079951, 0.043241, -0.069372, 0.075649, 0.018020, -0.019599, -0.047231, 0.053159, 0.041480, -0.014887, 0.020455, -0.043727, -0.079170, -0.079328, 0.003775, -0.062501, -0.077930, 0.018096, 0.062631, 0.013592, 0.042344, -0.080100, 0.080571, 0.039766, 0.031355, -0.064837, -0.032942, 0.059970, 0.003403, 0.035028, 0.079367, -0.026296, -0.011206, 0.067527, 0.003453, -0.036453, -0.014815, -0.048728, 0.036796, 0.035088, 0.052425, -0.069231, -0.061799, -0.031858, -0.051130, 0.044162, -0.025115, 0.005826, 0.071405, -0.069696, -0.062549, 0.078578, -0.007163, 0.067449, 0.008384, 0.003436, -0.022725, -0.022735},
{0.002519, -0.045256, 0.074125, -0.080478, 0.052238, 0.072286, 0.043352, -0.042024, 0.011678, 0.056886, -0.060751, 0.077062, 0.056010, 0.071746, -0.001027, -0.014942, -0.030448, -0.015176, -0.043718, 0.018997, -0.033958, 0.020244, -0.012852, -0.062885, 0.029336, -0.048387, 0.033431, 0.044581, 0.049068, 0.016156, -0.016101, 0.026464, 0.063781, 0.017984, -0.019046, -0.078343, -0.014553, 0.020239, 0.009225, 0.034960, -0.068808, -0.054988, -0.032781, 0.060659, -0.031132, 0.062250, -0.052324, 0.047486, 0.047270, -0.052247, 0.014326, -0.036588, 0.003903, -0.075638, 0.074155, -0.014688, -0.031543, -0.013914, 0.072712, 0.076029, -0.072332, 0.070770, 0.025939, -0.027889, -0.060622, -0.068051, 0.017464, -0.005619, 0.000251, -0.002900, 0.067942, 0.026904, 0.072810, -0.080372, 0.032772, 0.027255, 0.003971, 0.033375, 0.008011, -0.029711, -0.050390, -0.039681, -0.076874, -0.016205, -0.024608, -0.051730, -0.002203, 0.002132, 0.039753, -0.022968, -0.018306, 0.028465, 0.014151, 0.049860, 0.005227, 0.030345, -0.024201, -0.010618, 0.071175, 0.072187, -0.071692, 0.019719, 0.023246, 0.046936, -0.065914, 0.072947, -0.028347, 0.069221, 0.074110, 0.010481, -0.004713, 0.009133, 0.022212, -0.018574, -0.075511, 0.065670, 0.003790, 0.068252, 0.060861, -0.065266, 0.013487, -0.036282, -0.004520, -0.071003, -0.044408, -0.020686, 0.035544, 0.065814},
{-0.061642, -0.042565, -0.051850, 0.026956, -0.045421, -0.035254, -0.031788, -0.027791, -0.000470, -0.016193, -0.063653, -0.029121, -0.059118, 0.043893, -0.042694, 0.052406, 0.071766, -0.056624, 0.075982, 0.060543, 0.028697, 0.054073, 0.069698, 0.008317, -0.036912, 0.005364, -0.013594, -0.040626, 0.053307, -0.041083, 0.006656, 0.066197, 0.070651, -0.011614, -0.066104, 0.031522, 0.029906, 0.066590, 0.045943, -0.030279, 0.003156, 0.074145, -0.072852, -0.035975, 0.066298, 0.062222, 0.012834, 0.048311, 0.051092, -0.049657, -0.077748, 0.007487, -0.031500, -0.019066, 0.024387, 0.009287, 0.053955, 0.050101, 0.021163, -0.025527, -0.065728, 0.014796, 0.019660, 0.003357, -0.053609, -0.078972, -0.058697, -0.068984, 0.002530, -0.051933, 0.040019, 0.054447, 0.059703, -0.077803, 0.066873, -0.039775, -0.015248, -0.054160, -0.003091, -0.067079, 0.073322, 0.057493, 0.022280, -0.071666, 0.037062, 0.017538, -0.015706, 0.075879, 0.039916, -0.065817, 0.001044, 0.078819, 0.016941, 0.019437, 0.032236, 0.020830, 0.015563, 0.069699, 0.042605, -0.060783, -0.016371, 0.030175, 0.007081, 0.071120, -0.060931, -0.078722, -0.067787, -0.078254, -0.060277, -0.046268, -0.055347, 0.078707, 0.033042, 0.023940, 0.050926, 0.019347, -0.042301, 0.026251, -0.044837, 0.055313, 0.030210, -0.018366, -0.011002, -0.021182, -0.062594, 0.068241, 0.029155, 0.075268},
{-0.032831, 0.009852, 0.016496, -0.019953, -0.028695, 0.065570, 0.043270, -0.046453, 0.005748, -0.042092, -0.007273, 0.073241, 0.017967, -0.008154, 0.022132, -0.000590, -0.000808, 0.060011, 0.038336, 0.019869, -0.049225, -0.033749, -0.063946, -0.028669, -0.040838, 0.055083, 0.041388, -0.019403, -0.027122, -0.051590, -0.024578, 0.044966, 0.031782, -0.046299, 0.063723, 0.056785, -0.078062, 0.072808, 0.017334, -0.068559, -0.018782, -0.070092, -0.022614, 0.048651, -0.054636, -0.014672, -0.044457, -0.045825, -0.028456, 0.056171, 0.010006, 0.080071, -0.025437, 0.030327, 0.029229, 0.000492, 0.026458, 0.043867, -0.036913, -0.072209, -0.056356, -0.075626, -0.029437, -0.070890, -0.074943, 0.029745, 0.003693, 0.035211, 0.002935, -0.050975, -0.031190, 0.080157, 0.010296, 0.043187, 0.016964, 0.016682, 0.042069, 0.061454, 0.020260, 0.046958, -0.020524, -0.021714, -0.065324, 0.072056, -0.045408, -0.019995, -0.063940, -0.075361, -0.027059, 0.008573, 0.051215, -0.014433, 0.028098, 0.047962, 0.043794, -0.012086, -0.058567, -0.018217, -0.005497, -0.049072, -0.068733, -0.064752, 0.034932, 0.003017, -0.037577, 0.052561, 0.064281, -0.019410, 0.026322, 0.016079, 0.019446, 0.075718, 0.019408, -0.036549, -0.014785, -0.053002, 0.049575, 0.048804, -0.030217, 0.075053, -0.006049, -0.010553, 0.014917, -0.022177, -0.026683, -0.071548, -0.070497, 0.040394},
{-0.051420, 0.075956, -0.027602, 0.047904, -0.003602, -0.016835, -0.045906, -0.020436, -0.035767, 0.026295, 0.058179, -0.001204, 0.014809, -0.012209, -0.045530, 0.080789, 0.052162, -0.062651, -0.038198, 0.002324, 0.041789, -0.075739, -0.054419, -0.054508, 0.034997, 0.030243, -0.047395, -0.055764, 0.071875, 0.073403, -0.006525, -0.057029, -0.007705, 0.037840, -0.054738, -0.002320, 0.055202, 0.064099, -0.069434, 0.019746, -0.004357, -0.004635, 0.004317, -0.041243, -0.039684, 0.075144, -0.006564, 0.008672, -0.019807, -0.024956, 0.024235, -0.034697, -0.040568, -0.012594, 0.047093, 0.051892, -0.080353, 0.036554, -0.079014, -0.071260, 0.070536, 0.014590, -0.012325, -0.063192, -0.032346, -0.045744, 0.051005, 0.062991, 0.067944, 0.039284, 0.005888, 0.025717, 0.060481, -0.076581, -0.064592, -0.052989, 0.054547, -0.000140, 0.031114, -0.072824, -0.007188, 0.076066, -0.063089, 0.045233, -0.019985, -0.019362, -0.012805, -0.022716, -0.073537, -0.027576, 0.040376, 0.024738, 0.044238, 0.062149, 0.010549, 0.066545, 0.037544, 0.021994, -0.027024, -0.016085, -0.012016, -0.018046, -0.027642, 0.059870, 0.067185, -0.069588, 0.064257, 0.066234, -0.017244, 0.036019, 0.011503, 0.049043, -0.038865, 0.040793, 0.075678, -0.065306, 0.046845, -0.063806, 0.049406, -0.032744, -0.064495, -0.054478, 0.037232, 0.075148, 0.066655, -0.055933, 0.043009, -0.068693},
{0.027016, 0.066898, 0.011661, -0.083845, 0.076004, -0.046146, 0.021836, -0.018386, 0.061952, 0.035395, 0.012618, -0.078655, -0.032770, -0.065433, 0.032337, 0.007829, 0.039512, -0.056943, -0.061548, -0.041658, 0.041301, 0.012342, 0.054580, 0.065572, 0.012221, 0.033764, -0.030782, -0.054051, -0.050916, 0.025690, 0.042634, 0.066214, -0.050352, -0.000448, 0.056965, 0.051150, -0.044564, -0.009732, 0.028415, -0.052375, 0.078656, -0.041991, -0.030210, 0.081446, 0.018224, -0.042805, 0.074295, 0.051696, -0.071546, 0.063366, 0.063538, 0.070679, 0.064579, -0.026863, -0.004259, 0.048454, -0.072178, 0.074173, -0.019299, 0.021840, 0.056377, -0.011968, 0.023197, 0.005770, 0.057392, -0.019043, 0.025511, -0.074558, -0.004803, 0.057626, -0.092577, -0.065943, 0.057090, 0.042999, 0.051584, 0.066890, 0.009275, 0.068799, 0.082282, 0.006682, 0.049433, -0.079306, -0.011697, -0.028913, 0.048780, -0.001055, 0.071257, -0.000165, 0.022465, 0.073088, -0.068937, -0.108020, -0.028460, 0.017310, -0.043258, 0.019376, -0.026747, 0.009097, -0.046336, 0.071499, 0.041337, -0.011516, 0.004576, 0.026184, 0.057638, -0.003211, -0.064125, -0.033489, -0.060941, -0.074398, -0.049989, -0.050036, -0.010512, 0.059496, 0.078625, -0.009578, 0.040697, 0.017937, 0.026220, -0.066325, -0.068553, -0.017575, 0.078426, 0.038756, 0.034710, -0.033182, 0.078989, -0.071440},
{0.053684, 0.099635, 0.137869, -0.121004, 0.019646, -0.038833, -0.078269, -0.040513, 0.058101, -0.149145, 0.034097, 0.004545, -0.024969, -0.036647, -0.147861, 0.036555, -0.011311, -0.011233, 0.006771, 0.140932, -0.005234, -0.194375, -0.098208, -0.066278, -0.076995, 0.064733, -0.034815, 0.065154, -0.000985, -0.068533, 0.051936, 0.058693, 0.011002, 0.132749, -0.080316, -0.021025, -0.073300, -0.009764, 0.039700, 0.002832, -0.076070, 0.058616, -0.001992, -0.119931, 0.005707, 0.047717, -0.020955, 0.140563, 0.025696, 0.018565, 0.070857, 0.018577, -0.056881, 0.082152, -0.066884, -0.122040, -0.097983, 0.128392, -0.150146, 0.024495, 0.055724, -0.021393, 0.069116, -0.029403, -0.107236, -0.061302, 0.125326, -0.038404, -0.174074, 0.104281, -0.010051, 0.138248, 0.063192, -0.076020, 0.092258, -0.036729, 0.078045, -0.025455, 0.098597, 0.048767, -0.014412, -0.099744, 0.111245, 0.116689, -0.069797, -0.005179, -0.074182, -0.006183, -0.056157, -0.005762, 0.037753, -0.043600, 0.012617, -0.130297, -0.172112, 0.082736, 0.035719, -0.014988, 0.077061, -0.109558, 0.035876, -0.029269, -0.045240, 0.201479, -0.086210, -0.004476, -0.043098, 0.069447, 0.019087, -0.040070, 0.058270, 0.127163, 0.053535, -0.117735, -0.000632, -0.011428, -0.015647, -0.068979, 0.000121, -0.035527, -0.031703, -0.125316, 0.047504, -0.076662, 0.031520, 0.097767, -0.107268, -0.025296},
{0.098648, 0.081550, 0.170719, -0.032560, -0.046283, 0.062616, -0.092375, -0.067756, 0.148968, 0.014021, 0.018734, -0.002455, -0.044254, 0.151493, -0.138681, 0.169535, 0.060835, -0.149165, -0.085713, 0.180964, -0.151440, -0.127646, -0.134996, 0.001973, 0.066767, 0.007648, -0.202354, 0.056051, 0.044809, 0.019471, -0.032120, 0.054937, -0.065465, 0.053047, -0.066129, -0.016094, -0.068299, 0.064420, 0.019410, -0.131082, 0.041084, 0.060536, -0.066371, -0.141333, 0.090101, -0.109048, 0.046686, 0.086536, 0.013894, 0.075494, 0.059895, -0.040420, 0.093184, 0.063333, -0.037395, -0.170845, -0.122448, 0.150883, -0.093809, 0.051510, 0.148259, 0.030993, -0.029063, -0.073966, 0.030774, 0.094714, 0.183304, 0.031086, -0.080667, 0.181379, -0.181943, 0.206953, -0.100819, -0.026961, -0.005481, 0.093482, 0.111295, -0.057317, 0.111748, -0.065270, -0.113529, -0.054093, -0.012016, 0.225356, -0.018541, 0.009966, -0.067850, 0.077441, -0.063161, -0.093851, 0.007366, -0.065565, -0.077090, -0.074123, -0.025474, 0.105598, 0.029296, -0.040874, -0.062923, -0.085864, -0.037224, -0.071139, 0.056604, 0.265779, -0.015555, 0.196226, 0.022997, 0.046227, 0.200475, -0.073406, 0.155973, 0.079746, 0.073941, 0.002670, 0.141150, 0.045479, -0.054145, -0.093694, 0.063700, 0.075008, -0.074506, -0.045098, -0.007512, -0.136921, 0.047184, 0.006083, -0.060032, 0.034285},
{-0.020208, -0.034887, 0.002008, -0.079076, 0.071113, -0.152302, 0.019475, -0.019437, -0.075944, 0.093657, 0.033098, -0.036239, 0.009857, 0.065987, -0.064186, 0.074007, -0.046236, -0.024207, 0.065261, 0.092532, -0.059787, -0.100214, -0.044424, 0.139800, 0.048246, -0.086327, -0.039102, -0.018708, -0.011267, 0.159851, 0.062059, 0.031910, 0.056837, 0.091456, 0.041289, 0.006479, 0.004701, -0.030139, 0.051098, -0.087075, -0.006467, -0.040342, 0.001223, -0.007277, -0.055133, 0.045099, -0.000810, 0.056887, -0.112025, -0.129760, -0.048241, 0.066507, 0.075689, -0.152389, -0.038478, 0.006296, 0.032045, -0.121930, -0.035750, 0.071040, 0.038546, 0.032569, -0.066764, -0.016309, 0.000917, -0.082105, 0.172273, 0.045800, -0.009681, 0.105374, -0.095997, 0.095305, 0.009604, 0.043018, 0.185405, -0.047842, 0.047799, 0.167285, 0.090901, 0.026933, 0.023407, 0.110688, -0.029748, 0.110759, -0.068453, -0.122920, -0.114572, 0.052584, -0.031038, -0.015069, 0.115874, -0.011053, 0.072024, -0.002113, -0.111454, -0.001319, -0.014041, 0.079095, 0.005742, -0.029236, 0.096676, -0.045460, -0.016315, 0.067441, -0.034687, 0.127360, -0.011341, 0.072515, 0.212702, -0.066496, 0.035618, 0.063245, -0.032888, 0.023479, 0.077656, -0.003479, 0.075761, 0.019420, -0.022711, 0.073413, -0.143923, -0.053290, -0.110934, -0.078893, 0.173189, -0.009430, 0.099835, -0.021450},
{-0.069019, -0.048972, 0.161113, 0.024504, -0.105002, -0.147824, 0.117564, 0.061745, 0.005628, 0.105094, 0.142881, -0.055305, 0.038524, 0.015958, -0.014212, 0.075066, -0.093162, -0.042049, -0.000511, 0.240654, 0.015703, 0.074261, 0.170831, 0.067401, 0.062341, 0.060636, -0.092168, 0.007156, -0.084222, -0.033033, -0.131225, 0.169594, 0.049924, 0.149641, 0.101857, 0.016280, 0.041458, -0.005485, -0.142682, 0.071903, -0.038413, 0.002150, -0.097182, 0.076881, -0.005213, 0.101069, 0.092217, 0.035419, -0.125607, 0.021858, 0.049271, -0.004350, 0.017551, -0.115395, -0.042514, -0.059152, -0.032891, -0.189098, -0.090783, 0.075173, 0.041626, -0.021114, 0.029206, -0.022803, -0.003481, -0.050648, 0.103270, 0.026186, -0.048281, 0.113393, -0.073382, 0.105249, 0.014882, -0.078773, 0.188438, 0.038291, 0.086634, 0.173808, 0.079941, 0.028535, -0.099014, 0.123207, 0.133628, 0.172770, -0.124738, -0.132021, -0.141238, 0.028446, -0.151061, -0.090854, 0.087379, -0.050912, -0.026810, -0.021280, 0.046551, 0.132428, 0.063275, 0.103472, 0.080068, -0.031575, 0.190800, -0.035276, 0.175286, 0.098020, -0.023072, 0.022848, 0.001219, 0.131719, 0.124457, 0.025091, 0.246524, 0.152555, 0.149038, -0.045301, 0.106701, 0.138523, -0.009330, 0.014817, -0.050197, -0.054956, -0.195652, -0.086125, -0.074732, -0.039887, 0.007112, 0.033559, 0.134335, -0.082643},
{-0.111557, -0.010523, 0.241266, -0.036339, 0.019783, 0.076915, 0.116967, 0.065030, 0.116742, 0.046031, 0.087313, -0.040960, 0.012153, 0.136137, -0.075332, 0.133877, -0.109622, -0.150859, -0.057211, 0.199557, 0.006759, -0.117127, 0.040154, 0.130593, 0.079140, 0.048624, -0.082332, 0.010027, 0.020381, 0.100686, -0.207834, 0.110694, -0.089048, 0.159025, 0.181883, 0.072608, -0.036319, 0.008989, -0.001590, -0.106149, 0.048698, -0.023368, -0.076901, 0.132100, 0.135162, 0.041243, 0.098283, 0.026726, 0.001133, -0.094632, 0.061314, 0.007303, -0.009364, -0.088131, -0.001446, -0.087654, -0.209664, 0.028960, -0.151121, 0.022041, 0.159309, 0.001964, 0.002752, -0.037934, -0.063975, -0.080379, 0.106611, 0.067885, -0.007073, 0.137962, -0.103327, 0.077481, -0.099830, -0.102624, 0.235803, 0.198275, 0.151210, 0.153907, 0.157672, 0.051690, -0.126836, -0.048707, 0.035166, 0.149771, -0.119284, 0.031052, -0.208006, 0.084253, -0.156735, -0.095326, 0.089675, -0.104113, -0.103321, -0.154496, -0.081980, -0.035212, 0.137187, -0.037611, 0.081012, -0.157418, 0.107687, -0.063285, 0.150902, 0.127422, -0.163193, 0.091719, 0.065637, 0.213895, 0.065276, -0.168449, 0.124328, 0.097228, 0.239239, 0.025419, 0.164988, 0.031300, -0.067812, -0.052905, -0.014872, -0.053693, -0.112840, -0.165636, -0.118441, -0.038417, 0.172197, 0.103832, 0.149308, -0.076592},
{-0.255309, 0.088685, 0.153897, -0.042548, 0.052420, -0.020265, 0.345523, 0.106723, 0.159704, -0.032551, 0.230676, -0.155955, 0.065519, 0.068459, -0.133974, -0.103215, 0.015448, -0.011965, -0.071208, 0.085622, -0.075420, -0.060997, -0.074369, 0.071362, 0.142101, 0.060838, -0.045451, 0.048020, -0.047014, 0.116786, -0.049767, 0.318574, -0.012485, 0.008388, 0.372806, -0.031464, 0.005593, 0.018022, -0.100730, -0.154981, 0.061778, -0.071125, -0.057554, 0.293626, 0.248434, 0.089467, 0.105516, 0.201528, -0.048630, -0.041672, -0.036076, 0.019621, 0.048679, -0.160256, 0.072254, 0.018523, -0.151005, 0.034076, -0.124433, 0.007375, 0.281839, 0.107422, -0.013869, -0.078973, 0.021198, -0.219589, 0.269767, 0.049165, 0.000466, 0.158131, -0.290693, -0.160311, 0.028878, -0.080250, 0.326392, 0.003319, 0.123961, 0.228851, 0.210950, 0.042550, -0.073677, 0.133630, 0.183674, 0.229138, -0.278241, 0.025967, -0.064730, 0.079643, -0.175957, -0.142944, 0.232932, -0.116577, -0.015795, -0.065703, -0.146170, 0.093742, 0.197064, 0.149298, 0.077896, 0.124995, 0.046129, -0.136876, -0.006773, 0.172379, -0.227225, 0.101996, -0.013666, 0.200250, 0.263081, -0.084080, 0.198506, 0.296203, 0.138539, 0.079947, 0.216147, 0.119971, -0.163134, -0.010917, -0.206737, -0.084535, -0.135509, -0.216223, -0.157852, -0.038549, 0.022979, 0.168910, 0.348167, -0.188920},
{-0.170074, 0.063973, 0.053312, 0.090622, 0.022559, -0.161023, 0.362819, 0.188393, 0.103724, -0.017309, 0.298537, -0.194498, 0.173790, 0.061591, -0.059989, -0.206951, 0.137313, 0.148359, -0.138342, 0.068982, -0.206116, -0.107253, -0.146608, -0.028980, -0.009815, -0.007996, 0.169992, -0.075583, 0.010367, 0.017913, -0.182007, 0.220936, 0.100914, -0.179688, 0.424212, -0.014065, 0.022633, -0.062576, -0.000154, 0.012870, 0.023189, -0.121391, -0.051962, 0.373696, 0.148772, 0.122708, 0.045879, -0.053703, 0.009217, -0.041046, -0.008168, -0.057503, -0.074357, -0.106561, 0.081101, 0.125058, -0.046229, 0.023283, -0.159967, -0.067055, 0.212215, -0.139152, -0.012815, 0.102995, -0.022287, -0.236523, 0.337625, 0.018043, 0.137971, -0.004321, -0.239329, -0.109885, 0.197833, -0.226468, 0.278386, 0.112785, 0.031252, 0.211825, 0.212738, 0.010362, 0.026480, 0.154154, 0.060084, 0.172552, -0.190215, -0.048110, -0.168816, 0.003698, -0.097964, -0.070603, 0.177791, -0.233590, -0.052746, -0.012774, -0.169878, 0.076688, 0.101514, -0.012005, 0.089739, 0.272315, -0.167639, -0.208842, -0.176166, 0.054808, -0.149241, -0.052728, -0.065487, 0.010178, 0.244516, 0.006118, -0.081261, 0.159449, 0.007454, 0.073487, 0.286199, 0.141453, -0.142516, 0.083825, -0.147877, -0.039828, -0.012467, -0.208622, -0.121482, 0.182844, -0.088945, 0.065468, 0.171751, -0.197763},
{-0.163212, 0.086839, 0.223585, 0.013735, 0.045100, -0.093481, 0.271778, 0.199529, 0.111870, 0.010836, 0.282566, -0.180569, 0.060358, 0.111510, -0.064297, -0.174335, 0.089134, 0.116511, -0.194595, 0.069842, -0.188467, -0.114659, -0.100571, 0.039478, 0.000454, 0.181324, -0.010561, 0.058040, -0.001803, 0.124098, -0.196213, 0.302540, -0.102089, -0.073605, 0.290093, -0.033356, -0.078281, -0.023454, 0.051305, 0.008150, 0.026921, -0.008633, -0.055273, 0.412963, 0.029166, -0.021228, 0.168615, 0.117226, -0.082417, 0.041753, 0.009267, 0.016895, -0.039217, -0.024883, -0.074793, 0.088344, -0.090832, -0.084714, -0.183819, -0.002365, 0.212719, -0.009064, -0.086000, 0.071754, 0.008144, -0.165935, 0.299017, -0.041182, 0.006040, 0.028693, -0.317357, -0.006324, 0.168663, -0.076842, 0.187817, 0.067352, 0.097492, 0.239869, 0.319081, 0.070902, -0.007750, 0.202829, 0.179798, 0.206056, -0.195487, -0.066027, -0.131551, 0.003159, -0.106385, -0.125150, 0.066445, -0.177678, -0.175019, -0.148321, -0.160349, 0.153585, 0.171788, 0.125260, 0.017789, 0.124298, -0.135687, -0.199972, -0.126554, -0.034577, -0.090607, 0.013123, 0.093825, 0.105133, 0.401163, 0.085497, 0.109789, 0.169302, 0.002205, 0.063102, 0.239656, 0.169724, -0.188677, 0.100509, -0.173382, -0.118227, 0.020461, -0.203307, -0.115398, 0.147106, -0.053889, 0.220293, 0.232455, -0.135257},
{-0.123286, 0.263413, 0.333182, -0.061185, 0.110621, -0.059764, 0.286456, 0.169951, 0.116833, 0.014631, 0.187033, -0.037978, -0.055933, 0.165670, -0.018351, -0.099604, 0.014555, 0.040364, -0.153020, 0.086510, -0.173567, -0.156174, -0.223227, 0.045875, 0.183287, 0.111771, 0.023205, -0.014661, -0.021411, 0.238218, -0.197127, 0.262470, 0.087219, -0.036227, 0.326211, 0.049795, -0.014762, -0.061970, 0.095216, -0.141433, -0.034259, -0.019010, -0.084716, 0.392133, -0.098350, 0.034295, 0.178500, 0.047550, -0.117234, -0.121696, 0.130210, 0.171091, -0.219372, -0.084396, -0.009740, -0.025471, -0.096299, -0.113538, -0.233332, 0.003760, 0.329869, -0.087327, -0.013784, 0.053641, -0.061199, -0.110027, 0.497790, -0.141833, -0.053411, 0.030633, -0.365459, 0.139932, 0.074607, 0.006438, 0.165611, 0.191230, 0.173530, 0.306332, 0.285278, 0.051253, 0.012979, 0.064537, 0.047097, 0.288340, -0.320034, -0.127599, 0.024141, -0.050979, -0.195833, -0.039810, 0.058570, -0.092956, -0.202030, -0.145962, -0.174641, 0.098590, 0.122363, 0.174761, 0.046183, 0.139360, -0.093926, -0.157723, 0.069941, -0.042605, -0.144018, -0.021653, 0.118379, 0.090284, 0.444507, -0.113141, 0.071004, 0.145105, 0.100153, 0.139106, 0.411046, 0.083408, -0.148474, 0.113809, -0.123875, -0.049041, -0.005192, -0.247077, -0.259324, 0.074808, 0.228290, 0.252827, 0.355986, -0.244288},
{-0.064386, 0.339423, 0.078833, -0.039388, 0.018397, -0.017117, 0.195448, 0.097312, 0.049074, 0.036415, 0.123246, -0.019472, 0.123333, 0.051142, -0.060126, -0.017468, 0.058288, 0.154854, 0.019618, 0.066235, -0.262222, -0.183143, -0.252425, 0.049911, 0.207178, 0.191330, 0.171678, 0.013946, -0.017377, 0.029957, -0.139074, 0.142844, 0.158700, 0.021867, 0.289731, 0.095626, -0.074107, -0.169485, 0.076542, -0.170840, -0.054636, -0.104345, -0.151116, 0.332150, -0.325435, -0.003022, 0.207595, -0.046153, -0.028836, 0.007982, 0.132256, 0.184092, -0.182561, -0.152270, -0.004819, 0.108059, -0.147411, -0.151427, -0.197639, 0.052574, 0.215600, -0.070704, -0.085471, 0.118997, -0.090357, -0.040276, 0.206014, 0.014751, 0.046650, -0.018737, -0.185827, 0.043247, 0.148532, -0.144790, 0.313723, 0.232992, 0.065413, 0.206299, 0.192607, 0.042770, 0.019424, -0.012973, 0.076846, 0.044758, -0.090269, 0.115340, -0.083997, -0.032259, -0.334538, 0.035232, 0.106699, -0.003920, -0.090761, 0.027171, -0.216397, 0.121143, 0.209594, 0.069799, 0.251579, 0.187878, -0.117614, -0.069209, -0.092523, -0.021105, -0.041968, 0.079107, -0.011719, 0.076027, 0.295330, 0.090038, 0.068556, 0.304196, 0.070465, 0.137609, 0.249752, 0.089508, 0.041951, 0.215438, -0.153242, -0.338233, -0.111249, -0.256566, -0.310816, 0.097854, 0.037835, 0.140229, 0.235048, -0.155150},
{-0.026543, 0.110155, -0.100363, -0.194835, -0.016184, 0.202535, 0.043864, 0.100493, 0.063657, 0.252867, 0.250462, -0.037926, 0.025413, 0.006355, -0.168305, -0.231748, -0.139954, 0.066850, 0.018148, -0.088051, -0.273482, -0.073329, -0.256758, 0.150847, 0.055316, 0.019387, 0.092053, -0.004644, -0.061103, 0.078333, 0.043233, 0.214754, 0.022958, 0.134627, -0.043410, 0.055197, -0.017268, -0.189410, -0.068242, -0.280927, -0.032933, -0.067065, -0.229634, 0.104738, -0.317882, -0.083971, 0.014816, -0.029260, 0.007412, 0.069815, 0.024460, 0.289697, -0.025183, -0.190551, -0.045455, -0.209431, -0.029723, -0.233461, -0.076620, -0.030095, 0.055984, -0.102176, -0.103175, 0.042306, -0.048993, -0.021642, -0.031245, -0.081739, -0.025672, 0.125389, -0.209365, 0.024009, -0.058278, -0.310812, 0.228884, 0.344184, 0.062999, 0.135501, 0.233692, 0.056785, 0.055839, -0.127948, -0.048658, 0.080508, 0.039814, 0.309708, -0.333884, 0.071830, -0.334623, -0.109733, 0.288575, -0.092501, -0.237281, -0.148885, -0.071909, -0.160487, -0.143711, 0.059925, 0.049150, -0.078304, 0.266650, -0.108077, 0.056534, 0.002946, -0.204624, 0.246189, 0.156790, 0.313127, 0.101122, 0.166437, 0.019166, 0.206227, 0.081193, -0.079029, 0.032800, 0.004176, 0.174187, 0.095080, -0.064564, -0.153866, -0.312909, 0.030911, -0.316464, 0.034749, 0.018072, 0.136673, 0.113322, -0.201134},
{0.024552, 0.206926, -0.019273, -0.085593, -0.029438, 0.129013, 0.171217, 0.101156, -0.025468, 0.166394, 0.148405, -0.139625, -0.086498, 0.140562, 0.007447, -0.231417, -0.195845, 0.169319, 0.157984, -0.064429, -0.234910, -0.138621, -0.234035, 0.157297, 0.311933, -0.055199, 0.184207, -0.034760, -0.096249, 0.027800, -0.012418, 0.243420, 0.180918, 0.043515, 0.199186, -0.036870, 0.002556, 0.172904, -0.082007, -0.253218, -0.023213, -0.115252, -0.226296, 0.128833, -0.474451, -0.172816, 0.087190, -0.064830, 0.020388, -0.076050, 0.050912, 0.304173, -0.031336, -0.223583, -0.010338, -0.031415, -0.031266, -0.132480, -0.003728, -0.076079, 0.113402, -0.039485, -0.301647, -0.035829, -0.105579, -0.073243, 0.185666, -0.192585, 0.083436, 0.135577, -0.403922, -0.128615, 0.018186, -0.195727, 0.298552, 0.198891, 0.179365, 0.240277, 0.282096, 0.055177, 0.125304, 0.188346, 0.014598, -0.037726, -0.027648, 0.346442, -0.153822, 0.108209, -0.329586, 0.203727, 0.143510, -0.023827, -0.211881, -0.098908, -0.023289, -0.087776, 0.061903, 0.205575, 0.084408, 0.083663, 0.112632, -0.064846, -0.081547, 0.062900, -0.165642, 0.186245, 0.101080, 0.106626, 0.224627, 0.093380, -0.182682, 0.252171, 0.051656, 0.029616, 0.230842, 0.125792, 0.042535, 0.027985, 0.012427, -0.225131, -0.375546, 0.051431, -0.318553, 0.044319, 0.190955, 0.206836, 0.289443, -0.158384},
{-0.023833, 0.035348, -0.076138, -0.210605, -0.064165, 0.120871, 0.290092, 0.165535, 0.008715, -0.027182, 0.378117, -0.255694, -0.055313, 0.127947, -0.077268, -0.146021, -0.220219, 0.002731, 0.037372, -0.052882, -0.190953, -0.176877, -0.226411, 0.185194, 0.352066, -0.210303, 0.023409, 0.162383, -0.145424, 0.021457, -0.092350, 0.321043, 0.164727, 0.171442, -0.029326, -0.023556, -0.068971, 0.169963, -0.137039, -0.135961, -0.041634, -0.090734, -0.183074, 0.119233, -0.315775, -0.115157, 0.070848, 0.075677, -0.000026, 0.034679, 0.011675, 0.030275, 0.085453, -0.178029, -0.000215, -0.089973, -0.028416, -0.170134, -0.036008, 0.010939, 0.134804, -0.053417, -0.243834, 0.090073, -0.086594, -0.234627, 0.094145, -0.116807, -0.041579, 0.188579, -0.359138, -0.182914, -0.136700, -0.117246, 0.192416, 0.027255, 0.123742, 0.206556, 0.221641, 0.210322, 0.120629, 0.237511, -0.055629, 0.074349, 0.069820, 0.308620, -0.049695, -0.023054, -0.223398, 0.248114, 0.272033, 0.110773, -0.162292, -0.078763, -0.003006, 0.027467, -0.029274, 0.059939, 0.090662, -0.050043, 0.158296, -0.298988, -0.069308, 0.011908, -0.312783, 0.280202, 0.181003, 0.032228, 0.381359, 0.077280, 0.019130, 0.016447, -0.065267, -0.080361, 0.040689, 0.079399, 0.172622, -0.187867, 0.154781, -0.062484, -0.307591, -0.004932, -0.105667, -0.064956, 0.299629, 0.141242, 0.303994, -0.153271},
{0.119045, -0.061143, 0.003919, -0.152852, -0.121281, 0.024500, 0.164981, 0.143736, 0.048245, -0.246756, 0.293094, -0.006094, 0.123773, 0.160301, -0.030525, 0.051048, -0.255737, 0.046144, 0.020401, -0.053685, -0.091880, -0.308170, -0.304365, 0.159490, 0.112178, -0.150661, 0.091352, 0.112952, -0.123127, 0.048694, -0.059662, 0.383843, 0.030529, 0.361847, 0.024179, 0.083818, -0.001805, 0.241054, -0.101637, -0.065606, 0.041588, 0.024958, -0.224193, 0.058779, -0.290144, -0.200438, -0.011359, 0.099040, -0.210662, -0.002139, -0.025923, 0.012505, -0.105685, -0.156831, -0.038815, -0.100620, -0.065664, -0.049071, -0.066236, -0.290173, 0.186562, -0.099528, -0.347723, 0.168038, 0.045755, -0.188468, 0.135496, -0.225154, -0.026225, 0.257073, -0.270103, -0.219255, -0.173428, 0.048858, 0.133293, -0.106732, 0.104049, 0.020886, 0.184411, 0.171284, 0.053220, 0.025982, 0.018895, 0.062112, 0.151279, 0.248799, -0.041690, 0.011556, -0.170531, 0.167225, 0.225461, 0.064202, -0.179331, -0.018204, -0.142575, 0.056835, -0.105619, 0.036413, -0.046162, -0.120775, 0.262220, -0.278936, 0.114497, 0.171565, -0.263274, 0.155383, 0.170067, -0.029924, 0.425522, 0.112613, -0.000842, 0.000376, 0.219759, -0.139861, -0.035390, -0.054570, 0.190316, -0.233784, 0.195585, 0.097600, -0.220417, 0.135622, -0.044190, -0.087113, 0.423419, 0.012038, 0.062405, -0.219267},
{-0.060773, -0.104518, 0.009935, 0.009573, -0.080974, -0.123673, 0.079017, 0.184178, -0.137166, -0.208815, 0.267094, -0.019688, 0.173613, 0.031156, -0.077002, 0.119709, -0.115495, -0.031299, -0.013297, 0.032609, 0.076372, -0.073626, -0.064427, 0.219344, 0.180136, -0.123971, 0.059179, -0.003627, 0.042780, 0.028142, -0.184320, 0.210423, -0.028773, 0.333041, 0.140049, -0.019342, 0.066475, 0.216638, -0.122268, -0.085244, 0.015733, 0.217104, -0.244054, 0.071695, -0.216918, -0.118207, -0.005951, 0.076050, -0.217490, 0.004134, -0.038635, -0.007398, -0.105055, -0.106292, 0.046722, -0.128939, 0.107470, -0.168221, 0.100676, -0.217369, 0.025662, -0.129129, -0.223131, -0.158258, 0.148368, -0.136657, 0.063966, -0.172473, 0.011367, 0.136551, -0.142129, -0.187734, -0.094928, 0.048307, -0.107676, -0.056252, 0.072314, 0.112015, -0.003748, 0.079984, -0.048950, 0.165031, -0.031728, -0.018306, 0.123856, 0.198799, 0.022233, 0.128171, -0.079249, 0.172865, 0.163427, -0.024948, -0.189349, -0.014740, 0.018920, 0.059020, -0.101310, 0.087381, -0.010244, 0.040143, 0.246103, -0.021646, 0.252461, -0.017675, -0.175878, 0.145007, 0.072977, 0.055352, 0.228469, 0.116642, 0.104401, 0.029122, 0.167079, 0.036424, 0.094325, -0.135107, 0.116258, -0.198806, 0.139674, 0.138704, -0.184290, 0.049935, 0.080265, -0.187006, 0.481463, -0.004095, 0.290880, -0.118972},
