const double w3[128][10] = {{0.160004, 0.102515, -0.221832, -0.026837, -0.329607, 0.079305, -0.293376, 0.195862, 0.020760, -0.157225},
{-0.050590, -0.215183, -0.037241, -0.021115, -0.308797, -0.010490, -0.030149, -0.216420, 0.067361, -0.035916},
{-0.227420, -0.190255, 0.066969, 0.111380, -0.042406, 0.066085, -0.107297, -0.051449, -0.190573, -0.052546},
{0.190747, 0.094264, -0.196557, -0.024465, -0.011817, -0.275962, 0.161043, -0.341987, 0.110569, -0.037851},
{-0.073127, -0.179479, -0.090505, -0.207955, -0.135046, -0.160552, -0.248515, -0.194177, -0.216018, -0.038213},
{-0.183079, -0.279974, -0.153534, -0.116488, 0.057634, -0.151471, -0.297854, -0.155131, -0.206340, 0.153331},
{-0.099240, 0.086181, -0.081943, 0.098490, 0.198967, 0.044326, -0.107097, 0.048350, 0.099639, 0.180511},
{0.389821, 0.143147, -0.190711, 0.051381, 0.087768, -0.115961, -0.261601, -0.058397, -0.057368, -0.142213},
{-0.173599, 0.039828, -0.073499, -0.330881, -0.166815, 0.175054, 0.201659, -0.147392, -0.250704, 0.086493},
{0.076354, 0.156000, 0.114691, -0.252596, -0.237105, -0.098685, -0.113364, 0.217517, -0.118385, -0.302679},
{-0.203462, -0.149958, -0.087392, 0.158397, -0.018904, -0.140784, -0.093876, -0.089764, -0.131869, 0.066169},
{-0.103305, 0.106134, -0.136624, -0.199540, 0.023436, -0.297820, -0.311759, -0.119513, 0.211970, 0.001458},
{-0.130369, -0.097276, -0.161995, -0.224714, -0.213375, -0.220604, 0.134826, -0.249960, 0.110597, -0.173965},
{-0.116772, -0.050639, -0.078882, -0.097734, -0.346975, 0.103423, -0.133972, -0.170371, 0.028606, -0.270247},
{-0.105047, 0.044018, 0.034132, 0.167414, -0.321766, -0.355250, -0.158571, -0.122870, -0.202700, -0.369958},
{0.027568, 0.031028, 0.170579, -0.020545, 0.071919, 0.170100, -0.084390, 0.158093, 0.112043, -0.081403},
{0.127742, -0.288056, 0.026442, -0.110735, 0.026710, -0.292834, -0.204403, 0.163387, -0.177175, -0.029774},
{0.220079, -0.261634, 0.129028, -0.137979, -0.043497, -0.199672, -0.216519, -0.294399, -0.230285, 0.125454},
{0.168088, -0.023030, 0.148959, -0.076861, -0.239616, -0.061573, 0.113454, -0.071500, -0.093449, -0.018476},
{-0.390320, 0.169728, 0.088627, 0.016727, 0.042697, -0.210865, -0.134104, 0.104568, -0.243034, -0.104778},
{-0.305360, 0.133221, -0.246133, -0.200710, -0.082478, 0.063503, -0.314423, 0.081075, 0.038024, 0.147146},
{-0.217546, -0.347203, 0.094633, -0.026408, -0.035697, 0.023742, -0.188515, -0.276697, -0.275109, 0.161657},
{-0.090614, -0.008225, -0.141556, 0.012909, -0.060112, -0.214938, -0.324090, 0.090605, -0.131028, -0.073369},
{-0.122105, -0.174542, -0.022549, -0.223819, 0.011325, -0.231497, -0.049435, -0.071264, -0.200720, -0.103207},
{-0.005127, -0.197189, 0.084464, -0.183758, -0.054897, -0.318331, -0.023648, -0.025889, 0.028877, -0.135303},
{-0.184312, -0.100325, -0.113241, -0.089747, 0.107597, -0.147872, -0.535064, -0.018316, -0.120758, 0.135226},
{0.141484, 0.106409, 0.006211, -0.143880, 0.124942, 0.151504, 0.098047, -0.025345, -0.082785, 0.058456},
{-0.055818, -0.055431, -0.115344, -0.026545, 0.078923, -0.259217, -0.044367, 0.234377, -0.148002, -0.164325},
{0.072103, -0.027426, -0.041998, 0.148723, 0.155052, 0.083703, 0.104008, -0.212881, -0.018276, 0.037477},
{-0.287213, -0.067024, 0.217576, -0.175992, -0.265502, 0.066652, -0.231428, 0.150227, -0.168194, -0.079408},
{-0.047462, -0.005221, -0.018558, 0.037660, -0.238901, -0.003040, -0.226645, -0.018428, -0.256886, -0.083103},
{-0.137783, -0.071557, -0.168857, -0.245976, -0.120142, 0.251115, -0.152447, 0.115002, -0.144565, 0.038121},
{-0.063514, -0.042070, 0.075487, -0.078917, -0.095476, -0.284480, -0.080740, -0.079823, 0.026670, -0.189349},
{-0.390568, 0.031944, -0.335297, 0.114928, 0.054748, -0.163571, -0.529059, 0.157651, 0.086054, 0.189228},
{-0.319602, 0.128729, 0.171543, -0.021900, -0.277989, -0.179895, 0.076333, 0.046794, -0.000408, -0.099285},
{-0.260758, -0.143875, -0.187734, -0.209725, -0.127521, 0.163167, -0.222402, -0.268803, 0.011676, -0.096408},
{-0.218393, 0.075829, -0.293250, -0.239781, 0.140053, -0.078362, -0.228213, 0.142198, 0.094471, -0.163106},
{-0.180994, -0.046540, 0.139611, 0.062130, -0.309066, -0.024031, -0.023237, 0.030163, 0.002727, -0.427486},
{-0.028816, -0.399687, -0.121543, -0.047136, -0.072802, 0.132985, -0.024262, -0.164763, -0.215964, 0.141384},
{0.132685, -0.074487, 0.102596, -0.012806, -0.321423, 0.104528, -0.118081, -0.215214, 0.053459, -0.149622},
{-0.064607, 0.104798, 0.103319, -0.014010, -0.091861, -0.199642, 0.120891, -0.250079, 0.049067, -0.291224},
{-0.064624, -0.339958, -0.269766, 0.198929, -0.332247, -0.067095, 0.175018, -0.188021, 0.194184, -0.086575},
{0.230662, 0.134198, -0.113690, -0.260219, -0.228816, -0.067174, 0.165567, -0.264832, 0.089610, -0.392720},
{-0.121481, -0.229709, -0.457182, -0.309423, 0.005936, 0.197993, 0.129199, -0.137509, -0.033243, 0.155611},
{0.089165, -0.318653, 0.099480, -0.091009, 0.085611, -0.140955, 0.073391, -0.169054, -0.216665, -0.192079},
{-0.022463, 0.085177, -0.257032, 0.104129, 0.210618, -0.187228, 0.162622, 0.086592, -0.101817, -0.401299},
{0.049435, 0.178975, -0.342084, -0.431673, 0.010880, 0.123127, -0.061227, -0.259805, 0.171892, 0.038492},
{-0.017654, -0.122755, 0.023684, 0.105972, 0.086698, 0.115061, 0.172190, -0.055674, 0.105272, 0.067376},
{-0.100876, 0.031449, 0.167359, -0.170996, -0.109980, -0.263431, 0.123980, -0.037500, 0.128742, -0.348603},
{-0.235791, -0.240329, -0.054582, 0.146727, 0.041446, -0.407035, 0.055365, -0.053942, 0.153971, -0.126925},
{-0.156370, 0.225936, 0.152724, 0.041144, -0.266925, 0.020184, -0.049863, -0.066571, -0.129172, 0.191198},
{0.096610, -0.225502, -0.165185, -0.236382, -0.087197, 0.031383, -0.124643, -0.173249, -0.274409, 0.003967},
{-0.128644, 0.068156, 0.015571, 0.035121, -0.324579, -0.057072, -0.259035, -0.097281, -0.110616, -0.006728},
{-0.139900, 0.282778, 0.212015, 0.134497, 0.092364, -0.069537, -0.071933, -0.166840, -0.050157, 0.079345},
{-0.262261, -0.358700, -0.170292, -0.273291, 0.192457, -0.005151, 0.075318, -0.185416, 0.028902, -0.168217},
{-0.054729, -0.031477, 0.077595, -0.051875, -0.054868, -0.071277, 0.093070, -0.019829, -0.194442, -0.245945},
{0.015463, -0.243819, -0.210166, 0.095107, -0.164170, -0.183783, 0.029448, -0.162998, -0.023085, 0.018399},
{0.099059, -0.175858, 0.114558, 0.112966, -0.031655, -0.145860, 0.003963, -0.206385, 0.131548, 0.128197},
{-0.222088, 0.104914, -0.341158, -0.228965, -0.008875, -0.126071, 0.151546, 0.013129, -0.133075, -0.143561},
{0.003935, 0.034983, 0.080258, -0.214332, -0.016248, -0.234284, 0.039684, -0.126384, -0.102918, 0.003071},
{0.106825, -0.188387, -0.086353, -0.269888, 0.054731, -0.003141, 0.050315, 0.011846, -0.089380, -0.214779},
{-0.077172, 0.035481, -0.095334, 0.065066, -0.289228, 0.117446, -0.132818, -0.007867, 0.024892, -0.150512},
{-0.140521, -0.109662, -0.079867, -0.004439, -0.083516, -0.171334, 0.025685, -0.223820, -0.201410, -0.057896},
{0.022798, -0.098171, 0.163811, -0.164297, 0.169752, 0.053598, 0.061631, 0.046916, 0.144281, -0.068879},
{0.037189, 0.051891, 0.133165, 0.070188, 0.005982, -0.133332, -0.099754, -0.204251, -0.223305, -0.317679},
{-0.229472, -0.082806, -0.056680, -0.208662, -0.104326, -0.302391, -0.084090, -0.387682, -0.006165, -0.021492},
{-0.224960, 0.189151, 0.124327, -0.235725, -0.163256, 0.097090, -0.272076, 0.255822, -0.332694, -0.086888},
{0.173317, 0.027614, -0.091663, 0.142236, 0.093764, -0.202325, 0.060219, -0.053480, -0.170192, 0.178040},
{0.234151, -0.023768, -0.347619, -0.095206, -0.242230, -0.005017, 0.222992, 0.206594, -0.267193, -0.078151},
{-0.081980, 0.178180, -0.281060, -0.478521, 0.190592, -0.023329, -0.218954, -0.171319, -0.312217, -0.074203},
{0.060850, -0.308663, -0.126899, -0.189955, -0.247812, -0.100461, -0.102065, -0.347371, -0.215435, -0.200349},
{0.091232, 0.041842, -0.280446, -0.345136, -0.281194, -0.226840, -0.083002, 0.257997, -0.158467, -0.308496},
{-0.062678, -0.168846, 0.056027, -0.141887, 0.136821, -0.096100, 0.096985, 0.080519, 0.150073, -0.171137},
{-0.334651, 0.103035, -0.376548, -0.185586, 0.176281, -0.288343, 0.265377, 0.101472, 0.002050, 0.165849},
{-0.148542, -0.244738, 0.203206, -0.178402, -0.250367, 0.060215, -0.215096, 0.127600, 0.059398, -0.376361},
{-0.116975, -0.140677, -0.095001, -0.242841, 0.179687, -0.289520, 0.099704, 0.040650, -0.449416, 0.157186},
{0.038994, -0.322118, -0.107126, 0.087968, -0.207916, -0.079330, 0.029657, 0.077449, 0.014397, -0.243905},
{0.154546, -0.105553, -0.057375, 0.082474, -0.275932, -0.053184, -0.225623, 0.066155, -0.111122, 0.020435},
{0.009914, -0.195492, -0.001651, 0.007947, -0.165758, 0.165118, 0.213430, -0.139110, -0.269379, -0.097023},
{-0.211041, -0.149782, -0.130882, 0.048419, -0.071456, 0.157480, -0.147265, -0.311770, 0.159702, -0.131699},
{0.026378, 0.044032, -0.279251, 0.156570, 0.046075, -0.033114, -0.281131, 0.059009, -0.271241, 0.019972},
{0.103716, -0.108813, -0.050868, -0.004071, -0.185407, -0.299380, -0.190588, -0.112355, -0.017695, -0.000638},
{-0.252888, -0.018609, 0.071358, -0.291642, -0.046091, -0.253196, -0.291692, 0.070674, 0.113545, 0.145305},
{0.137504, -0.173144, -0.362120, -0.329377, -0.116466, -0.047500, 0.152016, -0.041376, -0.051707, 0.109943},
{-0.031093, -0.118365, -0.004591, 0.047860, -0.244401, 0.121426, -0.374500, 0.110146, -0.260341, 0.050133},
{-0.007734, -0.218115, -0.151894, -0.117246, 0.139376, 0.122947, 0.095993, 0.107753, 0.119943, 0.086890},
{-0.212883, 0.028846, 0.025552, 0.042633, -0.044085, -0.068317, -0.307617, -0.059659, -0.206780, -0.113761},
{-0.189536, -0.097820, 0.025987, 0.212177, -0.306158, 0.132319, 0.037769, -0.067224, 0.147954, -0.281130},
{-0.270647, -0.106803, 0.109605, 0.059827, 0.005140, 0.097970, -0.364693, 0.087905, 0.051991, -0.113572},
{0.028248, -0.261841, -0.182544, -0.165054, -0.062846, -0.181641, -0.077993, -0.230654, -0.013758, -0.042585},
{-0.026040, -0.327271, 0.082546, -0.017388, -0.002522, 0.008522, -0.279254, -0.200608, 0.038808, 0.029177},
{0.039822, -0.046846, -0.227981, -0.082718, -0.241260, 0.014052, 0.127612, -0.011134, -0.011016, -0.249293},
{0.074930, 0.137666, 0.034977, -0.285478, 0.125336, 0.078924, 0.042045, -0.061893, -0.197812, -0.166642},
{0.019524, 0.093388, 0.045236, 0.149270, 0.216769, 0.032784, -0.040217, -0.354337, -0.037881, -0.288760},
{0.222619, -0.125956, 0.114163, -0.254310, 0.142706, -0.139613, 0.065840, -0.096679, -0.001674, 0.136743},
{-0.165263, -0.366100, 0.085732, -0.138700, -0.278294, 0.091600, 0.009201, -0.111425, -0.094272, 0.102082},
{-0.054033, 0.008080, 0.025987, 0.093849, -0.211437, 0.071892, 0.105043, 0.058624, -0.179362, -0.114419},
{-0.273827, -0.286442, 0.014016, 0.156296, -0.213509, 0.052302, -0.322417, -0.216777, 0.146965, -0.003415},
{-0.200248, 0.128423, -0.272375, 0.072808, -0.083884, 0.013191, -0.306477, -0.130504, -0.236182, 0.015034},
{-0.093947, 0.135747, -0.247353, -0.084681, 0.071165, -0.206981, 0.154777, -0.242716, -0.045544, 0.051088},
{-0.265177, -0.287539, 0.081580, 0.012290, 0.003264, 0.132258, 0.081692, -0.154919, -0.119055, -0.020208},
{-0.294518, 0.050717, -0.251598, 0.134335, -0.199948, 0.147326, 0.164869, -0.010410, 0.098788, -0.314757},
{-0.290965, -0.111739, -0.229331, -0.244969, -0.161202, -0.183473, -0.236135, 0.126335, -0.217439, -0.147653},
{-0.085871, -0.016456, 0.002740, -0.103309, 0.161690, 0.166694, 0.058564, -0.171137, -0.128125, 0.093077},
{-0.026709, 0.228434, 0.144677, 0.039931, -0.461063, 0.155968, -0.114696, 0.257181, -0.013765, -0.308352},
{-0.242306, 0.213075, -0.160594, -0.185237, -0.211572, 0.156681, 0.149569, -0.183075, 0.186613, 0.040908},
{-0.306706, -0.226684, -0.084198, -0.055685, 0.075111, 0.168009, 0.139514, -0.172148, 0.031226, -0.240460},
{-0.215847, -0.144899, -0.200948, -0.049748, -0.123707, -0.189189, -0.286839, 0.099922, -0.004823, 0.124131},
{0.008913, 0.003646, -0.197751, -0.032772, 0.129991, -0.185781, -0.079036, -0.317710, -0.194471, -0.182910},
{-0.085489, 0.029408, 0.030495, 0.117572, 0.093586, -0.190038, -0.149921, -0.094865, -0.028678, -0.068110},
{-0.128378, -0.067237, -0.051148, -0.034664, 0.001229, -0.176709, -0.001953, -0.274555, -0.119194, -0.137016},
{-0.190804, -0.423546, 0.242858, -0.187650, 0.071951, -0.244025, 0.158865, 0.160667, 0.206630, -0.002228},
{-0.052259, -0.225093, -0.382997, -0.165238, -0.021031, -0.007281, 0.051225, -0.328913, 0.129341, 0.011632},
{-0.191700, -0.194296, 0.199213, 0.189851, -0.296837, -0.215212, -0.280684, 0.097271, 0.048574, 0.023543},
{0.209684, 0.053358, 0.197391, -0.338438, -0.137867, -0.289131, 0.016339, 0.059654, 0.040262, 0.069047},
{-0.225787, -0.210965, -0.243141, -0.069328, 0.009789, 0.139594, -0.087479, -0.268330, -0.196650, -0.168020},
{-0.297890, 0.012604, -0.272029, -0.134751, -0.055240, -0.237266, -0.220808, -0.044579, -0.124199, -0.071637},
{0.034995, -0.041088, -0.177918, 0.175097, -0.350307, 0.113879, -0.142031, -0.042439, 0.051515, -0.101727},
{0.207371, -0.195482, 0.205898, -0.090274, 0.163751, -0.040568, -0.316802, -0.126817, 0.070801, -0.061574},
{0.086817, -0.176958, -0.002926, 0.046336, -0.151590, 0.027677, 0.001874, -0.000507, -0.021336, -0.169928},
{-0.100833, -0.012296, -0.131579, -0.155470, 0.177238, -0.148743, -0.324341, -0.110370, -0.111303, -0.062436},
{-0.190731, 0.091134, 0.071874, -0.194185, -0.144090, 0.097393, 0.020458, -0.281978, -0.138895, -0.244171},
{0.091778, 0.003188, -0.079042, -0.052074, -0.135061, 0.095067, -0.141497, -0.352327, 0.079066, -0.151149},
{0.125402, -0.257068, -0.228036, 0.063102, -0.267652, -0.086025, 0.082736, -0.293181, -0.160540, 0.072816},
{0.079012, -0.169033, -0.037349, -0.073198, -0.054552, -0.136005, 0.048125, 0.072090, 0.068205, 0.051051},
{-0.136885, -0.026660, -0.204239, 0.067574, -0.271879, 0.021454, -0.168695, -0.191818, -0.058252, -0.037337},
{-0.118968, -0.281556, 0.200840, 0.208589, -0.131097, -0.396360, -0.164758, 0.178602, 0.046025, -0.330530},
{-0.261580, -0.224839, -0.155857, -0.270866, -0.189807, -0.157890, -0.242554, -0.135386, -0.055007, -0.218674},
};
