double w2[128][10] = {{-0.093235, -0.033590, -0.197318, 0.088299, -0.172193, -0.186440, -0.337131, -0.117599, -0.014396, 0.009239},
{0.095661, -0.108428, 0.153316, 0.037657, -0.658313, -0.331474, -0.429728, -0.016417, -0.072116, 0.156149},
{0.013047, -0.320578, -0.118523, -0.209213, -0.243818, 0.016910, -0.138166, 0.033631, -0.152912, -0.143815},
{-0.184647, -0.177533, -0.096265, -0.040060, -0.117744, -0.001282, -0.179801, -0.263977, 0.118826, 0.087833},
{-0.055220, -0.274403, -0.225877, -0.046906, 0.088003, 0.032048, 0.079851, -0.315506, -0.192469, -0.081963},
{-0.217855, 0.055435, -0.206872, 0.155574, -0.159311, -0.264196, -0.483530, 0.095532, 0.035162, 0.198566},
{-0.258042, 0.013157, 0.122438, -0.152674, -0.163497, -0.164471, 0.002582, -0.308446, 0.112535, -0.176489},
{-0.137000, 0.051943, 0.116605, 0.065557, -0.490433, 0.121925, -0.089718, -0.323761, -0.042187, -0.349137},
{0.143846, -0.313632, 0.270060, -0.534235, -0.073816, -0.566840, -0.156214, 0.161152, 0.133336, 0.006761},
{-0.378440, 0.296891, -0.410331, 0.288745, 0.125383, 0.293301, 0.021506, -0.290221, -0.677164, 0.071983},
{-0.283629, -0.002042, -0.072309, -0.115571, -0.173643, -0.001862, -0.114306, -0.300297, -0.143886, -0.083895},
{0.285609, 0.034889, -0.098521, -0.390490, 0.540526, -0.232386, 0.211344, 0.305375, -0.372357, -0.434536},
{0.019552, 0.344499, 0.186473, -0.700330, 0.292923, -0.316934, 0.102699, 0.109630, 0.187494, -0.512933},
{-0.001521, -0.345471, -0.168287, -0.179233, 0.009778, -0.149694, 0.097744, -0.009665, -0.020039, -0.047523},
{-0.241657, -0.279564, -0.149841, 0.122237, -0.159757, 0.042149, -0.210863, -0.176148, 0.116693, -0.188055},
{0.031069, -0.291312, -0.230339, -0.050635, -0.299817, 0.110644, -0.099578, -0.153365, -0.099342, 0.003335},
{-0.203674, 0.099298, 0.140025, -0.491485, 0.095956, 0.129689, -0.414982, 0.172412, -0.422143, 0.180464},
{-0.242994, -0.031519, 0.049952, -0.085332, -0.085712, -0.144913, -0.184129, -0.055490, -0.119158, -0.155623},
{-0.086036, -0.273623, -0.197524, -0.129278, 0.155993, -0.261784, -0.024360, 0.036328, -0.084231, -0.055069},
{-0.026973, -0.290816, -0.175072, -0.252966, -0.049994, -0.162887, -0.045842, -0.237085, 0.095312, -0.071857},
{-0.040030, 0.408790, -0.012714, -0.395720, 0.213307, -0.198117, -0.148304, 0.412413, -0.568603, -0.530133},
{-0.456255, 0.397458, -0.407622, -0.498347, 0.182838, 0.040475, -0.400416, 0.187398, -0.437576, 0.155372},
{-0.207403, -0.431029, -0.346050, -0.096643, 0.421378, 0.220413, -0.542473, 0.053332, 0.195589, 0.215338},
{-0.258754, -0.060105, -0.175444, -0.226213, 0.092911, -0.219187, 0.035115, -0.303236, -0.133944, -0.160906},
{0.011000, -0.492683, -0.087963, -0.414717, 0.120766, -0.000455, 0.275354, 0.180221, -0.156037, 0.106818},
{0.097175, -0.233981, 0.123243, 0.044089, -0.426389, 0.056638, -0.147433, -0.188535, -0.100947, 0.015616},
{-0.216426, -0.205832, 0.320319, 0.142983, 0.135046, -0.021029, 0.059914, -0.071585, 0.126520, -0.527982},
{-0.440782, 0.085994, -0.160577, 0.054132, -0.067181, -0.054562, -0.016763, -0.261826, 0.068999, 0.092607},
{0.101916, -0.144040, -0.150925, -0.479720, 0.149017, -0.178705, 0.094863, -0.188637, 0.017148, 0.058552},
{0.004359, 0.145509, 0.130585, -0.144335, 0.160645, 0.051638, 0.181960, -0.076087, -0.303416, -0.774094},
{0.332374, -0.248482, -0.076510, -0.180239, 0.248339, -0.163057, -0.327679, -0.022609, -0.097044, -0.004539},
{-0.347312, 0.192041, 0.182321, -0.114002, -0.413655, -0.159393, -0.036603, 0.019820, 0.062522, -0.473608},
{0.025632, -0.266303, 0.132845, -0.237716, 0.102858, 0.056049, 0.129498, -0.524666, 0.097375, -0.197486},
{-0.464777, 0.443141, -0.559334, 0.102087, -0.384887, 0.374315, 0.255081, -0.204790, -0.329549, -0.351858},
{-0.230867, -0.253842, -0.108461, -0.149878, -0.114913, -0.054530, -0.112889, 0.006433, -0.121298, -0.044250},
{0.343828, 0.178779, 0.227053, -0.348015, -0.219936, -0.372771, 0.214952, 0.029563, 0.324338, -0.579040},
{-0.211280, -0.029831, -0.033701, -0.245653, -0.204334, -0.163805, -0.244984, -0.315032, 0.067509, -0.007253},
{0.096656, 0.405022, -0.095901, 0.105365, -0.955411, 0.337270, -0.176602, -0.399352, -0.664027, -0.125448},
{0.167610, -0.339976, 0.248841, -0.081955, 0.314268, -0.019883, 0.028514, -0.493439, -0.409452, 0.024410},
{0.005108, 0.150508, 0.179651, 0.195019, 0.223969, 0.179653, -0.434898, 0.269883, -0.720212, -0.090650},
{-0.012897, 0.020534, -0.022930, 0.182056, -0.174499, 0.120438, -0.013207, -0.138670, -0.037647, 0.175210},
{-0.006523, -0.221813, -0.440957, 0.230915, -0.250555, 0.299659, 0.051335, -0.789971, -0.078445, 0.060104},
{-0.559340, 0.121746, 0.420834, -0.310180, 0.131600, -0.096381, -0.245767, 0.157490, 0.260277, -0.165483},
{-0.131448, -0.344811, 0.133908, -0.128735, -0.021438, -0.108186, 0.084135, -0.362121, 0.133252, 0.035943},
{-0.004939, -0.366344, 0.026900, 0.041597, -0.992362, 0.167637, -0.513141, 0.067511, -0.107328, -0.031060},
{0.210516, 0.106118, 0.484128, -0.252847, -0.254275, -0.169195, -0.338103, -0.277710, 0.107554, 0.015812},
{-0.426376, 0.082351, 0.349494, 0.092697, -0.585747, 0.056451, -0.517156, 0.311057, 0.005735, -0.799354},
{-0.103362, -0.191591, -0.208667, -0.165167, -0.190699, 0.054359, 0.079070, -0.094999, 0.024995, -0.024334},
{0.163904, -0.163398, 0.206936, -0.293300, 0.199533, -0.334641, -0.128474, -0.281196, -0.262518, 0.281999},
{0.057277, 0.012449, -0.069971, 0.112795, -0.327370, 0.075572, -0.234096, -0.359823, -0.018924, -0.030418},
{-0.170233, -0.024134, 0.318242, 0.319372, -0.459273, -0.664992, -0.043119, 0.360031, 0.006011, -0.704505},
{-0.016311, -0.406345, -0.474486, -0.532974, 0.219421, 0.184699, 0.112631, 0.043439, -0.056278, -0.043149},
{-0.064387, -0.152540, -0.940349, 0.111714, 0.018742, 0.177390, -0.028637, -0.139232, 0.113382, 0.130275},
{0.123863, -0.273632, -0.117236, 0.026838, -0.142952, -0.154336, -0.236493, 0.095214, 0.026858, -0.101908},
{0.076535, -0.014532, -0.004991, 0.119751, 0.183675, 0.016230, -0.014876, 0.179443, -0.100589, 0.027447},
{-0.093485, -0.191351, -0.033205, -0.051148, -0.033175, -0.067001, -0.045260, -0.074740, 0.013630, -0.132237},
{-0.488076, -0.391489, 0.144733, -0.425466, 0.149466, 0.085199, -0.115829, 0.103874, -0.245956, 0.146535},
{0.410508, -0.660859, 0.001546, 0.120663, 0.156510, -0.760722, 0.154272, 0.078594, -0.093572, 0.254280},
{0.205597, 0.310871, 0.167298, 0.384283, 0.289399, -0.814663, -0.396219, 0.028184, -0.135465, 0.046417},
{0.018364, 0.377405, -0.261492, -0.374291, 0.176097, -0.224459, -0.541100, 0.396040, -0.442512, 0.157476},
{0.209311, 0.017200, 0.060994, -0.009012, -0.242506, -0.068954, 0.099061, -0.156044, 0.029423, -0.379830},
{0.091557, 0.133038, -0.418324, 0.033666, -0.152381, -0.286472, 0.062686, 0.302893, 0.116501, 0.191383},
{-0.698675, 0.083054, -0.194365, -0.237188, -0.171295, 0.307255, -0.034893, -0.252151, 0.112978, 0.120387},
{-0.131591, 0.078518, 0.097439, 0.049386, 0.021908, -0.584479, -0.605884, 0.077384, -0.006091, -0.038455},
{-0.010431, -0.177027, -0.707612, -0.309740, 0.067076, -0.000385, 0.217110, -0.192740, -0.252760, 0.152018},
{0.095627, -0.369376, -0.327198, 0.166922, 0.112656, 0.244880, -0.245890, 0.354775, -0.509072, -0.514002},
{-0.089330, -0.210558, -0.022526, -0.177067, -0.252213, -0.187768, 0.058419, -0.084724, -0.015087, -0.217647},
{-0.489923, 0.198954, -0.724548, -0.557175, 0.107148, 0.096436, -0.331905, 0.200624, -0.369402, -0.035977},
{-0.183994, -0.242243, 0.048788, -0.162116, -0.116710, -0.018061, -0.213931, -0.019476, -0.038107, -0.210701},
{-0.147474, 0.091055, -0.249223, -0.192437, -0.277039, -0.263179, -0.142830, -0.227775, -0.148086, -0.195588},
{0.167874, -0.298784, -0.087013, -0.068499, 0.190591, -0.005065, -0.625327, 0.207582, -0.164431, 0.170134},
{0.013509, -0.165581, -0.135432, -0.158169, -0.044713, -0.130367, -0.108746, -0.166161, -0.103218, -0.018843},
{-0.270187, -0.428231, 0.033342, 0.238334, -0.180602, 0.105109, -0.879503, -0.392365, 0.051611, 0.362122},
{0.033033, 0.301971, 0.030254, -0.257186, 0.199290, -0.560893, -0.131425, 0.026896, -0.123962, 0.122537},
{-0.294035, 0.336172, -0.076047, -0.403343, -0.213908, -0.157409, 0.333126, 0.162093, 0.079448, -0.784071},
{0.332955, 0.062104, -0.049305, 0.228977, -0.873154, -0.264226, 0.179891, -0.415749, -0.218265, 0.290095},
{-0.178611, -0.246056, -0.240150, -0.069120, -0.219418, -0.236028, 0.002795, -0.108050, -0.104614, -0.211414},
{-0.239431, -0.066597, -0.008843, -0.145494, 0.049777, -0.246190, 0.118517, -0.221520, -0.052634, 0.081035},
{-0.093433, 0.241241, 0.165145, 0.211252, -0.128561, -0.723853, -0.003359, 0.008795, -0.219401, -0.546511},
{-0.102268, -0.417300, -0.288857, 0.254753, 0.133608, -0.118695, 0.092580, -0.548367, 0.214163, 0.196326},
{-0.178349, -0.007575, 0.029087, -0.075661, -0.074159, -0.176525, -0.278457, -0.071162, -0.116975, -0.146522},
{-0.393354, -0.033662, 0.237536, 0.105273, -0.108086, -0.022335, -0.046533, 0.111508, -0.457250, 0.138745},
{-0.041989, -0.183936, 0.024140, 0.101890, -0.187723, -0.093566, -0.126387, -0.209026, 0.099358, -0.178696},
{-0.072885, 0.234963, 0.115073, -0.289301, -0.469278, 0.459699, 0.239520, -0.541855, -0.391616, -0.088844},
{-0.228502, 0.123116, -0.199869, -0.150143, -0.014331, -0.133709, -0.265498, -0.222102, -0.128424, -0.193367},
{-0.233482, 0.113226, -0.151863, 0.102606, -0.555658, -0.355680, -0.532432, 0.224074, -0.166299, 0.108883},
{-0.814897, 0.167474, -0.548523, 0.224215, 0.290930, 0.218385, -0.122236, -0.008397, 0.061656, -0.308919},
{0.144798, -0.457862, 0.054991, -0.370209, -0.595206, 0.211627, 0.434467, -0.074008, -0.124237, 0.340164},
{-0.888908, -0.378358, -0.564847, 0.398312, 0.041441, 0.316215, -0.693168, -0.172338, -0.379631, 0.131760},
{-0.666814, -0.383153, 0.113845, 0.303640, 0.067895, -0.068885, -0.121967, 0.187814, -0.274922, -0.059479},
{0.235060, 0.348539, 0.373499, -0.763224, -0.057671, -0.209730, 0.114751, 0.048742, -0.477558, -0.308842},
{0.080051, 0.254332, 0.536429, -0.358723, 0.219517, -0.055813, -0.408672, -0.429671, -0.766965, 0.109056},
{-0.123699, -0.231661, -0.091105, -0.036689, 0.151224, -0.283177, -0.228057, 0.219525, -0.824215, 0.287592},
{-0.171206, -0.128293, -0.022469, -0.121861, -0.172948, 0.105593, -0.069759, -0.072808, -0.097892, -0.198531},
{-0.016847, -0.082154, -0.018460, -0.150170, 0.047049, 0.039143, -0.478530, 0.017163, 0.195435, 0.149429},
{-0.111220, -0.398206, 0.005350, 0.024358, -0.862141, 0.121691, -0.455014, 0.268198, 0.008021, 0.179451},
{-0.044094, -0.326628, -0.050914, 0.026579, -0.196541, -0.037039, -0.156273, -0.254105, 0.044208, 0.003334},
{-0.303675, -0.109244, -0.024665, 0.060573, 0.093506, -0.083064, 0.113631, -0.167308, 0.052758, -0.172546},
{0.153004, 0.116566, 0.352726, -0.452140, 0.275122, -0.748232, -0.057736, -0.093830, -0.003217, 0.271260},
{-0.124324, -0.390071, 0.241793, -0.260290, 0.045313, 0.286417, 0.143195, -0.234489, 0.145923, -0.626413},
{0.243828, 0.470922, -0.095109, -0.242020, -0.273547, 0.315063, 0.309573, -0.397948, 0.118072, 0.006357},
{-0.449263, -0.440679, -0.136418, -0.123215, 0.155265, 0.095136, -0.181912, 0.185613, 0.123158, 0.131242},
{-0.008192, -0.263355, -0.601682, -0.066210, -0.411922, 0.183793, -0.193525, 0.235798, 0.206748, 0.217307},
{0.180587, 0.126662, -0.283206, 0.163197, -0.169466, -0.122669, 0.237925, -0.157694, -0.280387, -0.024750},
{0.077766, -0.214111, -0.087332, -0.177412, 0.022476, 0.343781, -0.162396, 0.078164, -0.534553, -0.147373},
{0.010222, 0.427037, -0.080347, -0.008658, 0.249987, -0.420001, 0.233237, -0.150634, -0.437859, -0.737085},
{-0.182744, -0.061688, -0.097453, 0.009070, 0.049531, -0.117120, 0.111754, -0.267645, 0.011640, -0.213955},
{0.105462, -0.055691, -0.291537, -0.462554, 0.125534, -0.058826, 0.131223, 0.117250, -0.578467, 0.070372},
{-0.442438, 0.050053, 0.147195, -0.082116, -0.375759, -0.343015, 0.243246, 0.303738, -0.326682, -0.566372},
{-0.403076, 0.212302, 0.039213, 0.242884, -0.144389, 0.320218, -0.370658, -0.199543, -0.353779, -0.115108},
{0.021865, -0.227145, -0.199286, -0.199835, -0.246021, 0.117101, -0.034846, -0.271287, 0.085052, -0.125738},
{-0.826779, -0.532457, -0.055424, 0.214936, -0.392280, 0.140730, 0.032815, 0.248127, -0.035362, -0.138051},
{0.010637, -0.200106, -0.217568, -0.176448, -0.198745, -0.191929, -0.134207, -0.134452, -0.032841, -0.225790},
{-0.377824, -0.434814, -0.120803, 0.005980, -0.031846, 0.334754, -0.171453, -0.280878, -0.370711, 0.224807},
{0.467598, -0.597311, 0.087466, 0.143454, -0.504726, -0.340811, 0.056633, -0.071873, -0.063751, 0.360799},
{-0.205720, -0.113690, 0.006735, 0.033802, -0.260392, -0.071209, -0.350644, -0.102395, -0.106661, -0.067962},
{-0.450231, 0.168885, -0.450276, -0.590661, 0.232092, 0.212709, -0.036122, -0.062489, 0.172905, -0.105300},
{0.090597, -0.422365, 0.286276, 0.133877, 0.047079, -0.040545, -0.234175, 0.006710, 0.288303, -0.312715},
{0.180472, 0.222934, -0.064577, 0.126641, -0.010181, 0.022947, 0.000558, 0.080695, -0.523377, -0.429630},
{-0.285398, 0.265799, -0.375012, -0.742378, 0.010955, 0.126401, 0.281967, -0.038367, -0.368479, -0.101262},
{-0.115763, -0.372626, 0.195941, 0.023613, 0.010656, -0.185032, -0.394989, 0.109330, -0.240708, 0.019964},
{-0.315550, 0.088534, -0.296663, 0.044816, 0.027440, -0.336498, -0.429593, 0.185606, -0.125722, -0.093178},
{-0.509261, -0.020452, -0.181265, 0.126058, 0.219602, 0.118824, -0.541579, -0.367169, 0.170257, 0.085155},
{-0.288950, -0.071298, 0.391425, 0.305084, 0.070114, -0.321916, -0.535139, 0.576997, -0.348263, -0.988868},
{0.216684, -0.188528, -0.227145, -0.039623, -0.924264, 0.296708, 0.337800, -0.387166, -0.193352, -0.093197},
{0.102781, -0.184786, 0.254825, 0.151736, -0.840621, -0.099654, -0.175642, 0.276662, -0.288734, 0.024781},
{-0.230228, -0.175336, 0.039645, -0.051565, -0.053703, -0.901394, 0.392599, 0.083416, 0.162985, 0.076057},
{-0.602040, 0.164973, 0.486115, -0.524760, 0.222739, -0.297081, -0.213960, 0.491529, -0.013820, -0.640502}
};
