const double b1[784] = {0.089756, 
-0.050801, 
0.091277, 
0.025488, 
-0.027485, 
-0.015148, 
-0.029829, 
-0.028478, 
0.021207, 
-0.045372, 
0.013077, 
-0.026141, 
-0.037679, 
-0.049658, 
-0.023086, 
-0.067492, 
0.029379, 
0.012686, 
-0.010815, 
0.046250, 
-0.009509, 
-0.044704, 
-0.009616, 
0.081980, 
0.051120, 
0.027482, 
0.052725, 
-0.045241, 
0.009348, 
-0.032236, 
-0.029174, 
0.003709, 
0.053523, 
0.018116, 
-0.047082, 
0.028923, 
0.009856, 
0.085515, 
-0.057177, 
-0.009981, 
-0.015865, 
-0.018781, 
-0.007931, 
0.118795, 
-0.019396, 
-0.050603, 
-0.001640, 
-0.033806, 
0.055051, 
-0.023779, 
0.011141, 
-0.013747, 
0.046136, 
0.020926, 
0.090256, 
-0.094473, 
0.029875, 
0.123113, 
-0.018783, 
0.054165, 
-0.009050, 
0.005562, 
-0.010936, 
-0.007480, 
0.042495, 
-0.007324, 
0.027454, 
-0.009153, 
-0.038310, 
0.084407, 
0.049952, 
-0.038203, 
-0.106007, 
0.082512, 
0.045352, 
0.041206, 
-0.018202, 
-0.007836, 
0.004267, 
-0.030436, 
0.030713, 
0.007789, 
-0.031492, 
0.021254, 
-0.039784, 
0.073559, 
-0.021623, 
0.081673, 
-0.037138, 
-0.058730, 
-0.019054, 
0.010846, 
-0.030007, 
0.037620, 
-0.100726, 
-0.008705, 
-0.007087, 
-0.044139, 
-0.041144, 
0.035896, 
0.052166, 
0.071375, 
0.046438, 
-0.135682, 
0.038898, 
0.033020, 
-0.038156, 
0.023272, 
0.013610, 
-0.057720, 
0.017657, 
-0.003350, 
0.054625, 
-0.002126, 
-0.015116, 
0.006249, 
-0.008520, 
-0.030818, 
0.023066, 
-0.003294, 
0.034250, 
-0.045875, 
-0.087237, 
-0.002753, 
-0.010427, 
0.055702, 
-0.044368, 
0.012017, 
-0.094341, 
0.001466, 
0.071187, 
-0.054667, 
-0.018048, 
0.029911, 
0.046543, 
-0.054284, 
0.010215, 
0.045128, 
0.010266, 
-0.039698, 
0.049908, 
-0.044839, 
-0.015674, 
-0.025231, 
-0.019412, 
-0.007725, 
-0.019596, 
-0.054680, 
-0.023080, 
0.053413, 
0.007022, 
-0.094985, 
-0.049301, 
0.047376, 
0.027813, 
-0.092160, 
0.043568, 
0.057138, 
0.081102, 
-0.013676, 
0.013646, 
-0.056324, 
-0.083809, 
-0.026072, 
0.000331, 
0.055405, 
-0.019040, 
-0.006382, 
-0.003559, 
-0.102564, 
-0.035605, 
0.081838, 
0.036314, 
0.009022, 
0.050740, 
-0.003156, 
-0.037117, 
0.028866, 
-0.124125, 
0.017380, 
-0.013789, 
-0.015753, 
0.003115, 
0.038207, 
0.032275, 
0.028073, 
0.004009, 
-0.040415, 
-0.068993, 
0.084127, 
-0.042464, 
0.035679, 
-0.042644, 
-0.114252, 
-0.000931, 
0.006582, 
0.122851, 
0.026942, 
0.057410, 
-0.048553, 
-0.072427, 
0.055447, 
0.035974, 
-0.021080, 
0.034402, 
0.024773, 
0.002335, 
0.020450, 
-0.031510, 
0.012574, 
-0.010432, 
0.008943, 
-0.048567, 
-0.032055, 
-0.007779, 
-0.030245, 
0.094272, 
-0.039479, 
-0.036726, 
0.023426, 
-0.005839, 
0.014728, 
0.007537, 
-0.022922, 
-0.003063, 
-0.092176, 
0.006864, 
-0.007532, 
0.032807, 
0.005218, 
0.023004, 
0.066715, 
-0.006773, 
0.043774, 
0.122365, 
0.027946, 
-0.063256, 
-0.016101, 
0.011412, 
0.035980, 
-0.001252, 
-0.024629, 
-0.064117, 
0.001983, 
-0.056543, 
-0.035813, 
0.029439, 
-0.082903, 
-0.020824, 
0.027667, 
-0.004401, 
-0.001643, 
-0.021446, 
0.092286, 
-0.027197, 
0.035608, 
-0.026111, 
-0.037392, 
0.035477, 
0.013500, 
-0.033712, 
0.003766, 
-0.033565, 
-0.005025, 
0.092197, 
-0.059041, 
0.027580, 
0.025996, 
-0.039348, 
-0.066750, 
-0.053336, 
0.064402, 
0.000958, 
-0.030889, 
0.039234, 
0.007171, 
-0.059052, 
0.062484, 
-0.016949, 
-0.001591, 
0.013361, 
-0.068387, 
0.019205, 
0.053337, 
0.021993, 
0.003544, 
-0.010513, 
-0.064273, 
0.113822, 
-0.014335, 
-0.031387, 
-0.023801, 
-0.004409, 
-0.002388, 
0.117940, 
0.040557, 
-0.012135, 
0.019056, 
0.103978, 
-0.050646, 
-0.038813, 
0.011156, 
-0.056636, 
0.040778, 
0.020435, 
-0.032692, 
-0.064195, 
-0.053999, 
0.078796, 
-0.040558, 
0.001604, 
0.052144, 
-0.071540, 
0.057562, 
0.049797, 
0.002769, 
-0.089948, 
0.052490, 
0.038388, 
-0.047573, 
-0.038781, 
-0.023733, 
0.002448, 
0.072692, 
-0.025810, 
0.044533, 
-0.082930, 
0.040268, 
0.036957, 
-0.033733, 
-0.000656, 
-0.055149, 
-0.014044, 
-0.031999, 
-0.058392, 
-0.019591, 
0.025624, 
0.041661, 
-0.010599, 
0.042412, 
-0.015968, 
0.079859, 
0.045608, 
0.003112, 
-0.033199, 
0.008805, 
-0.074580, 
0.013812, 
0.018194, 
0.052000, 
0.042775, 
0.030947, 
-0.072740, 
0.005656, 
0.073605, 
0.006607, 
-0.080204, 
-0.046517, 
-0.001507, 
0.007902, 
-0.066915, 
-0.005375, 
0.046116, 
-0.051160, 
0.072418, 
0.010196, 
-0.024182, 
-0.034063, 
0.051740, 
0.019627, 
0.070447, 
0.062996, 
-0.023045, 
-0.006304, 
-0.017563, 
-0.040237, 
-0.028798, 
-0.053888, 
-0.078421, 
-0.050644, 
-0.050943, 
-0.003961, 
0.001292, 
-0.050936, 
0.000413, 
-0.086043, 
-0.014221, 
-0.029604, 
-0.030344, 
-0.046081, 
0.015026, 
0.013841, 
-0.116095, 
-0.028146, 
-0.056059, 
0.073158, 
-0.051535, 
-0.035782, 
0.002468, 
-0.000666, 
0.071048, 
0.068322, 
-0.053610, 
0.103834, 
-0.109307, 
-0.086801, 
0.009773, 
-0.036203, 
0.008983, 
-0.015189, 
0.071281, 
-0.023245, 
0.034306, 
-0.038333, 
0.019988, 
0.036275, 
-0.021218, 
-0.002551, 
-0.033845, 
-0.010676, 
0.065342, 
0.095708, 
0.046509, 
0.074006, 
-0.028895, 
0.092469, 
-0.029733, 
-0.062040, 
-0.023916, 
0.050053, 
-0.009058, 
-0.045157, 
0.093887, 
-0.019790, 
-0.051215, 
-0.015591, 
0.023239, 
0.005627, 
0.016367, 
0.042104, 
-0.022584, 
-0.027046, 
0.059238, 
0.015178, 
0.072789, 
-0.023015, 
-0.016734, 
-0.036101, 
0.014496, 
-0.036325, 
0.030826, 
0.012782, 
0.011214, 
0.019465, 
-0.004675, 
0.020621, 
0.172220, 
-0.020727, 
-0.021246, 
0.047259, 
0.073227, 
-0.108618, 
0.071211, 
-0.048661, 
-0.009212, 
-0.003642, 
-0.023262, 
-0.069519, 
-0.046865, 
-0.026916, 
-0.048795, 
0.003319, 
0.033016, 
0.011135, 
0.065871, 
0.023672, 
0.030411, 
-0.079957, 
0.056396, 
0.014019, 
0.011347, 
0.034653, 
0.008660, 
-0.071297, 
-0.029736, 
0.050075, 
-0.012244, 
-0.070856, 
-0.032229, 
0.037640, 
-0.061767, 
-0.020920, 
0.044747, 
0.006249, 
-0.065291, 
0.016806, 
-0.030576, 
0.008132, 
0.009194, 
0.076706, 
-0.037689, 
0.046256, 
-0.059090, 
0.044413, 
0.105501, 
0.056163, 
0.055325, 
0.043207, 
0.014896, 
0.004731, 
-0.025716, 
0.039548, 
};
